34.74088735174217 35.878428483848076 29.89941982184081 32.021307193836655 34.40381850976766 34.066308678363136 30.299252654976225 24.369438468709482 7.417121141742584 5.454423387152243 7.413942475158219 1.9908682795943005 3.165053809430966 19.74885684127124 25.77583213994938 25.658166244519443 24.05675921187575 21.923353761658966 23.415631812183967 25.223738540965197 24.864298528317782 23.403222828459526 15.449662015946714 -4.493107038258253 -3.497402189413081 3.971209012078985 13.384682106521687 10.342691064801745 11.151282575172347 10.675840822774731 12.233117176247955 17.700724265856785 20.827646114029584 21.092901474074438 19.294774059517035 13.083933616041898 10.256390787224413 3.8815976617503196 2.004903000087673 2.4824444406239934 3.4950737095442395 4.042039231358437 4.738873024997455 5.385318751413594 1.2016272772139798 1.0640511117453588 2.5922648331321763 0.9267324678620522 -10.354991085324793 2.18630924679384 11.027871475858724 11.092581683460141 11.9476872324327 3.384285533558167 3.6993813007543332 5.711029069948797 6.649006873473973 -4.5183915241603 -18.451707597472765 -18.85549971569967 -11.410309916732258 -9.142471577311287 -11.386403493074157 -1.7763174431379263 -4.940183195331084 -12.340178658264573 -6.9336227573485125 -11.549095355212705 -17.633290428534618 -11.65150020540745 -9.086806140267537 -5.941409086830678 -11.012409969709944 -9.557503670036121 -11.078840579427592 -12.281934360842552 -13.392730436343774 -9.02153471802282 -2.187446272491912 -1.0270966673438453 -4.7886864568833785 -12.784724937229791 -9.329634030289943 -7.2704616002950315 -5.650750821200627 -4.251397426375502 -3.849664260953376 -6.816497833536985 -8.86335790317109 -8.302447674252821 -7.804998748886513 -4.148779944377616 -5.464504906442329 -2.6792999215441844 -3.621203959262581 -0.9441554566814323 -0.4168417435366227 0.20076129689297728 0.2521110308260479 2.138572643101521 1.0524927519765501 1.6131398983108456 2.2912038583608934 1.4372998704766502 0.9547243098878264 -0.7759145208356666 -2.7470002639424007 -0.5534345123470569 0.9303757856279071 0.0981001538045327 0.40163993457161984 1.6539022264963281 6.7114978862897985 6.756227377444533 7.935766152145855 6.042079451567714 7.613351290285376 9.69861644177765 9.647170857607808 9.966013689980137 10.01753593458779 9.999828260542964 10.437839045916366 8.65629424367962 8.07454906113565 8.342265697044304 8.3663153255727 10.368293605340034 
19.877925547701654 22.186626449648028 24.416578420685905 25.4487809136459 32.12091301904135 35.995440769097385 34.93804289323048 32.18730696816613 16.7634747611269 4.189217086089354 7.564810001273033 0.8004318384045018 0.19437127871594564 19.248615580501234 23.635983237684417 24.048106408628403 23.73510182085517 24.736484927006728 24.812480872220355 25.450947407873812 25.18807747028866 24.02106942257525 16.787325307480742 -3.958875980075397 -5.244361172537874 2.695937821054368 10.284268751892723 10.769726498327762 10.894753724324193 9.294446329522305 10.49576413769877 13.156009467726687 20.57823287156264 21.534903953240185 18.159689589278976 15.212960641022928 11.870731072471735 8.685816912080108 8.73322732438295 8.097388795515874 7.099037586847066 10.62764667780785 12.061221647699247 12.978110025129848 9.61419269551201 8.909434478668377 8.171395902538706 7.166555313324784 -7.913921975661775 1.7808467217572024 11.17275891973948 12.111632119726455 11.888621456327874 -1.154140834195876 1.9024360216368232 7.74688534321555 7.027565078380273 -0.6789215149230662 -17.51023696296686 -18.055575409909544 -0.37632660532056716 8.347947026234007 -0.4501762269903118 11.548884432659792 9.040629591572076 0.6459378157709673 0.6351249753869936 -3.8380026790108297 -15.544543008846873 -12.793364796074448 -10.426351503593077 -9.737514173111355 -13.2915238121992 -12.91953221184907 -15.62613920450464 -14.578966738301467 -14.987711692306673 -13.610857999558895 -1.432152540672326 1.9028030602553763 -1.4442994485026501 -9.526351154237663 -7.3472339532271596 -4.8108582657688315 -4.116451997595014 -4.686830131223035 -4.547233147359448 -8.158280729604114 -8.092846046912229 -6.653034804152437 -3.7668130247397102 -3.993274138380283 -3.9917960530137173 -2.1281196565313976 -5.290354089063585 -2.0680414169207806 -2.7204442826443045 -2.2203615075820977 -0.3920982267599498 1.2220126109022635 2.234159166037111 1.609668672136011 1.850099720887247 2.733556898381779 3.7195358367384626 -0.09581654324651839 0.40000509812525586 1.2963383557018955 1.1257855391983578 2.4283187121653196 2.1358196534571006 3.2703861523585873 7.06849055259067 8.799558781127038 8.987110212471991 8.299739811635614 9.274465657812724 9.820679337470107 10.075191032423659 9.691788302887797 9.87991554303363 10.69396869979239 10.477069204150428 9.783641767120073 8.841153159014121 8.839314097543465 10.129660392685723 11.170381024619788 
-3.113119145103698 -2.978731065830973 -4.01325892317598 -5.547480796543262 12.918399286343043 33.80642900057373 37.51835860925215 36.57104295963803 25.53584050303594 4.7723149849497535 4.687056131302901 1.1647007801307367 0.13350180536487283 18.678800763998886 24.68379757814048 24.96252009859111 26.91421667003221 26.366202374475595 25.774813580706397 25.93590979634082 24.328278164174588 24.779561979918352 16.626672301671295 -4.955240553069057 -5.993866536802678 0.808396855106599 9.662052729342872 8.90810890010024 8.265165026135088 9.227165704411469 11.116974995020547 14.60250609996706 19.845301236701605 20.945936694079887 20.419701560783 14.516319472628833 13.10566262995498 15.724075581622703 16.566246763810124 14.014306012225438 13.832840939229165 13.85146048020521 14.265080440056277 16.066344080947694 15.150021011156332 15.410787446151927 11.297516947096671 7.668947878789672 -10.353289260914226 4.3387781770644995 9.822297477394564 6.164356976454968 14.145699416711604 -5.239916088382112 -7.337288735247537 6.354398553193369 8.442571284470398 -3.917640437812661 -18.906577448796295 -19.11464366992376 1.33493782705415 10.879937513210743 7.338721825283257 14.603222472978484 17.478174225183984 10.136775617697435 9.547140764120618 14.305116166965723 -8.421883189129462 -12.277439010054582 -9.601175882893589 -9.308881155357948 -11.608674742873399 -12.966843494577333 -14.921029847641128 -13.474298740311403 -11.878492812325641 -9.909151288323685 0.4605999410180601 3.749336542868598 -2.4053915461839943 -9.73058220714013 -7.40412867750517 -6.654576757796077 -6.30266868442369 -3.2321418330455765 -2.5709689603394397 -4.395840547277236 -7.4988610720705084 -5.431881605056712 -3.9660384533198036 -5.34431734585959 -5.7243136714736895 -5.319586844864275 -8.21683578469539 -3.258849855472773 -2.7231239052589395 -2.7207880102542905 -3.4417787086248226 0.03213021997436338 1.5446363340500817 1.5788926404516692 1.0369010608487557 2.993437362323046 3.8626607751811632 3.3103560503976173 10.245830930262642 9.99460084629716 9.04690467234009 7.042562219857222 4.988949122203095 3.927857026437125 4.9405136112122205 7.072810126001368 8.492357705079739 6.3151055599692185 9.690484971328772 8.193191244762897 9.35388805003079 12.429054306056447 11.095654309219906 11.388213549290002 12.482309930579387 10.090265021104594 9.033505794870475 8.328212198522378 10.764317997598809 14.93626102379826 
10.253800294835434 2.2261450603355444 -0.9671517747002181 -7.250157246245728 7.245619711187256 29.55009102745623 29.322453341081218 29.673134454700953 17.913678172347872 -3.3095594099032595 3.097538400664081 2.4610774859544673 7.365523252513671 28.25739733945696 32.45708762592446 30.582567289588237 26.666514594759995 25.893911841438236 24.93100823017222 23.643657916293623 24.019971750956365 23.090437091353895 15.540431623174829 -5.601469065653022 -5.186423511128758 0.46170327061584254 14.386163707223231 18.59675540986626 12.9031773198933 17.335527982979364 21.855750459981792 21.866482399335386 23.051032561022804 22.203725059738442 21.705993746648023 14.474409601728675 10.381383192840003 12.10857384946731 14.051862295656663 14.662932815433988 12.398694134288446 17.728483059140142 17.495682239396633 19.146984306791328 18.78003487065578 17.23618679401493 13.887598182800522 10.237498601666422 -9.708246698300647 2.74695703257457 8.501606295000848 4.5207084868047245 6.771759961314975 -2.3180329860182742 -3.912066630358035 -3.4571344096962147 4.579460987021749 -0.3711865917242548 -18.628195129505343 -17.94456583232984 0.5594457935403702 13.165998586895846 12.33238672454716 14.382023339101789 17.67199041113157 5.143256790537804 4.250720920946733 9.990382418368725 -10.953067213526795 -9.132016271679664 -10.535424405315212 -8.324655713269287 -9.446041230056352 -9.75731347855767 -8.918297433787437 -8.124640946879039 -9.17509281777875 -9.169413566451444 0.8847824577735366 4.523115774385369 -1.1482298083622775 -9.557425805121596 -5.7148888746695325 -4.830284531549158 -3.1265126838619834 -5.25155136563396 -4.015453362597366 -5.2887687121578315 9.104071921837749 6.8620010822799635 2.208967348147786 -2.2576948681457463 -2.7972035858851463 -4.758261858708555 -4.281619881275901 0.31649818967177934 12.056353689879414 10.149363966846963 6.455052952927344 6.09477049138627 2.203551585498202 2.180327006868219 1.6961421222125659 1.660847840798574 2.445253164456337 4.7044091366742355 10.831845794795429 12.889333967951664 13.134997596390313 15.347579368392093 15.970638804331564 14.94972673313111 6.740257464835317 7.961171640498334 9.81477728810552 8.941628524338553 9.739638892694497 8.294646531170482 9.998764322913598 12.19372194781508 11.585259983176753 10.647374952089804 10.609828316121671 8.92486979548602 8.856311957252492 10.394489416152298 12.392214993434207 12.758182907141036 
12.50941909042136 7.1123685418265135 4.471680118501842 3.5776618191403275 14.549781374380316 36.94257823629897 32.48296060656606 21.8422218337392 -8.218309846963692 -23.13306081916276 -16.47186120096558 -12.818157334920024 -6.845606000572057 18.386578207739607 27.78727287801232 30.727284002798534 32.38322946374736 28.1322945710053 26.07250002724461 24.534713844703667 25.787534415380925 23.723499994468487 17.085949461758947 -3.6666468873684726 -6.146084976544064 -2.0116382567132365 13.849525038596592 22.379422555014514 21.64642201239862 23.488765841067135 21.968741837223988 21.968939733275626 22.925412956513068 20.15542200265126 19.345243775450502 19.114691167870557 13.093535549113332 10.083112972253717 12.615748643211896 15.682338951376959 16.72706780459601 16.344596681819823 17.438321424816007 19.64954107520492 18.525506192705347 17.196811473534673 16.601825366974303 11.645416915092358 -8.58825884926211 1.6575019377240048 12.325087818793408 6.858381283865241 5.846922335257651 -0.18696258478600228 1.2958497367250206 -0.13088443544210437 7.025049310652334 4.196753536325253 -17.86405348432714 -21.295862830268177 -3.841740764033593 11.660977944587943 11.43366801881153 14.783687032363042 16.531575329784907 2.0566937880880616 1.1777003609186347 11.441977688795914 -8.236324770501767 -3.042263293769775 7.751703730012803 9.264015830999782 3.8955860878670365 -1.4798767288432997 -4.398646323885985 -5.282207380532213 -5.679070522057249 -6.420074408636842 0.8928256179990253 5.794588363274555 -0.002024901316119715 -8.8813938267372 -5.698614334242676 -3.1109941318801964 -0.2851493481188778 -3.119336161344366 -4.564026726269131 -4.5649364268036905 13.239559568441498 14.925208870034426 13.72577182179267 7.486399913828336 7.641716815956945 7.62319484894997 5.310265963423565 -0.3736711949762215 13.244503307262272 15.185273815598578 14.401456622580396 16.325722567937053 14.396797319307359 13.824641474478138 11.836714771776611 9.783025081042636 8.293778111575136 6.074070975930159 14.092153860172395 18.296504521402753 18.164042116970517 16.105490513424378 17.478939294659614 16.264570563268155 6.391206983921096 9.389511447939547 9.661463385114361 8.896147382600676 11.596337871094029 10.46812263223688 12.623845128486948 11.272531522868197 12.499127619101868 13.008217800417787 11.698015611494343 12.88648093075667 10.151735257486566 10.45741880897402 10.506433693511948 10.695221337101795 
4.1194822085801865 0.7112534400249888 -3.036449447437126 -7.532428990395579 -5.467302526880037 15.168042720254062 13.535500742106178 7.093273111446292 -12.658479888261164 -16.58407047784056 -14.000158032447949 -15.126385252645147 -18.862713384910258 -8.162500875194059 -5.616401759266482 10.799821795244505 26.498135693903848 21.437590517948063 20.202162908316726 21.896339124109865 23.10780166752747 23.074376758203655 17.32583949218268 -5.356144719340403 -6.513934950495005 -2.5772087653177467 9.893921112854962 19.784675062862203 25.77191648968467 22.65911853841575 22.666824709927972 21.768949980291154 21.58430572001762 20.647270905303426 19.985623337115015 21.34539485168172 17.376182120391356 8.784241020822677 8.962922049314757 11.50203674931895 13.635466092508652 14.577786585956611 16.91044962097214 16.87731289889952 18.210937547557197 17.70746736359562 17.099023276178748 8.397969497842482 -8.237041540048242 0.9804107900975738 13.698545692918747 13.91690929927381 12.124980363417606 3.085089832375061 0.2905934598980494 6.319636912493545 10.256493804569445 6.280698156882414 -15.485660634009669 -18.3846745536476 -0.6982675330510653 16.773964933527033 15.927396755478613 18.562326679551663 19.133540623579748 9.067929668761806 8.641372566604582 18.393901968975946 -4.318227502817171 0.9623907139846228 11.813992860478727 15.480572912588666 13.19564401677272 12.970548710614448 11.560894191349092 12.092780861176825 10.141200385663758 -0.4204795897963812 3.2811325319017643 7.587403355416311 4.307582290787607 0.39376184715476253 -1.2026643997549646 -3.7818092485068293 -2.773107269427547 -2.6186232837230716 -4.034068354426402 -4.784058451470062 11.651693417917324 14.285892633160726 14.473540862501785 12.017082912202575 10.526356617072613 9.249968046170508 8.172871266617308 1.0864162093483125 14.576989808693694 15.863284848737267 16.086256223847656 17.50683767191677 17.47395017342502 16.797597160646237 16.006411143645032 16.054127337422244 14.608188364501316 4.162730986188253 15.910081998114961 18.407029312910716 19.186589587437222 17.80137798089097 18.633362542218407 18.02037395509516 8.985675697922215 10.456902836409068 10.60908062017953 9.15485498204928 11.543111163054407 11.822270446556615 12.923680669320204 13.997997962285774 12.127484555940262 12.188003217648403 13.022549845661525 10.884156547324075 10.727253030833532 9.310980868990784 10.626914118575893 11.615960481368834 
-21.627911970397438 -20.116952297976827 -16.437820272824094 -18.61410764384561 -15.838838772600758 10.42137567027736 9.093556135732426 3.7968010498338916 -13.43185575384676 -18.673027429954942 -13.821746253905545 -7.566882145212144 -11.330727423176691 -15.942710069719082 -24.236825848950875 -11.534835088522257 8.136933944616866 0.3006179252791201 -1.5512342411879911 -0.7238709827742599 -1.4987065367951176 4.548413237241153 2.641262522306878 -2.6869444078255382 -3.6241394568165823 -3.956432019142227 7.7626715176986165 18.669667754900413 21.782129731277436 21.948600342181557 23.222264398997396 22.38231547875587 22.636958577646993 21.489859728070005 19.838967496030776 16.944959232807193 15.58026392453179 8.382504746709818 7.288283120366372 10.944655178055902 8.168318160450177 10.195591052756074 14.7614292148184 19.251984801039555 18.415060680342158 16.577078160707988 17.51665357344067 10.666856344459553 -7.543872234002033 0.5556075006477048 14.224067859005796 16.845725521760386 20.527697901657692 19.169271129117412 13.411440569551653 14.977978847356905 13.708339887915688 6.676229601781259 -14.019175207198813 -18.137515864187588 -0.5990732912111723 18.020853787479126 17.810891921964508 19.39258822304755 20.862886065207885 13.198165523407614 13.918535114301436 22.497487526351158 -2.8330313585586704 1.064235283254705 12.361340484326341 16.0598425990921 16.040645339996097 15.78412248581952 14.232536875987824 17.803972166654862 16.00292199602549 3.735587761395909 1.7695924742698093 5.357357612208023 6.915855479212433 11.214318453496482 13.17812603011268 12.061198139999771 9.731493196111485 8.231525528546491 3.3479641394095467 -1.9561364449396559 12.282923672145364 17.17814947780086 14.730840949248892 15.838108808072342 14.462521431810378 14.020344042541716 11.894924754004064 1.0650328181406516 13.21689343022493 16.188453402039023 15.61963671282124 17.5270326622182 15.770725070451283 16.351196036721333 18.394350194557504 18.472299913322395 15.16442635595945 5.20529106757926 17.193677408045236 17.67575391219786 17.359369952126787 16.640585226128678 17.1015427910924 17.607904201135796 8.413261699244826 9.739616728184265 10.286532226876972 10.38718442736749 10.533299492474576 11.691744876964963 11.822390645933233 12.116605760775196 11.829903067799712 12.98045154336843 12.372112885127015 12.496715153481725 12.550825837098866 12.605132761283325 11.72732971237083 10.701378366234454 
-33.602493559532945 -31.221618594282535 -22.457940952867148 -29.885904135707353 -28.2639146734143 0.07786086388137585 4.996804823612602 3.164153054815069 -15.373107269338313 -18.324890427653205 -12.815541125976022 -3.6147356230393166 -10.391621689398255 -14.173194138709894 -21.889570592289356 -8.719555264193014 3.2308570709357256 -2.1631912744728155 -4.243948885189995 -3.402667622734652 -1.4768263432926958 2.5448762367858246 5.75581125857412 11.366506477957223 8.163207019141119 5.8800867614533585 7.227325576524891 23.05703530178636 24.96656238745679 24.392788909519645 23.808076612716288 23.81819268990926 22.247518274755528 22.61919899061005 21.095556302772636 10.48170475260765 11.190180244349472 9.018551030133642 9.39667152606812 14.593161515737561 9.472278833054952 9.621602932322752 20.388880561700585 20.434968196183444 19.67282705297615 18.976121376560304 18.16169540134373 13.662047139048656 -2.3135231547426245 0.726562310423599 16.919741230702662 18.584519371248156 22.92392351395905 22.23864097673072 14.462232574921137 15.32058097843101 13.257507587387378 8.48176793513708 -14.49038098784968 -18.520147921289905 -2.247726330652998 18.471390941916106 17.661204880326796 18.620115842081358 19.216259478271155 10.484766137245346 15.56582209103975 24.85291588348311 -1.0974738206029984 1.4089971087983584 12.367191470078861 13.546607410169258 17.522116760596003 12.08376524254335 17.09176841164479 16.856506491623897 17.185736394511334 3.017414779250918 1.7571850450511601 8.50794777822811 9.650184793582172 12.9422293250984 15.532225402122883 15.959184626925762 15.776375524944427 16.436692834960514 16.04861487495717 10.347101717587789 11.756610482069872 14.270440950806924 15.714103269259105 14.877144431142037 16.972987137388667 16.553441605751107 13.81392686024642 3.4505311156301013 16.312391532761453 17.78934115152688 18.551965283168055 19.976121169645378 17.685437803123893 19.069586445688316 19.50009481916612 19.08212297239645 16.88481413157497 5.488711561578858 18.492281513957927 17.892916421657766 18.872285752601154 18.768943718109814 19.15719559179482 18.93593711995521 9.437804215480302 11.760216223029206 12.915078517797454 11.377881963186654 11.6590435362047 12.110328402190014 11.56170567390257 13.126139225547547 13.44938146031052 13.12591922788667 12.700772970967245 13.258401051675213 10.833854897948992 12.188051105531374 12.813035518862032 12.316396298639107 
-33.32263561492635 -31.00689360647757 -25.217689085582883 -32.60158242795548 -32.51750509018923 -3.6040213012910747 3.4095749825529786 -2.7628089475397966 -11.363262652377498 -7.7140973547876674 -2.497043365987928 8.826286340590645 9.125641249514674 3.2730214925428625 -12.30783554735344 0.10518756474094992 10.809146167894392 2.933098141689413 2.6679069389173495 5.9008689417515585 3.90279973807081 4.071546690438843 7.391022775993011 15.082852558496917 11.923173444972827 6.750634909738233 6.171131611558642 23.919376795808002 27.113817756704762 26.921001184778135 25.093644069977792 24.99890117644431 24.282191978028916 23.584755636751062 22.922326458325827 10.074600763032356 10.92895447414832 7.545862521224713 9.654082033086771 15.116414009950686 9.3260140480272 12.148959221972538 19.468069701008908 21.48766818698197 19.452927706909193 15.583732321685348 15.716057957349241 9.895709248208346 -3.6094844907397663 -1.8805633814534317 14.346940414139505 18.960496843932205 22.062689820876464 24.400957038231063 17.948876182060946 16.33153985860205 15.351843786044032 9.708517482094601 -12.232923788673487 -19.477274765622965 -4.567792322774795 17.291378452176794 15.232497743073075 9.106959785025415 12.37102870929333 4.891259954695134 13.33724022101876 24.75678725154393 0.0074402325706100485 2.333481083845705 13.622194361403682 13.054479357106338 15.834428517388822 6.54366175739664 15.076114457734706 18.839194068709812 19.16783269942924 3.4912073918196582 0.21365563462232331 9.211501413352364 7.855577820310015 13.669248958066923 14.432975968796526 15.309464898391035 17.508536321645842 17.705913473090796 16.71914908944555 14.636292419898252 12.81239507946633 17.24623393228408 18.12963012269769 18.181434295754595 19.29380747144044 16.921349729679918 11.336327238625907 1.7979169115471711 17.397043612968922 18.24336466079541 16.3862712733342 19.55429175044831 15.547170260387421 17.229368438602656 18.140648734547337 20.697273309643034 18.3335712753541 5.9388550176021875 20.711526155495257 21.510389060294838 20.232055245267915 20.490269464623363 19.27192755557949 19.612219172667082 7.5899782531578515 9.614996889651467 10.867972177496187 11.772280380905025 13.038141196311566 13.369231241265188 12.424081259239317 12.29064489566132 13.910111621859919 12.965420160959475 14.5670433844215 12.336327965652686 11.338164263732905 11.11832159607483 12.038839299958761 11.59603915814722 
-31.34172281612966 -26.102966615067256 -22.216640196959233 -24.480567000780056 -23.335831505811804 5.911815599874516 13.151629508610396 1.819250517346256 -5.902673495880159 -11.57700145760705 -13.132720274747994 8.293965230603504 13.194925153278449 7.609363914216382 -3.2207445384287055 11.041347973427854 22.118912197903192 15.563403353625096 16.716739370998162 22.340427516050845 18.3803689265458 6.815788671662386 6.5760927807626475 0.9967794240534953 1.833161608156207 3.2342245016115285 8.110359211320988 24.096742657642615 25.74919271815092 25.88033119613778 26.065706562399978 26.378027825240192 23.085543590680384 24.230428911006552 24.42464342451678 18.864820568485747 18.84947138135691 8.627412779115621 12.4419586239461 19.200137667110077 15.000971651245687 16.03302076819374 18.08323078235314 17.875457362502196 16.124564604571066 14.130916517490204 15.526495570766365 10.323243404500582 -2.4624679022887648 -6.263966748569274 2.8139313546308995 8.149129627927499 10.009644876653807 11.523677003936186 7.891373908013816 7.860073037449193 7.884245058190855 5.229860826481012 -10.962719379935095 -18.642782760025693 -8.534798057923865 15.914563764569799 14.175678200911069 18.3562094338121 19.513870168183736 11.93358020743156 13.143722551643274 20.082024370555093 1.3174872373689703 2.0766735416941287 12.319411335139575 10.659246164231112 15.798634521098995 7.506209661287211 12.228523383103942 18.04838522173649 16.884012920576087 2.2370568706130363 0.2680029878256812 5.830362058931012 8.47195828382994 12.414558151663725 15.024005465545201 15.29034172754985 17.754250490298674 16.8537421268166 16.421459846670185 14.245971893405002 15.13243159618725 17.80581849126995 16.699429988227486 17.53107050010396 17.697300495201173 17.122151123850628 13.841863143990153 0.9859789554712359 15.959167122220599 18.4894764587416 17.25495454455228 18.588701522466625 14.380364323361006 13.888221143167474 15.062810940160066 19.069694095557434 19.50200450928726 7.937485990605749 17.229424329297675 17.7609181183313 18.574216132335305 20.13170320511289 20.379619086122915 18.463117833347358 9.495538743592096 11.792311217675502 11.551365658858993 12.784986179169449 12.643248049018538 12.94429152813932 13.817143761230207 12.639312795141644 12.052326550659965 11.811404507982907 11.33400984418857 9.965520142801775 8.680962057785544 10.266009304977587 10.426381317021532 11.034940623876524 
-3.3553293806347773 -16.51378188146074 -14.762790312872994 -21.091995836369026 -20.441605988144904 0.3096782119309127 2.959376302649667 -1.8502128862157166 -16.27205295732595 -19.81907182590735 -24.3350057749211 8.284191330892162 18.11171683487051 8.744827197908275 -2.283046837872568 10.591608013054632 26.441832112451173 19.619555533690896 23.145486453768452 22.95018141180819 16.999717110558272 5.568785675087421 -3.1080500487273817 -4.151456897163061 1.4226998559462307 9.243874512414246 16.08162658697272 21.97340861996183 22.77730570935243 19.553742669288756 22.879690010146184 24.367540657578235 21.255462308742505 23.50390279530695 22.7165870415588 23.545132060281816 23.109055621846245 12.52894554581608 14.939076246155597 20.92914140988699 17.056332587203382 17.622291430384056 19.24046897451786 18.30789501081445 14.213667349402376 15.535750216927584 15.79282311068789 10.215300021475553 -2.646111536635407 -12.412725235108853 -12.00056715517398 -6.318595918728458 -3.8085770174480307 -2.274942959253882 -4.159731549034177 -6.433492700558709 -3.0980143567863583 -4.756452243333919 -4.969161685566608 -11.737994064341587 -2.75698853648514 14.787870197902121 11.999164635175967 11.75670472953429 11.823664878804847 11.967862518509028 12.684322821580981 20.10870118815553 1.4736483604762267 0.6376939589572017 14.017752401789977 10.096196078431424 14.8616124736996 15.530807150421621 13.536918705917763 16.6366045448392 14.10570030456211 -1.652341055729038 -0.1350343735672969 5.0092793944817116 3.9235728111097483 12.024792301304913 13.220348145575427 12.991718362450184 10.920331996133047 14.822112974258406 14.732834939954095 15.823225481249587 13.7754748695863 18.419422897190223 18.523841221331462 17.315506990193864 16.923968290066785 16.689934690414837 14.49138291341347 1.4659388358361911 15.826587883945825 18.70916272693022 19.12814585447497 18.881458419724776 14.634704129358372 13.76405570623082 15.403179002576685 16.95382715851267 18.630969025539642 6.896025348693529 17.551212921827513 17.169449229779296 20.269085959823386 19.250180491542846 19.93440406330072 20.88537804823673 8.656377491379024 10.399757640695476 10.360999313988152 11.06242243150951 11.411866529453937 11.75346824336936 12.1821873922378 12.018525507932278 13.372861451069861 11.66758173241379 11.267899190643945 11.891141712526627 10.305902399236258 10.403551101885153 10.952603420288556 11.429850942905563 
3.5214609392828087 -4.42670282435321 0.2509267995217483 -3.1475604961895582 -3.4330326347003264 4.402308345263877 5.885632188971482 -0.4687622014024016 -21.189750792958588 -25.841142225740736 -27.694260758870616 9.093937595004121 20.861213404612087 9.230252917056083 -2.4500848428537108 10.348901798037485 29.35721042702933 22.16290904980975 22.325319498195316 21.575070668520574 19.998804386520806 7.609669601787489 -7.237292120770236 -6.068251667285237 -1.0657171525318563 17.255186684345432 18.209653656446534 20.940719105963126 19.71159215915075 19.037391482110554 21.07360148106396 19.500935847298663 21.373214899471222 22.112968315159 22.406059136497472 23.26574753986619 19.102476370888237 11.641653515467931 10.262637542867314 20.984447728294658 23.581241082093808 23.896887639712283 23.025254649941683 19.255956450355082 15.956901883309499 15.101674816252032 16.646084458518608 9.863320074972089 -6.457635282581942 -12.441526447677726 -7.455952707526649 -4.851732352972712 -2.534730865944426 1.3310777068033446 -5.387710910192938 -8.485135390021268 -8.766730879684527 -6.5515529825460685 -3.4092350723551577 -6.2582231236424715 4.497019739848565 12.000691168018783 13.731838507083207 16.278209214484786 13.880117666609438 18.17089079281323 11.671122147989854 17.283006507206455 1.7821098027167657 -0.8759702491644954 14.253687447019574 8.909669803092676 12.58108729697788 14.18205696251717 15.169964477184852 16.72778644899708 14.730607476785785 1.4419143845904305 -0.25476931122211505 3.595936017139814 3.207481433952657 7.3252812266069744 6.853265682524834 8.775565104951065 11.424730313586414 15.029305966297256 15.35664596214768 13.393931569732827 11.393353815923318 16.77749431243048 15.002852434140918 16.33612974516093 16.228953366358038 17.820053459410925 12.566531566919991 -0.06483424190489315 12.965383406536905 17.72787679368994 17.12350272142733 17.892502477424163 15.183381302139347 15.382644875012515 13.879916596603397 15.670358661705071 17.269305080343543 5.295395178732206 12.139129794758668 14.498378902908728 16.183850937518937 17.507498494501977 17.991241619611678 19.35727092365449 7.99441166636031 8.145380708110583 9.918527568755847 9.933253977826052 11.67381517651975 11.022619870854662 10.557923103675959 10.3271180413378 9.79310487869992 10.019910597429787 9.141967540423943 8.890475670214427 8.958919018566627 8.653197615994463 8.544895630544884 9.95974847381815 
14.962218825454473 4.844714304397214 11.936709176549662 15.920245703462196 23.653791681357276 19.33672536140918 19.479768392616975 15.484608355103125 -20.01607792278067 -28.195600603434777 -27.709425491673244 3.76983074076442 15.711468521596341 7.728443955868489 -2.404523743873766 9.904398447868834 28.765762329763124 22.165186663056698 20.824773326629266 20.4161878466996 20.556637737441697 15.591413600926606 5.0474009188286155 1.2538709558461956 2.4097966006064673 16.45168467451885 15.161578852382455 18.85415440204333 18.79633200626609 23.839999352634003 28.363740124027977 24.9921408713111 24.802391110540125 21.26861065897073 19.579239859110018 19.87397614649591 15.168699693595874 10.297375932340918 6.39554409415514 20.709349958067783 24.544122166049387 29.97382075938662 30.591063155951346 29.499127311195394 26.86855095626743 22.224542747864856 18.15166755074249 8.449476181155637 -7.508034938736433 -6.337176130353333 10.78253651816034 14.91488623016437 13.68490038603699 19.039099822905523 8.029200647736104 2.78700404287179 -2.3167521997127363 -7.157346871491583 -6.5245101975858715 -8.161258770584856 -11.82512288571473 -5.427754588459432 -1.2935596015620556 4.607278901984438 5.514718895553595 7.439927534055663 2.6208951254608235 7.055502105994102 0.2056061007657417 -1.9318540593618847 12.75356475812288 9.726992566467013 11.686087067239686 14.262676886922158 13.10270247047091 15.688533510314864 15.43218906373956 0.042754702194935316 1.410686878708358 4.799252953596362 2.1890328762699207 5.82569021653314 3.0629856090086522 9.109558535117174 9.469823432275696 13.025743182424502 14.596274137025153 13.785728621143708 11.037370722364537 16.168490626564594 15.512770832350535 14.41990847565833 15.43825657064022 14.739905988723335 9.353156383571354 -0.76631684001397 7.464286976703148 12.399963157263695 13.831926208153748 14.367674139144066 14.509128915370558 16.334333842463362 12.500748830665586 14.487361727988226 16.257259510105662 5.724191722812826 2.499415420123675 2.565384424950122 4.132645617259862 6.848812729673467 8.912718981744764 9.46732752819616 3.860361802258842 7.8388267867815475 8.28889606752076 8.369860630765015 7.971355535525292 9.246647716225178 9.538331501195938 8.922999779424524 8.915156052825543 8.873346920726336 10.028329755633795 8.919269584416616 7.815563423423633 7.270961465451718 8.435153466635159 8.901785151700961 
7.657173216937991 -0.5972585839168543 14.955298824910946 17.981970698933118 21.49083151901068 22.66379725841705 26.078411792121404 17.37758361373371 -6.498521861537602 -15.919980282956518 -19.514331530208334 2.3832177938124883 1.7849118478819441 -8.61335932827591 -9.79759091621721 9.698473503083463 29.20584931257209 23.991426850923723 19.028869571022252 17.56279116181901 17.62014997796556 14.991835991977846 7.889879765459317 9.670194974673349 10.580276030575714 25.017410924696367 25.68633236868892 26.554170864494598 19.349459471178147 18.561707420042023 26.345754083256555 26.630965824847053 27.535219814082556 28.274595515219648 26.08801325629427 25.825090843835003 14.427209132065615 9.018320663900152 5.060340056320671 19.4147924974921 21.30524212003929 28.675675194432856 26.60977555046778 28.22278638232811 26.499786966150975 25.373937581084473 20.869667319720524 6.400749974644455 -9.519939358720576 -8.417325352479608 8.54068679055187 14.34506524356772 14.900015420283836 16.11998649165139 11.649562868192795 10.132339303762068 9.727247691120358 2.4947631547813582 -14.65657343100315 -15.870018779437867 -10.360964733375788 -5.585681581422179 -6.202590166688491 -2.233463460163022 -6.754847987354514 -9.60650438990402 -10.315028926491731 -9.913312136318552 -4.16605216096647 -12.995416965383283 -5.331065882203138 0.7707947407317016 0.121545950489827 -1.5784026964224578 0.3176451892964903 2.174539944317853 3.572258638354558 -3.1353843747189765 0.954709939297543 5.254616984634832 5.0131812662428565 9.101073803117831 6.333233048878468 8.584672028562329 11.407725783063693 14.130263712286151 14.053308769905337 11.879235256642092 -0.517997229526994 4.017237904961924 7.569174586814278 8.096359676189545 10.169804853869616 12.557628201604304 11.130899147055704 -4.841177380037034 -0.6468432368229943 -0.3737900107376322 3.5152983905516106 4.908072189325439 5.955300400025795 9.171059853440353 9.774564404495887 12.593656901398258 13.903488786653917 2.288133394500508 0.8589562977571324 0.951489565230365 2.2632766371976745 2.7469911342761995 0.970642035741716 0.900711109235454 0.3485444391576764 5.799561908577816 8.047264529569997 8.751643457032584 7.909349462045207 9.336366491902417 8.26135516744099 8.053828641293219 8.37777927461417 6.368145371609546 7.6119371842266546 7.624405107407581 6.119024341114856 5.978824931222096 7.156112229367123 7.15020472663099 
0.425917639372673 -4.454398073206422 11.838019960300631 16.724779025795424 19.175988542894515 22.855274023208583 28.754431324743297 21.802534642127277 3.1207456889730034 3.607352346357803 -8.896070178218169 7.788239949852697 15.187146034095461 12.725939887828028 5.599208836562178 19.264758302052044 23.46744405016362 12.979785677354917 3.8304517581018063 13.348308739219144 17.007871533220115 14.494599443112893 7.1898755506428085 8.511988025493546 12.227837219848192 29.84108254890252 32.44249734037486 33.858096568549946 29.417302517918362 21.08274821130732 31.992259133490116 27.318110932549608 18.56632271737917 21.58475801295242 15.900652116716707 14.461020456453022 10.665842545704203 13.56313618188027 13.59994734575065 10.655310101802515 16.116900492018754 25.114748032562023 26.390939210745863 26.585979171010187 25.66165744472553 26.8302976824079 20.716055761364487 0.545917341535436 -14.224144485658812 -11.336722279803826 1.4912552783253328 11.221278855455756 10.209551444525145 10.778302182369012 8.329503676796293 6.604030821777432 7.024527656573698 3.8710591203940066 -15.569393153886061 -15.1620477017659 -0.2891980220114193 -0.2656405660231718 -0.9420351502315327 2.8525680299966503 -0.13656193642438103 -1.3520652759103422 1.2884015206475463 -5.265376562534408 -7.649519757113122 -16.590136982858148 -12.342808679393421 -5.818695994473632 -7.56619830392372 -10.136171499628345 -10.340750916211572 -8.289096271325493 -8.769419635080252 -8.40958178394755 1.1478967122060393 5.413745327581755 4.361562094691381 9.225142592590318 9.269302272732391 7.671080611089402 12.69157213942092 14.306550857943929 12.835259839512853 11.462165665165113 -5.336022255562742 -6.293720893589215 -2.7025092232740113 -2.571056475764894 -1.9649947874081821 -0.7071397522581437 -0.7546755822693222 -5.465620861403292 2.2601842026294774 8.47472893746289 7.341480943224584 6.449594799397496 5.553138037706565 5.527135642975884 4.2079286899860655 4.031273313267305 2.9044737520643515 -1.3089588053122982 2.2727873302493973 2.2258578071785022 2.2142704089546323 2.4297225849551025 0.24018547653397826 -0.9764985509509897 0.0075039300242171975 5.463382678316584 7.234823613430217 7.893256036646917 7.470718140755731 7.54079883276424 8.138893670060124 8.969872192715442 7.343036137156327 6.907231160285927 6.580168950529954 6.507479998673025 4.999907824285551 6.168671944049663 6.844277876688515 8.330759354554605 
2.2911176474677655 -6.573058664441685 10.58456044940878 11.334726921959811 14.122315723305839 10.482125068063938 15.505110141979083 12.393332527265546 -5.816687875589817 -5.820149022009824 -15.61740967464814 4.621265585799955 21.38576914281125 18.132345660443445 19.418216101313305 28.762233629216595 27.908065133952466 21.533368843016365 9.060283364974302 15.16322191967636 20.72223630923782 14.739248554345425 5.507686649438414 6.549260518906441 10.691214120302316 28.5062314922505 31.437695774841725 34.364627420990054 28.71926594123064 22.34871484946224 28.85615899437451 22.428765063355087 11.376703341761663 15.787983408645719 12.832299800362577 11.953905328198067 7.189987205572508 11.36334843787046 22.767845501434692 17.469371338731744 24.30972134951505 25.131838698159022 19.477981188531935 17.348129668303642 20.392765013071397 22.554903670028217 12.604620675562943 -6.2933677970881945 -15.446931769164287 -15.204874540799379 0.1582353647288846 7.113175170566119 8.37226208375526 7.336392126034423 1.0681354328951702 -0.35426923622548034 5.804244864266569 4.788046887434107 -12.885912498572349 -19.223610654382465 -8.309627555779649 -3.2778171848029864 -1.0583845984457083 4.643991019483554 4.23716504367496 -0.5541846100633185 4.5684206350533785 -1.5649851092316578 -12.371390781465864 -15.027600470396145 -10.08246957112008 -8.677510228960449 -11.221425969069983 -13.108543961744504 -12.636610544537193 -10.079564780004281 -10.817254297140936 -8.504666968666383 -0.6383126608479864 5.768233419571551 2.2098873653456823 9.927400767083231 10.562142691089461 11.80226778264544 14.136290654080636 14.691801975817372 13.019296719940352 10.5824478169955 -7.367002907555823 -5.268239031026388 -5.020052098693337 -5.98381669747025 -7.454923705454061 -7.038893205582925 -5.251297276656878 -3.69280620701138 5.107265583680077 9.953700427514905 9.271080631701913 10.010620160879892 10.52788602991755 10.217610750695021 12.611285560568568 12.10826336518928 11.721777824043448 11.769507932473203 11.955874864994824 10.568683695162559 8.526785388239198 6.314976910648627 5.285382381958641 6.153809031401935 6.548676827150813 7.238264855872364 7.048154322192653 7.371718771468849 7.645023197095061 7.781374750720879 8.03034999843683 7.807047308158937 8.323275108775103 7.5451228430770465 6.153837226338676 7.137301030055061 5.525170035257336 5.982779234695485 6.52127037807547 7.792049790963198 
3.510129558110699 -5.110991952593954 11.664668928909014 15.861328925650422 17.52385218642983 9.94922596885684 11.338972546857644 11.194193881731511 -9.504144624538643 -11.445910392192031 -24.54697706439293 2.7592532208601694 15.107828175351482 18.870460436731104 20.19113674430134 22.920365606830458 25.885736184141752 28.78620067457295 25.885953292242935 33.69601629915403 36.70458590061863 14.465034246736998 5.912464635957076 5.430381761385923 9.568601256396748 28.249813399331664 30.346496832271868 33.77099894401808 28.92343148444048 22.088377949346956 27.827633269497575 18.576214970911092 9.67653061976961 12.9670631709858 9.720357737398615 5.2351528854954035 2.4618627435209506 6.9321726622046755 22.132494004978536 17.590405636833687 25.638863096148985 29.863909048448402 22.488650504469877 16.206162949094967 17.350162426694343 19.90845546172681 7.927352319742621 -16.362864057329343 -17.827357693822183 -13.701818784608564 -4.076009212187673 -7.377089838472185 1.0478371365127432 0.673785818831136 -0.4948980874659161 2.433273595151535 9.47718143709042 5.113604947437629 -25.47728397193275 -29.97725256267247 -6.835953535953124 4.049687648563623 -2.56670288546554 0.2007404075659359 1.3438715586633843 -3.122438356747492 2.3620163462987707 -0.6887231208647234 -12.349130101944555 -13.039275242171934 -5.906838204301735 -7.522616853702356 -11.059847535777866 -13.159612296762777 -11.311304020612745 -8.917325504129614 -9.266025276587566 -10.83983166866108 -1.1083340420083356 3.7460533499820214 1.8283572679647575 -0.1381135934952657 -1.4393296953826489 3.5871944355779686 8.708827872442171 10.262988753140766 11.549876740271213 9.952351659646455 -5.552378630548448 -0.7767042765312802 -5.776157374307291 -7.461260124705437 -6.594705115881253 -7.511598466988532 -6.0339350052502905 -1.5389265898784914 3.734116852879192 8.896178240223604 9.642595000239634 9.103121893168167 10.087686082995281 11.26121488885035 10.806924484665092 12.151915185221588 13.279439215565821 14.195038523777782 13.69758466343269 14.900529173337366 14.914610553685925 9.990994431889838 7.888542662193918 7.190344135147491 10.119051349869341 7.991256169732208 7.387867959643942 7.709889180802042 7.603152362217036 7.695611668837404 6.943118272500373 6.8416148524645815 8.108341848406935 7.256866961514309 7.373681564661932 7.476978742432389 4.933630738972341 4.851423488715396 6.46410767415352 9.35763175489006 
10.865858797110318 2.2030443154549766 17.086464634145944 22.575641699001487 24.680713561325273 10.332366481520655 4.126357177230092 10.290084176477803 -8.1568120810928 -10.228258368463017 -23.400012462616292 3.6293349019054575 13.476407037210738 5.479400685619509 13.297073335769687 18.564493287777136 16.765999601996864 18.552722818775454 21.567298679707545 27.547446124365585 30.254706341943614 11.209988210163859 2.9793663410267612 4.604703083920078 5.477752927260034 25.449663607606933 28.626726894901868 28.36816098004554 23.341342687724197 22.993853167151965 31.169834190775 21.61722646360023 14.741532061727446 13.35593116025649 4.0991422202501235 -0.7977506915443444 -3.5384956654941737 0.540908920905804 15.566933000594458 14.199610118207698 23.79083912048864 25.57015065093892 21.751125874550976 17.599771493306175 18.900056964746266 14.680972662013442 4.5217336682514055 -21.45734582564057 -22.913036326917837 -12.102387291723357 -4.263229201488138 -4.810732902604002 2.1639892626636916 0.6348970317036157 5.578014317264308 -0.7345359370009118 1.0670559222364975 -13.442711950140541 -23.13877886623278 -20.080621389472707 -6.969865350559364 -5.051342039305209 -7.005009313478857 -4.447471108788409 -7.642426237683409 -12.339532021674735 -6.291896256324967 -5.112955417207172 -10.678232933280057 -8.839331722212954 -2.113116591499214 2.8421095240376126 -0.15879049109220295 -1.869168874151745 1.7198015897889392 2.0650017210712788 1.4734703926590884 -6.3083287029178 -2.410575479203801 1.3822184358443705 -0.9593040817507058 -6.650127899213015 -11.52214081332316 -9.455181595489965 -6.188234237760271 -4.295926614959014 -4.986483561123246 -3.3216631077099614 -6.881823593782211 0.3016585965489188 -2.482528212929457 -4.363657797064405 -6.159318843426389 -5.4538286765193185 -6.787770702133644 -3.338894484565551 0.9119728746522857 7.875075395337243 9.008368687928233 10.455924210664943 10.916019093598713 11.652694486416703 12.241686259642275 13.094242693826843 11.412118262967775 13.22977051379858 13.379541343273097 12.819964549370274 11.966926773543623 8.745889035250979 7.4214261091232245 12.631012378415393 5.458002440672212 5.209994720012649 6.2069035157581744 8.435701963608217 8.385074748194166 8.004588629222724 7.294703116935631 7.5808298855083285 5.648674750846609 5.130631808177807 5.881413198931304 6.471726827263117 5.137703376951873 4.022308053427669 4.6472173537884345 7.727178064255017 
8.054741111095213 0.21003992589038334 12.167589170812278 20.30428056988407 28.27178508843038 23.397350017283124 18.121479535792187 27.695583074746278 -2.5990902222076815 -6.156670768268248 -18.61090253596073 12.206954739686278 19.146392585900113 18.601090956537668 19.421286989000667 20.671258903574696 19.90230109990196 20.56467257100547 15.442823338005708 16.837642977535197 17.331685764896616 -1.3867478035926575 -8.277859923095079 -6.688916412824039 -2.4014540793365247 20.928568802211505 24.815084291226903 25.629789097048782 19.012697550579094 17.650907372626914 25.896288206299438 24.640160878740904 22.706461642603816 16.388487861892187 3.3573063452191203 -3.2035960562463592 -5.487383496033115 -2.8653862485515527 13.327412825254656 13.855967855691944 23.32007340378296 18.445778510598586 6.716590503713243 4.322478108430653 6.963821641381686 4.291941171936373 -1.6112808047484537 -23.673966702956378 -22.923875271592046 -12.4690528904014 -4.137332836613248 0.5162739810380074 5.58059181255342 1.8111035596625686 11.608470119126673 -3.360227486833266 -6.009065860747025 -1.6431369082822986 -15.418765263865712 -10.205242957973255 -4.818132374127639 -2.548456764339177 -12.441870206862735 -12.717183888281937 -14.645268415574064 -20.740948052642747 -18.523336317171722 -20.841550152549008 -16.719728093870515 -13.599722185314043 -3.5705317221602106 3.916516478641419 2.544595829614501 4.8933733504077175 5.577534679994577 6.346160212270258 5.745837178722578 -2.527148144675048 -2.737358966728551 3.23762635261404 -2.3522903209699657 -9.737834896576834 -16.31563170563175 -12.393149674122801 -9.415011254185723 -10.863343740079925 -10.819931221073725 -9.38922811051734 -4.749440860425613 9.749846964154655 9.450701849751486 7.141612363125895 4.749066243781419 2.6838687877454004 1.9612359187990798 3.0593128637858085 0.4661965865389453 8.26800137726859 11.233575053578727 11.75602447018752 14.98478745492651 15.348199952084862 14.711942963408024 12.805459101129939 11.704903623720478 11.748628826556647 13.751888213649979 10.387419789953164 8.89627468013622 7.545681592702873 5.331889185018517 6.6073635254503404 4.474330593266549 3.1785178282499973 4.60198349590922 6.56262574111059 14.88741113015633 8.510898369199559 8.426439927170241 7.647141639245202 8.089230231075076 6.339147638283089 7.902482369817137 8.801789230758894 5.282261918313503 4.690497647604894 5.126885353596157 9.824856539229877 
-13.55973236140161 -16.426851587343652 10.406492301895225 16.96051247124369 28.888922587409585 26.786850545348315 29.413292549035145 32.744722090379184 12.2257941753402 9.968602090213174 -7.257033305890075 26.83642778296832 35.93326625987192 31.26488567394265 29.048636820368017 29.062553767909616 21.308010574149804 19.15317865618087 16.094940464350785 16.022740636801633 16.705391436976896 -4.610380359925994 -12.147852569213217 -15.760997396046504 -13.208642072813808 15.181210087563185 26.340221736059423 29.833090694030247 20.039896505333573 19.265880251705596 24.14215609288516 25.735706175792156 27.459215588933247 16.99653629604844 2.260940589244463 -7.610450654711896 -7.651988920953506 -4.6127562439991605 12.225083168827638 13.612988777936856 21.90157207293763 18.330916529863828 4.435972616528288 0.287076736943107 -0.40186679336665515 -5.354186014822316 -7.502529804791234 -17.830549403627767 -23.702473359949806 -19.298455253166807 -15.163120608294072 -7.386077566378585 -1.113980630501102 -5.6801693668403335 -3.0981700065358524 0.8589650415068268 3.2335758114725475 -5.029875996179835 -10.60295356775397 -5.6397447104527325 0.32535304700417605 -2.1811563420920637 -11.594006189760174 -6.6616456714818275 -8.639522610863743 -18.617733059749906 -20.86389711501445 -22.326042328841933 -25.37717254851331 -13.335758223202614 -7.129425462859759 2.4669767854557403 0.9033626283363367 2.3837175997792355 2.444245130745295 2.0273965242574237 1.8461547561909404 -4.448915465967437 -2.8343416011280715 0.6215397967800382 -6.2950878979854705 -13.563721280581262 -18.783771430790424 -14.70290793117895 -13.966359807783137 -12.439577771330892 -11.409375863640118 -10.118580921275441 -4.17996152354742 12.211540052448948 16.002081289351025 14.122964386228663 14.033828157634675 12.794385127414355 10.600701589453463 7.641479706705119 0.45095942950004725 10.742854854995738 12.023630853725393 14.274917953172523 16.18576883053593 15.131803288126124 14.246365926653157 13.994965718705068 13.206788039013599 14.270385202612584 15.10290651943098 13.62938148876146 14.069820081906267 9.277130220797181 2.336345400381594 3.9265350037187767 5.440091453694457 6.775249307185292 4.660691414482367 3.1601418365717153 7.93916638137258 7.57999402452075 6.600286978424044 8.352442216368296 8.327287916297736 8.168976721380922 13.07420108805703 10.843994572320744 7.041565041481025 5.280235329660113 5.346484388621004 7.849823594221396 
-13.579277610377673 -14.255135345390078 1.4771481460676397 12.684654423445378 27.411180403177195 29.754174540434676 33.44626490828359 34.480617937404475 12.477077467196557 12.692193829922951 -3.1019437224525 24.913633980650506 35.42798167411215 35.20921289765828 36.195612328822826 32.99426757189756 24.886197924155198 28.334499228687964 25.142141259366163 22.53696453012554 19.692329709343078 -3.4822143646395545 -13.818822603896084 -13.510355383389388 -9.572081439436644 15.602717097617711 29.34381804812421 29.821750195785846 20.74101739117448 16.6631597920074 26.932282063201555 23.745318807538034 25.37312232485255 22.94687051728446 7.03142048961237 -3.578701079451451 -6.19231424532374 -5.520219258815258 10.96863429837083 9.985590023745498 17.011433504984048 18.49380274520929 5.3776378476855955 3.532087696974279 1.2527446491863936 -2.585898140985349 2.218662636054701 -0.7240948601018918 -20.062796492126733 -20.527946746472523 -16.959843864532928 -3.6909996572219765 1.337456276674162 -15.232288714685886 -5.186376595658475 2.263716119547686 5.730357953482344 -2.6600457042090255 -1.9642893354067141 -4.451224387965252 4.632417578090934 -0.6644343465525111 -7.730308112477487 -2.2647672793198694 2.570110078124066 0.027349764159183967 -2.982073494208801 -5.114165182403022 -13.603802527476676 -10.52346296834925 -8.655509059353129 -2.6852943756221284 -2.1464939822700226 0.005551933862563346 -1.8619402982311979 -2.4306277661721554 -3.98449203715798 -4.213993734249773 -4.452295768041821 -3.487783967929755 -15.213672171023198 -14.21738150542975 -16.308060035865914 -16.005862122049585 -14.090549866977863 -12.633026730788444 -12.567066561800068 -12.097498711445732 -2.958182278023649 9.891137910509144 12.25280690459819 14.902885345289873 15.441963216487364 16.106158030130107 15.44719462406898 6.817709572093485 1.4894212860619005 10.34604065191959 12.129761659259021 13.092944006483295 14.198025218412122 15.995849108810706 15.972139486469148 16.966891260636665 15.429255899281461 16.011511709633208 16.718970394899433 15.82289910039345 16.20929784332593 11.367093183586428 2.361788551990262 5.281391701947834 8.595830942084701 9.171377686168737 9.58400756109209 8.986065631938603 4.962254498475482 6.331650469868599 6.828216133437787 7.800485142665381 7.964314466405492 7.039997960822418 16.031051824284823 12.516608900984352 6.744607663682928 5.460361850348696 8.147270256816089 11.270252921330682 
-15.1427179521284 -17.911162356657957 -11.597869487522539 -1.906655343671467 15.475889079166773 22.88471529720151 30.535671129932823 30.24291589791824 9.245366879237404 12.393205257116405 -7.0048504312029545 2.635104765216109 5.395665809962678 10.845989201170813 12.927906927702482 15.8541721012572 10.76992448208788 14.369772434371617 17.64362833728963 15.531886759822044 19.613675048833866 2.6360179144875433 -5.881745615789171 -11.043202815256503 -11.367779945347147 13.400544113569522 26.737705881630927 26.275307447461902 17.873676091210342 12.431799174795998 23.658139137161854 25.27593687527708 30.153723884767864 29.072974735841754 12.627076440519481 0.7532559639167079 -3.3317060249189105 -3.6480035218760807 9.06564555867698 9.89617449267161 8.046167409345417 3.8777992129063334 -8.229470419445043 -4.508975400011412 0.5879396003983808 0.656438892735105 -0.8050140942187323 -2.8942502392587515 -17.843627487196382 -21.816324226678425 -22.454315924489563 -4.699188805149926 -2.7422891530671576 -7.459772832507579 2.6892352136506683 5.867408831670286 7.253877307792951 1.0850538222792925 -2.5651326494199163 10.310856257087002 12.215215633443046 7.071174704029651 14.150679305331396 19.177378892596806 20.46044847128846 16.516103789914936 14.023107097799008 9.970222922466164 -5.3096791788635285 -6.409502393265302 -5.943475265435317 -5.603277442556482 -5.748309092915607 -0.2841297870344854 -3.641932456462904 -4.747784327127014 -1.8577335704169557 -4.630333221208125 -6.427709407118838 -9.368790598936927 -13.259549799041531 -13.312957333108447 -15.472216591765024 -14.625552696460593 -16.45625981034337 -11.477458798511863 -10.046594119067741 -13.059103602132504 -3.135403331947068 9.374865603756637 10.66679265564116 13.320439125800167 14.653501244584252 16.26226280427344 15.383006033733144 8.638377152402782 -1.30872506957285 10.976171213876153 13.335004204253702 14.341355756479658 15.128410081534188 16.59906491853535 14.13281330387644 15.274567974153523 16.690801453718166 15.269384701185063 15.70508562470004 16.059451398639133 15.943467025914346 12.109839055951557 3.131717257095304 2.4033695851238157 11.05081901103186 6.741687246912215 5.681051758532371 8.947681881993873 8.304810637463737 8.82329671503783 9.180594614026651 10.541880637421581 9.488288544459934 9.755950613969983 12.28974521080419 10.896153187350736 8.194982754160732 7.813717620399529 6.757403803953081 8.0957931056731 
-8.766966020136062 -11.29750602515051 -19.53691889175271 -9.609277715009746 4.983920139022449 11.220187408883339 23.372939868112898 16.647613675817077 -15.799759676491249 -5.344432955021732 -21.064152912866223 -11.007698592851803 -7.004759316551839 -3.212313163824292 -0.5526505794612329 3.630903169692083 1.6934864244374523 4.242273262226392 4.216165157609423 7.739583408593818 6.965339398756229 -3.5828516612525108 0.34282248271486154 -5.212537433044487 -12.440462070259114 12.078300317479401 25.011310881194117 27.955346288414088 19.6791757281081 9.341819448687747 14.401067732172889 18.63089799094722 23.087595738660106 26.742176257915443 10.318613525642547 -0.27569864251781934 -0.12379103502860953 -3.902215555424289 4.263488065959746 3.93551611110182 -3.578606027821393 -4.858883794685374 -8.366460421095999 -20.703842656190623 -19.451945147085645 -18.25245250504122 -16.56832158150904 -7.712979598219357 -16.082252493266346 -24.153796411947496 -28.567080060835394 -7.917152580665374 -3.1399850042430946 -7.814076876686576 -5.328258890280916 8.08135188795623 1.7745662525988888 -2.2076844764076116 -2.9001369335489784 15.444890334015398 19.70351144863221 29.143106996222834 34.86808080121008 42.11021052791224 43.2695440759946 29.490950744029256 22.661272159226897 16.656401666000214 2.560813870764616 5.383868800663857 1.3480070597411848 -6.7363818279673575 -7.378216965140495 -3.3181526546927955 1.1669730558111648 -0.08636052074338625 0.9576711294844615 4.032404238525509 -0.10476239059463775 -7.112091424198592 -11.194148788323718 -9.99296674039755 -13.828309295104688 -14.367793134891535 -13.920487361282971 -14.497166548852162 -13.27808015860693 -13.506045250931647 -4.785257211933643 8.270264643529922 9.282524686238574 11.749802311092006 15.70681467968871 15.671723426812429 15.18927700237091 8.664325132509223 2.054609630700515 17.804026672114755 17.16233854672352 16.804520760586538 14.222105675079241 15.473490642937447 14.875385512319433 11.805127499076915 15.55069944218815 15.6323365817605 15.248196387231243 15.917660691776671 16.16486660335915 13.168393915805828 4.581147584219959 4.077310145107791 13.432440682355686 11.222783938790828 10.503225415438076 12.64688322568987 10.457751581645716 9.532050667668754 9.213835777830164 9.158699713150414 10.13637609745334 9.246405774356091 10.147849576694146 11.041255299823304 8.303928550603972 7.544186054918539 8.576787823257547 8.29897741961521 
-9.880925167519061 -9.363205775946286 -6.188667564171768 -5.308382070143647 -3.594877133103745 9.07359654891793 15.874809210809603 6.340115938876087 -26.157679368444196 -28.08380188672726 -35.79473718309958 -30.31077035331161 -27.640310409545943 -22.89528525564202 -22.491453724502207 -3.9733510699196284 -5.410000765979271 -3.299928978324972 0.844471850853282 5.552206424234829 7.275373842069123 -9.660957772833012 -12.443104296837191 -14.583745762636594 -22.851008967896277 -2.5714452307960354 1.587875705837187 5.618039514176467 3.2500947549688552 -9.973150695075883 -1.4830799764842286 -0.07756621148386732 3.7097734308107637 1.3712813019671442 -5.9511616018715205 -11.510788232870748 -9.137844525858727 -10.627140734789945 -3.6203748067605797 -16.968706207912764 -22.34377901452536 -20.532415635100197 -9.55127447607668 -12.124513101754843 -23.02290369144174 -28.989904338830023 -30.6930512873744 -21.071314913613165 -20.033574456277915 -31.484312167294213 -17.08275041475955 2.410510092655586 -7.117137943342682 -8.940223530371561 -5.092773654699843 1.3024906072092322 1.504749011554398 -13.86216935147744 1.138729957782596 16.966614161977812 10.015464222447978 10.338172244777118 17.670226149250322 8.959658542479342 3.563313292312 -5.207542334826245 -3.0396393481049437 7.009078673682554 11.786815042967142 23.972879969468018 16.602157358398998 15.051689966137571 1.741811378713189 -1.1319355138297105 1.1473794133410835 2.465463966765025 1.6091884123362439 2.708242774207893 4.481672917526708 4.151522584403815 -4.204692154331704 -4.6899773814297845 -7.8594867961432415 -8.068765417286741 -10.696290405102975 -10.987710244569517 -13.482277312701246 -10.61751423383487 -6.74886067234114 10.35948113432428 10.148908541067604 11.159634266483243 15.027635856238252 15.724122356631792 15.977200518376325 8.231795367230902 0.2660250576030015 15.851150997720506 15.144179070801869 16.925475928386433 15.93446383979752 17.392024752136322 18.020856927286093 15.447376595446691 15.778452146350837 16.0143505996513 18.28773245137502 18.92515205322926 19.607985827702812 14.148445005306506 4.85616016038186 4.4327330234874385 13.459400146067878 14.150678303568885 12.712579843107585 14.177288277400145 10.521133543026101 8.094368792154777 7.833190154846565 10.873191689560505 9.920123150814955 9.07492205473864 9.765105171175744 12.738546895098288 7.1193769447673345 6.561119452734883 5.974901815122902 6.018679922913354 
-15.82436432137089 -13.82703884282746 -7.658442203186349 4.771857367621073 -3.337984953927959 8.399712428666735 13.45828251272819 0.4787650635386965 -26.85842372870725 -31.576342026943532 -35.10460181839394 -26.784841671739645 -18.6743327260308 -12.865921590409851 -18.7020019194881 -2.3342547814453587 -5.077584119698132 -5.159064338961789 2.1263935338074487 6.12740031430308 3.247274077125791 -12.027645277201826 -10.652000698938068 -11.80454933777501 -27.74869597784642 -23.129630705697856 -19.142325551620065 -15.665908249783161 -15.358065776527695 -16.156208284960456 1.108995068310026 3.8076950201912223 -6.658032518133219 -14.136263900189046 -12.673293830627554 -7.344513862542401 -9.171301248976645 -13.966864007968065 -14.250802407852435 -23.151192924488054 -20.851521557823958 -19.630719296398137 -22.0192178156245 -11.97331658489567 -5.061233397034668 -14.095858587657661 -24.61628411483219 -16.79920600783084 -18.45506764226433 -18.876174793435602 -1.7907512686509417 -5.336066405276346 -4.4178996065277625 -7.8529263591841865 -4.104394697151646 -0.9530521476870739 4.833607451248677 1.0978313021098056 1.08308965412862 -8.328053132528263 -27.59908452176789 -16.891757123473035 -11.194486706617113 -23.89005337167369 -32.53950786283744 -34.461985976788725 -34.10382840990221 -26.615866576918183 -4.990565834351294 20.859726133657542 30.920762733154895 30.97690807433577 10.738766286485637 -2.575402228409646 -4.592459984386584 -2.790281133317477 -3.014212505413276 0.9945511041023113 0.8044920782866493 2.989691280188693 1.087665593476731 4.9026987613738315 -4.5704530653073965 -4.766080644609454 -4.465525073073786 -5.048318774407507 -6.549840318199527 -1.601330515118125 -5.115097138194001 8.010413655040725 9.277782249834456 12.67618501069966 14.79021933389604 16.65867589500866 17.92778579546867 10.63002616877981 4.526423045120913 18.828634324841452 18.914602694571084 17.053233157389847 17.133014195533203 16.465521177702072 13.60045797762972 12.115640179652171 13.776235428258278 13.80720415821264 16.877539134961285 17.061699484836094 17.91973651073898 15.266879106204748 3.901126667026813 4.195404997198657 10.489256511715814 12.939213103899668 13.41582290285087 13.925919622757348 11.071736928828509 9.073358991564705 8.242860997675718 8.90989098014518 10.28209867354984 9.218587353724281 9.19613550600145 11.157989712969506 7.558860039825742 6.056036658699454 7.000888657382499 5.889202994554621 
-31.700712905013855 -25.43086532008316 -20.18137863995131 -17.642084006182184 -22.819437177641635 -18.168555431315124 5.865516650370501 4.225229821829934 -24.383303061889286 -30.106858112662458 -28.22903323312684 -18.35765048027622 -6.157797290016643 -8.415839844935952 -16.114983489373632 1.2686069424675546 -15.482487918024077 -10.295228881429379 12.105523070879535 16.19486252952143 17.371802479680984 -2.41720891410151 3.2306344865472436 -0.01423925397452001 -24.546118112506957 -26.23683320426556 -19.172722468305608 -14.410429325404376 -14.755322047621592 -15.714870392396964 -0.07705716966425455 3.3162646216908476 -9.101129754394677 -22.439807730275042 -22.52036112569608 -15.225152227775215 -13.254883492480273 -14.538553181973866 -10.371015259862375 -14.527774384444026 -13.219591160651527 -4.258321667422525 -21.089329591913287 -18.986323122815143 -10.177424850554758 -8.891409124925636 -10.603852786124573 -12.442577792935342 -26.233345843882194 0.6983522034111853 4.388001963545435 1.893649039320966 -3.940937857508364 -12.444864386398349 -12.695999589468586 -5.898256217156759 -8.149644421856102 -5.7663324921352945 -25.890724720121135 -41.80323929340592 -37.71888588609275 -17.098522572436483 -19.945726104082667 -29.060005130286495 -31.307752649876853 -35.28730350448399 -35.88425466144371 -33.79634499512427 -26.365776215413106 -14.655433044821166 -0.7914692902242707 13.379721587715428 6.907934878652671 -10.04333023133882 -12.729588813950345 10.332177776367997 6.207055769483324 -3.288820682349372 0.14007424739501168 -1.852948130534901 -1.5668119848188033 6.356601892988092 0.8914274452880504 -2.148248223634761 -5.310594213396499 -2.383419859590131 -5.520049664986341 2.0498406925929813 -2.4191715296662695 10.216829003657763 11.337894515964043 11.54892953173717 14.331267868561829 16.69660391180453 16.679323700150622 9.332718426402119 4.564230817741998 15.777317755374957 17.472254384528288 17.865420950571007 16.003783008028744 16.06494607880862 12.205985442294319 9.814254708160922 16.65448104215805 17.130988339711845 16.759547851991258 16.47359210093266 17.094122961951662 15.896004381418189 4.767489518106247 1.4748819077947408 8.645200234017365 14.087293739496817 16.76474058767862 19.786904068001025 12.289020726333062 8.72790024972508 9.203274403061 9.823562724587282 8.392107104045643 10.656555659033708 10.597255077498186 15.243458912890237 10.963473137388712 11.657076761823992 11.473498801368985 13.042851523305817 
-44.51866690783195 -29.286979484180993 -12.134325967094288 -11.947842230273988 -22.956792191012013 -14.503206637867935 20.85455517223689 24.74695823653815 -4.728658541617043 -8.638353593618662 -15.217994232393988 -3.339295579866937 5.498623869945702 3.738182139821566 -8.607061181086298 4.896080658279769 -31.980180070838166 -34.91150455242577 -8.697060041381155 -5.81278741860416 0.9671645115172859 -12.79824870626259 -9.650514439373111 11.366177836964958 -19.981805570526213 -28.83652295658146 -31.092717391243628 -16.41492184468259 -10.423016459769823 -11.48506011809096 0.03869620860092544 -1.2556672863963312 -13.76064322937624 -25.488311813577084 -25.31509529063337 -22.26131354465355 -16.023785865447156 -18.527761840968164 -16.057443999894517 -15.768952787658696 -15.205686485436951 1.8856281968010853 -16.594314014714854 -15.787679958755962 -13.109265852987724 -11.378071945358165 -7.788273086855848 -9.196720792185365 -15.964227733141874 7.301009813385045 15.989161391880591 10.806560323324454 12.651255987935194 -7.858969087404454 -5.361248293402509 -4.605519106049415 -8.85139931149569 -25.61760129162701 -36.62777405118295 -37.12232122497883 -23.204867319243622 -26.949563631213927 -27.289295056076845 -38.25988989472902 -38.01661959298928 -38.552477976460075 -44.7970174980417 -49.729209842143376 -40.34710125641971 -37.83923129953712 -30.112706266373625 -13.830477973641868 5.136076445728327 1.1457762315180862 -9.443295651839438 10.17058666670201 18.948710085429262 -3.0536571185480947 -3.1075536918872912 3.119539805329435 -1.6467704527325866 6.148742148684959 6.853640191895577 3.101520063186569 -3.6765316603910905 -1.3982175184139058 -2.9729876832247655 -0.3531639134816119 -0.014978914857366353 9.723729424514687 10.637182947072953 9.83444452133493 11.14576787712172 13.867020857531562 16.69113604157514 10.360604004092588 6.216905414446419 18.38284699436381 18.22389542921508 16.334144043015613 17.283344401852776 16.91144881484352 16.723834175922843 12.913060510887393 17.164168190684943 17.706491956953037 17.899539229447477 16.017062222790788 17.452208111422646 15.244483970262552 6.259572342158735 3.6455765253681736 11.153435720862587 16.00389055949904 16.356031130908292 19.59509671239973 16.492919812251195 15.478841284134415 14.709361283171807 15.216441962245971 15.35102689063147 15.03547335124126 17.362864650370746 19.815631427541586 13.90754102673806 12.953251727810954 13.491268421884469 14.592570504643554 
-43.40654858527156 -24.8099006087956 -7.679998758129198 0.9900050002763687 -0.005452457297519901 1.5875279209424407 28.421790640688428 28.70574605887538 0.3922925464791024 -5.993501663028602 -18.820283510703785 -7.979276639217945 -0.9034180775474758 -9.87934466252028 -17.797028746634385 6.190956547879662 -32.76325895000307 -37.559951011163214 -18.71301527694937 -22.702480452189075 -13.848777761965483 -15.015597787054533 -5.953038701911034 11.899117572122503 -17.036863614888993 -28.875246769192277 -42.168312249620016 -26.78298356786236 -19.067563870558303 -21.622031796014227 -13.737016145058467 -9.378000558575444 -14.097775131517874 -24.449376982072042 -23.096664654060486 -21.542857504326115 -19.894750330197258 -20.646668416479674 -16.558631351375475 -19.33757000798123 -14.726123953099636 6.333276066918696 -12.165745075021741 -16.660383962089718 -11.2681086775279 0.7620532813446927 -2.2360063692683654 -11.296115669703571 -3.475815114695983 16.391639784854462 27.71716838292223 16.40335272576171 9.328179128098697 1.5881419541432136 -4.563271012042621 -7.880580854736812 -13.997028183725634 -24.08205004933928 -27.783126313934538 -26.8873000116351 -23.903398708424632 -31.711666872523807 -39.48059076429015 -45.75911848663859 -51.920804428035325 -53.08545330626334 -50.00705881874307 -47.501569302687585 -42.89508746212271 -43.54471742340909 -32.532438832259416 -29.754493928782395 -18.0687277476884 5.877399531783301 7.331990022330492 1.2668366688051234 14.379125946536305 7.780929115513897 -2.7263296872492453 7.289595210249543 3.9038393269469975 6.924594656634578 5.2192287632273215 0.23952318911605547 -2.3349693171774852 -4.526851144223415 -0.9098611933461259 4.180324825654062 0.07507381946182524 9.61997917512787 11.466353967482188 7.522411044324941 7.869197639153687 11.198796688449296 15.707365123834785 10.043981307290606 5.91615473665835 16.83179549855545 16.244789371406853 15.854230942445971 15.309366474602895 15.847481110509342 18.586477327692577 12.57487656458521 17.365002734887067 18.822486417785733 20.738069518515395 20.44351278682611 20.936632230890687 21.484529236286278 11.394522096030276 11.006288125195002 22.535952664793896 25.264613290349438 18.669913438979375 21.10383201329499 23.257455734378773 16.98895809813997 16.823961468833826 16.179927056676735 13.898969384823204 13.716699867856496 15.391754598822775 15.132108505209958 12.646962507111706 12.527540803567826 12.921246485415777 13.357400652505694 
-39.589417252396444 -21.235852054809833 -1.339658247157452 6.349798503565429 5.020995834395211 2.5459110928482853 28.85497714576699 28.858110245924628 1.7144039334324348 -7.954264905377581 -16.91437179296491 -5.694186110020846 5.372416694190076 -7.860294879415963 -16.77633106261393 4.830957092095389 -28.15116231351774 -38.13346363637753 -17.353011080978117 -10.854295248891809 -16.563297598247562 -11.236460909096666 -7.329049222797784 6.288561696117244 -8.625211991282914 -15.630006535172635 -27.80709161992763 0.3532561525099649 1.783824946069311 -16.16910142349913 -15.942543882418638 -9.343246791646422 -0.42623443491212204 -6.325958497698809 -8.937117356746759 -7.636165826139222 -6.161787206156027 -6.0088033350951155 -4.197587478687473 -10.318087119668284 -12.346712367822532 4.0305397933352225 -14.84563911079882 -18.99261658866627 -18.471898689428475 -6.822824082591678 -8.082136716179507 -10.600002707462759 6.407743741618514 22.577859214893717 30.264728788663508 15.072651582846767 17.63571616652906 9.104020425888178 -1.370032878457478 -12.028050483031002 -21.57466671426623 -27.73093703162985 -23.65418164558801 -15.827118812083349 -13.922543980324415 -18.832631698000206 -34.6299391796267 -45.35398519717234 -50.5849130102688 -47.691854531390796 -49.47629655453982 -44.12408674842392 -38.05880485766836 -28.843722266529532 -26.357038376644695 -46.44871068520521 -40.394026416074524 -19.482972499922372 6.3252836107392145 -3.8334337025285423 10.539589706889936 7.484391550808682 -11.554377544387009 -3.6805689984639836 -1.448383889521767 9.983719160946396 6.835795944488049 2.7667297956575805 -1.5161002446404757 -1.4050432432314608 -0.2843910361801296 8.47084119140687 1.3257014981381965 1.3385531201235923 7.6016788375000015 3.2063985633379497 4.621178059700217 5.299429145665334 10.82106837585514 6.828605386505643 6.125437603855415 16.847814629401807 17.876284222191803 18.778722326277816 19.462454967718784 20.537648833263944 22.05450326904167 18.116103508999895 21.618473387206457 22.725885995096966 25.180604352984897 25.25753155740544 25.55200546173471 25.846254602206237 13.84443790851405 10.793214271263405 22.885209982890814 24.337211719821802 21.94604612631123 22.65553642273405 20.054992461882666 16.527839495514936 12.42063242609181 12.844765216165648 13.485357403671285 12.075391511260529 14.119057459718885 12.635922532966328 8.70029274332812 5.971886740712034 7.651561047483439 6.518418298067818 
-35.86930166237913 -25.677827180237117 1.2029056348694196 7.0472681312852545 5.525663229469013 3.3748486596863363 34.475552863667566 24.46283517223903 -0.6217330361400801 -11.379997214348911 -11.203951043527836 -3.697423894913143 9.830282021315377 -4.20112829931364 -11.875956905760221 10.904700964009486 -19.985866876698363 -31.18117875895107 -10.616884602858482 0.0746751240743998 -13.93897925877774 -20.245768377734546 -9.12071750525903 0.1500903393628619 -13.082456393408883 -17.358809699914023 -28.398732686275896 1.145686663561597 7.038518215951305 -14.336564419259753 -13.896754411432621 -2.5328402345699517 7.5765747485995085 -0.15730840613498484 0.7565926293173106 2.1435824513317256 6.65428615344518 11.93143073925285 16.37682926375907 11.157241318588085 -8.802459896289758 -2.962538922867558 -12.141528926256816 -18.722750861894546 -15.753291501233393 -17.922048190111134 -9.918121773078319 -7.504081227673759 11.072024782645608 16.98530528218142 10.215647600054522 13.613965818732186 7.694379104052817 11.04884085870201 -9.583646455537064 -8.13331134221667 -15.965670600960056 -18.99378848048499 -20.570135114933024 -28.622478884523733 -45.13247831252288 -52.235629088782005 -60.141408861131325 -56.1395513459323 -57.852728539325064 -56.025975762126066 -53.40394083470743 -49.50126548464613 -46.30703514698426 -40.44434582913144 -24.04403248352049 -33.54444638400681 -34.9963480686539 -35.52681335464239 -17.727495795075814 -2.365554129177999 -8.394980561759574 4.502280464346235 -4.562498695055542 -16.43474348071074 -6.878856758018658 -2.517521516997479 11.309453024039327 7.13265256555508 0.6125253932049018 6.218942142968405 6.857544686858755 14.90487222921942 2.663990832932852 -5.327620407041805 4.469214668344549 -1.1605131289629127 -0.7362473677406062 0.8632717963078695 -0.8690830694013124 0.2715863856641755 9.965938587514563 21.272160538312306 22.043688224388067 22.792775764752864 23.941206208588376 23.438133226057356 24.07254082358927 18.949184043748946 20.620729708749746 22.665180990411635 23.96978148326411 23.801383028985803 23.235933889432616 24.570139509398196 12.974809061039112 7.157366161905432 20.624009986503243 21.90771989449342 20.153033170244413 20.0398235135367 17.13996544119947 12.53394096213147 10.042142721828025 9.051775163443626 9.204814800621254 8.064956370316494 9.958524264106295 9.296643161205377 5.336197511252725 4.099743524733833 3.7842653482537076 9.260254457100132 
-19.39189046299129 -14.788544187863586 14.209624692809014 21.576165670128404 22.542408041910573 15.189647039530524 39.34320510712896 30.59627050134464 5.96378847887557 -1.4687037519701776 0.07282494087521989 1.3937435295504135 4.790703584243202 -2.6856131775940466 -3.7563478830152555 18.730096579288794 -13.750298326522977 -29.214606167661508 -8.264440009583582 -1.1899135093078703 -9.110428339586598 -12.47274124829926 -4.059738385100607 5.424015416567507 -7.953776665550516 -14.01140431629654 -26.735032005764104 3.2207162825379583 9.390691179849064 -9.215745474008582 -12.355353558335844 0.01808701988068106 8.419381409188373 2.1318457709916045 4.621120474461219 4.801575613118521 8.752152519118706 13.226333786576946 13.135776948672907 13.749886710870134 -11.276725356690962 -9.75406749330023 -8.189012189722806 -10.301659502062778 -12.179339480718358 -13.685496606697555 -6.514369882129136 -4.8047974679585845 6.236235911141459 7.032200330440216 14.546593845111087 22.625778573411633 35.117530677182536 13.459038923195877 -6.9641718965107255 -33.58902694466883 -43.22256331216217 -48.38536777600592 -50.88407556980834 -66.57339517316046 -70.68026463190095 -71.06843426261517 -55.97359631523859 -48.6676571207566 -34.08627227172321 -27.796134741068958 -30.043299556756132 -31.775410381811753 -28.533681727466586 -41.827533036439924 -52.53245316199204 -42.37713272176911 -29.685000991193228 -7.366713788640359 -19.5347966415225 -14.649303147116994 -17.50402477000952 -12.405901670792872 -5.577128836443949 -14.151457290633784 -8.89626841569124 -4.399318631501197 4.674911706058321 11.861819355947063 5.108453267259393 9.220323718072862 15.454436746218427 16.511414272289656 8.60763887365048 -0.3588985286318905 3.37197322576674 1.544474851458791 1.903422089117719 2.7151280112057203 -0.9126034861181023 -2.2944028679217365 4.333616594904374 12.38055572098138 11.972843285969711 14.140267292738557 16.855019674861477 16.855000035580925 17.725045983889437 12.55258872943979 13.741911434608532 16.881742724551064 18.921811043222924 17.366190737164402 18.786390107609254 19.915807375374644 12.231663491645412 6.271804680777231 18.587781811890245 20.212080414137997 17.52781346578631 18.399914906971595 20.333652477840534 11.723617296035156 7.752726886496914 7.365170019492252 7.093099344443011 5.4011465677938615 9.553840885593404 8.880632319809207 4.402715379807872 5.419498575223065 4.369941334239476 9.854252027292517 
-13.242542468162743 -13.302131292979782 14.649310888161752 28.566566483547017 30.049946785222268 19.043446033272787 29.486739002389314 18.093513918204355 -0.07171559255731083 -3.5276279963327872 5.055367640433138 11.440562508331697 7.8392636660240695 -5.047424758010215 -3.2916363257115786 18.90210782364589 -12.333885858368888 -34.78960583533329 -13.378607622037181 -13.499994587497309 -14.375951099770335 -5.67221660759589 -1.1724846854453468 11.981681015125973 -6.156869493844091 -11.700503876058328 -19.734959658060465 6.322195393236177 11.09088514288139 -6.953871550071555 -13.318544114133186 0.1585416431713405 9.028441098928985 3.1775469877535247 6.5406267520088175 6.6948563364027365 6.057040481523081 7.577559055255055 8.874121044999546 2.3832968663808516 -19.417163385848966 -14.945100736117606 -3.5101954169706198 -8.0358598623488 -14.185408922576569 -8.831818981574054 -20.495276559099 -4.828062317407786 6.772752321386136 12.105703299070802 41.57417043771348 50.664685781486405 31.062420979692085 3.6286767304417014 -8.006932143834604 -0.6254388607578454 17.062472511660108 26.243971145804593 17.69242611603169 -11.115999674379951 -30.198381464751353 -25.61696266980457 -33.70794573588832 -34.341367120334915 -14.53150812007291 12.331537038603237 0.735655498202152 11.509140358600419 -21.674295198585778 -27.659989097675492 -59.778946921319786 -70.31548518717587 -24.582838477327197 -17.174314527780652 2.892187709694954 4.149164173439763 9.456500036093908 -5.540576875351775 -2.4043405042119215 -16.168711086767658 -9.762868462305088 2.853188673279387 -4.076916100555864 13.67711751936309 10.134236027656518 15.153274020707043 19.930787292595987 20.751724027053665 12.706849063860895 3.640876644103248 1.8868332742865714 0.7458722570067463 0.788791948131682 -0.3051771264993959 -2.4226320841407887 -2.754757247004125 -0.6469348532862503 5.410648715152126 3.2918886313000426 3.2488305500073213 4.601087805234311 4.4093616293471865 6.6343276806406895 8.112920683563067 5.833405003817072 7.720056767136406 8.910657525148098 10.179501019451333 10.295778522763577 12.30494076185672 8.853975269440578 3.5612904306895468 14.245543526460848 17.352016348648764 23.697050319439494 26.076396965102923 21.850787271770088 12.78346004324962 9.236945623546767 8.897381521856738 7.930312311843283 8.22742935109161 9.43122374024629 6.663650362074857 5.2991141659801215 5.262669204272771 5.12047224390421 7.6198788097312455 
-22.276453056152047 -32.24066557271993 -3.8866905373948373 27.648560953105015 33.41822120206404 21.06372372750529 24.073517605955484 16.77524766325833 6.4365517782474555 6.084335513265995 7.728089887532498 10.450796411540388 6.1129234874109155 -5.54246698532458 -4.069748204508899 16.270588520998388 -13.632079050741215 -38.218332685684 -10.39978837846858 -13.335377573688998 -14.155809009852502 -5.445448019869224 2.1386691458086595 12.881758394024548 -8.18784404150236 -13.685600810401102 -20.649368942459134 5.57698879363144 6.986046512696011 -15.19923500094632 -15.668740842167125 -4.245129127226703 1.8737783914004094 2.748988943534255 6.059877615118121 6.694607592062053 4.375458855955174 3.135201998545693 7.823071557004046 -0.5662424454556786 -18.3503165782638 -13.199674875424206 -0.9059541633468763 -10.462969978013046 -12.461259294308624 -8.93152787624406 -22.61631788216915 -2.1064049393666107 3.3981702627432777 18.741526801612853 32.125584854752276 19.032167206237496 -2.698952622567254 -14.056254965753341 -31.14489035909887 -26.692803661401133 15.74160190387508 -11.586951350692807 -45.313335619463786 -2.343825546256232 0.15609713903593067 -37.65613471383214 -33.878606796568164 -25.53899348682498 -3.539780419738191 69.18357694602378 41.32862025967826 43.66739186472832 33.29189328821769 0.11877272968919055 -51.05524678483916 -54.40016246574429 -39.22817561783029 -27.5438936335814 -18.68102100625725 7.411288253544619 20.970025073377258 12.483613116100045 -3.440161102638386 -2.7023227850681626 -21.26669169007359 1.2115245639494479 -12.537886355324535 5.756330726380468 6.931064667740119 17.582431232860888 21.46275792992566 20.46744519578967 11.445254561137359 4.46497874651467 1.817753127055854 0.09652067253565773 -0.2218333228551599 1.3735288059791377 1.0420448965820317 1.6069454220604187 2.8767198414151194 2.0770175125607095 0.3460203787855485 0.9567387204290532 0.02614224305962294 2.689956682721057 4.443149509938961 4.004906787498431 2.5053144989720937 2.655949329529612 3.4077807389756614 4.754163196981626 6.295329830441587 8.293731633233358 7.474700846210797 3.029473299908479 6.631137780734688 9.02765839988673 15.392230746888504 15.510927168278881 15.24354688109912 9.90601433419988 7.227422467150773 8.859984425022558 8.315027511193094 11.232582545549388 11.777265662943151 8.553864327901318 3.6263194353853123 4.143772394186318 4.340486222824524 8.723723432764181 
-33.409898259036986 -44.279743017244975 -28.628700682609672 1.7711122686270555 7.923173655256149 1.6943823646219058 17.860457722983895 12.399243501482577 16.08769527374501 19.07035473175251 19.435867942589194 23.333855308465772 18.44645513789689 11.470428837760856 18.23093646981035 29.76249309791445 8.602241568439368 -19.396505804337153 1.5237203161671802 6.602884351636916 1.9152404527067481 1.4590039204684968 4.149646700709479 7.578477490533141 -7.612662779135751 -12.200632837873385 -16.88095347616378 4.6336205868865346 3.519336551722164 -15.030775364065832 -16.5811119127696 -6.86017083322978 1.6500234729276697 4.24519259858015 5.351714910914337 9.09235988292463 8.792650128264333 4.078356369684741 6.041147324034637 -5.296336325748995 -14.226301988310864 -13.363239271781088 -1.2392734838416783 -3.0228198041149112 -0.2880809957606172 -2.616823313562415 -12.508941867407822 6.074561876827571 14.212016468285874 21.635416136557932 12.316744722651816 21.553067343110005 -10.850471466193584 -22.37341161277293 -7.976430559028495 18.253778997362208 -5.953694830414112 -44.45081504493384 -4.579731476939247 4.849839746610415 -1.5581985569754113 -20.505800891976868 -17.850649784712072 -0.006355766300372065 7.969499731782663 25.71953165276898 9.653841522737379 27.68539067269003 32.15462412210326 3.3064978613229434 -38.41269508118915 8.21155312450073 11.36155912018888 -2.46059539653148 -0.26375842373985503 -7.915550236958533 7.457729561503837 24.044738060958373 9.117286154596746 12.302922196709812 -15.50188762707714 -2.692392794344992 -15.834763459538612 -9.975480095789553 7.327044727418348 17.030813336868285 22.569587457523465 21.46299559372718 9.572089792461442 4.884306922402884 4.244153566992043 2.1622299302714647 -0.08780241947871509 0.6309750893572831 0.35601803297456097 1.5446019550826116 1.25546338999581 0.6331110766705241 -0.17205372350751796 -0.027616488674344943 -1.0245935942294901 -0.0125812854308552 2.008005555958463 4.073179110835155 3.3321569469450365 3.825704221366727 1.5166573930607465 0.8753368512413001 3.341518988387774 9.917844529802094 12.173187317869692 12.881848825109934 13.15172088497181 11.94969743120211 9.59622915658615 9.041157617520664 7.044248137617895 4.029690264882247 4.792052870447221 3.8218192887384053 6.271755789780424 7.258626749179357 11.632540314429233 8.44162844586138 3.581737986505696 2.8584599824783683 1.5847939977093761 -0.16244906025505645 
-26.980680967678246 -36.17710533471939 -29.866246609773107 -1.7120731122480553 -1.5652032366130093 -12.274909246698428 19.842044262608937 13.302627962013545 -2.112797114472511 1.9248151664839117 2.747083656553306 11.280986836868319 16.426162125057356 15.822934871769803 23.22492855015307 30.04339185348264 27.708999750171813 -3.465721879554066 14.471093591554919 27.668788061426184 28.813911941376354 21.24842042765549 18.53616179582972 -0.5783683734496096 -24.04001527652486 -25.107437311916208 -24.79714527835686 -2.264753244128013 -1.3014596827774927 -14.66708223858985 -18.286619294562286 -11.170601713542018 1.0543952076206233 15.821357408492913 14.726200883991638 14.479777796728348 11.509795459601287 5.344462899170688 3.054449922073821 -10.626038083317626 -14.673451416633561 -13.448745619505996 1.638360938598621 7.142155189313804 12.32959033728495 9.76287135260964 -0.684183249828807 7.4644233523647685 18.945572917934108 2.5983158924706684 20.426329842194736 41.26344288481079 -5.823143489694012 4.168348299880697 6.081393128424206 10.595005786204759 -34.36518710670091 -16.186621895512204 40.93361940368423 30.614674476048567 14.921438300351081 44.973246097669175 23.303539323927968 26.287269497215036 47.35142869971903 35.45568108192617 19.225826002960314 4.277703314666823 6.091909553256202 -6.091517689075608 -16.205724924972074 4.64089464295315 54.65751317944155 40.65315906684774 20.436776034336106 8.836119231078085 9.59739265026934 2.854688322196179 8.48093444497341 30.39781819108832 4.468764601316637 13.669128174206469 -20.087036391682215 -14.382669346009063 6.769313050031018 9.602922868636593 14.450653645941324 13.075408561697392 6.0529574743789 4.908505416301201 6.78903563782296 5.142708991901292 3.6511810439972043 3.9787108375339373 3.305244644919397 1.430697311268877 -0.21101597965829066 1.8572997478332112 -0.8484178870048438 -0.04603442898777639 -2.828993928520529 -0.7985699694928209 2.1229235325352853 3.8343054761978723 4.663244667358388 4.348974371818284 -0.45992906170395625 -0.10073331389639262 2.878010592487482 12.017524365589372 12.415592868586476 12.423708457615973 13.697781604687048 15.923164986726794 19.138093842567212 19.40791967995315 14.064823391934606 6.477911777382137 2.123795643523808 0.6144419223803613 -0.9952644007464954 -0.026390257324780904 3.5994213852487187 -1.9739373236009667 -3.5766263854125007 -5.839151397197677 -6.292098414731012 -6.156103465252295 
-27.8955681086332 -34.08165303343249 -22.35279596293663 -1.5131349347816725 -6.145346548633107 -18.075151237094428 10.897990645215417 5.634975979071163 -8.141886697750214 -15.494210069472365 -14.805719285409609 -3.2813256266419044 1.7368055658410333 -5.421907759889951 19.67215369610366 36.20164153879996 30.496566146968373 -2.7762955646342298 11.316311623808348 29.945475196888577 30.069092945471425 27.524380627334804 26.16090715204424 -0.37765994739952524 -29.34667461056446 -36.5535768577186 -34.688306418004125 -11.448352140333583 -10.867757268353323 -22.734724243053464 -23.690529205976272 -15.588150904115569 3.673654174836971 15.591549240695196 14.000116582415322 13.353946985268992 11.649297071860143 7.968656724685515 8.160912608919602 -6.974568801853628 -15.390567119196348 -12.032150584273703 5.08253464591835 11.716628484522122 9.201397598368354 9.192104223586504 7.6069033241767965 2.8816472121286356 -8.5759170585052 -20.666061934945173 27.035561113730427 11.380900082619238 7.189349021235348 11.748283300100496 -6.564208643319625 -6.968793465881909 -19.587189426422146 11.100589753896388 32.90297389786517 11.659139670668472 12.310902141289345 28.04903714153408 -11.632288110621793 -13.611757928334127 24.14161332046928 28.79507076119529 9.586327279985856 -0.37478976463972313 -14.46151029123469 -12.24473239122748 -22.88312393899273 -10.626852296903856 -24.41303392041948 -4.733933904792794 42.37692263033016 43.625391872913774 27.332344868470248 -3.8330617574737995 27.335714189821715 27.31835216356498 14.928218707434448 -4.2225366602530805 -21.345347647641447 -23.585926768969358 3.179990291128996 5.524067854035008 9.297210128626098 7.946436916211401 6.364820750837457 5.240026836682262 6.366838552306177 6.694406175711492 5.572276277948862 6.440009952992818 4.716804238711454 1.4030539113826745 -2.4719385311869124 0.5121426774688744 0.9614709257515551 -1.226713212444769 -3.1545910757159468 -2.0273186975163426 -0.07130100192334979 0.04957713415121534 4.2740514425475205 6.835716098138994 1.825254614932583 4.213345439474975 3.109704948706524 3.8626147123527517 3.1172515302810617 2.790898172297358 2.6063209968595444 8.225549648679717 13.837264815819061 17.866940886795128 8.957120557152935 -4.36218241369808 -6.83764174677022 -3.7302715770224357 -5.86809590356617 -3.306899290368991 2.1259336864788687 0.8374938090703452 -0.9388825599986155 -2.3114766264133113 -1.1874363522486293 -1.9238053118463236 
-22.10343891464087 -32.97547914334034 -16.753437393464058 -16.85919119131879 -11.476783684378207 -21.717252622039002 5.348036712708568 4.301178049714375 -17.174464481924613 -24.08104825416833 -25.44110384551527 -17.245080836992084 -0.3486494752574063 -5.047767707556943 18.958492429056022 30.745932663538618 19.43532206502183 -9.013660486059468 6.763415581790027 28.502560694848285 30.426782170488348 30.657312292927497 28.253010212517886 7.210699410727236 -30.98671724626923 -37.20028575516898 -28.99095875368193 -7.9248098499972945 -8.129653554440052 -20.830810716658117 -22.507030116799942 -15.734348466168349 6.737919589500011 12.67408857614647 14.110127710817801 12.086401849352386 11.226278375386164 7.313275531665651 9.989758355897843 -3.496183301379075 -9.840139285193588 -6.919541187414285 9.584795807571089 12.888422619776424 -4.64891171002868 9.909405812641472 27.144794499305807 11.274704374228406 -35.698552460543844 -0.878892935918811 8.135188989157774 -9.200516906806564 5.895261719035644 -12.833663044308143 -19.069576643387244 -14.8880093296483 -6.278046287345841 -12.193741320781491 -11.145970638028064 -16.210763188993777 14.544714837043744 34.26393050661913 18.24943900686273 -12.672731230413929 15.140301014373428 38.14176719803877 -12.461150510376834 -22.845971251108597 -21.835242612331214 13.576747153229256 8.721270704506034 -25.359438981323084 -25.961930642013233 -10.497527162872595 21.1049797988995 59.66230121894577 32.41849235434065 14.488820863960255 31.025235340208717 14.665388119071569 18.38571481567138 -6.68485477400787 -20.500794612564807 -19.827984967213382 0.3470116498780027 6.691998518787682 15.727357925194264 12.360879652039191 10.088898385664061 6.908683348033156 14.350771365063196 12.556243912984385 14.558078449798593 14.40666565432402 14.30011495890216 10.177317811476126 3.468512361636991 -0.869607377223385 1.1693545309579743 0.697141352905387 -3.4753805313005066 5.635003781334604 2.5112538752142277 1.2280594854986653 3.6872050624963055 3.6998880285187377 3.1544556980896967 7.792628825552728 7.023293949046761 4.32226862514785 1.8413796242472733 1.4430551397924236 -0.05373374482480042 1.8559285347984313 5.384639031061155 12.790742495858915 4.062088861879285 -4.65082549849486 -5.3462118826115566 -1.6595388978715344 -0.9987958333611651 1.403742733098092 5.191523781814478 4.328379645285782 0.703427581295518 0.06304220372684465 2.235746747101292 1.7604991927040146 
-32.64898009057713 -39.11350008404282 -34.49499720240152 -31.117760451220292 -26.967772979799275 -27.524643610892703 2.9938451373203834 -1.7319359278213906 -20.698308201958977 -24.293385506050765 -24.87254883947814 -16.057346532468213 1.5076514972132784 -6.64871583320677 15.598602630624756 23.229044092168433 2.695196060586243 -38.45315828835832 -20.832603663726417 3.2841426534662017 8.613624356170533 9.098926928446096 14.932093331536823 7.750371328030641 -32.37113189184618 -31.27522975740092 -18.126810107473812 7.329187880479727 11.274175121487492 -1.69582145193117 -3.5143709596869757 1.898873535209718 15.297674232148657 15.929802144856707 15.982194502731746 8.364157106487863 6.549161745022189 7.052210520730712 12.316089514523055 5.760933355828507 0.48521229155780893 0.6438991749305716 13.488703795192357 14.570262705231407 2.1142586989587775 20.515170202207493 33.7019575925466 11.379708104856872 -9.490336610335214 -3.168545847624996 2.986406537220156 -3.592526148584504 -0.7782091863886536 -21.516424351652713 -20.52050809772059 19.689105618130448 10.856596414407607 18.285765990649242 -5.467284996184948 -17.93608384973452 26.356201285267005 31.832391716606264 -0.6907455850652812 -15.869684829127408 4.37847607158105 48.19476590181705 -4.34891785958538 -30.070489635850777 -1.3589341384607885 28.471841977499874 42.901922168642216 22.945397176951754 6.660730724028598 -8.87079895696239 6.340197745619133 25.642570355639794 29.256258811742505 10.656037327721883 16.632977440829883 5.083900745014932 9.985659121704552 -2.7721029585510757 -9.703351087739463 -14.093421240987452 -0.9419150156524393 13.001312686455408 19.6865415051155 15.64414174236795 14.03720280111643 11.280733155875696 18.19229485944206 21.105874211927226 19.686416339445966 22.981675396733042 23.20648956340432 22.335706237283954 14.931347562798193 -0.6088931152386261 -4.487130271176964 -5.680688311482882 5.325026684417804 10.352905177932602 5.015175571274275 0.7380873781086345 -1.0260233577550182 -3.975815279628505 0.5888327080635334 9.650163586365444 10.454276002923212 10.544689919198516 11.495581491176727 9.743693651818619 5.099605607140056 6.626425790554566 8.03875098248575 12.502591031397898 1.6771530413643376 -4.754724926905719 -4.164518675284229 -1.7333216849683926 0.8043924015407221 3.7891184423253534 6.169656406071547 7.095997046970682 3.9472024425600862 4.128667840167985 5.072219244858234 3.964363320705053 
-43.1718807638138 -44.974654430803504 -27.464989586854 -9.745608880762827 -18.43495700244907 -36.07106429329877 -9.754445019577757 -11.14045886367519 -39.4284046075755 -39.20640244422908 -40.09637198934622 -31.810804713830496 -16.69531138144531 -27.40812787897042 -10.779498741862344 -5.688109494419346 -22.539025401460798 -48.840159197187106 -31.111424458444592 -13.670877236854505 -15.261096778435803 -23.736535742778702 -19.304472569289256 -6.0703879979509905 -33.843263229564556 -35.60070041588278 -20.677618564642593 4.057765996445728 13.31433715290988 11.738737354477228 13.760259716144603 18.597256542977252 25.921936899308296 14.531939748573139 11.362827504307518 4.112863150999554 5.813011361253955 4.602308040380717 9.282928416342415 10.756736243318414 11.735346664612422 5.559760593804934 5.693399880377855 -1.9167769323032384 -6.600381251098976 8.693420225662267 31.017691449067247 18.355560995947837 6.433763744637347 8.999534158120778 12.996549154927935 28.505735146139997 -4.753888196128176 -14.097491819436376 17.906910475716657 34.82303497480433 24.260281609944524 18.130486040911666 -6.514514182437537 9.640748861891039 40.13200505611825 13.548770902847396 -15.130909760657474 -15.808190667218954 -4.2551261838831005 19.37058838602281 36.07475426714625 2.2871573169831634 16.546737451913668 13.8257621493421 39.64538192450955 42.88150731476906 33.70269802321466 35.405449225231294 5.978919856799646 6.829783612687972 13.091987705820786 9.750383793768329 7.671309000939552 5.662348690582493 -1.5795787334740679 -4.3616724550405355 0.7263677271780372 -5.071853116056285 0.1682583347975023 6.397312898116089 15.22015568225743 15.36636743236579 13.702671440279586 10.012430530825604 15.48061989046234 19.307526833168343 17.69655617496518 16.876454828449496 20.460124126406942 16.57147996846377 3.1667949672372693 -12.077945319621602 -10.017729849297625 5.292031191881179 6.2939357694743245 8.055147376924324 6.542724582749028 6.231292674397727 -1.3343978766456304 -1.7305004691634087 2.2988897192485815 11.173726397931311 13.326655491646854 14.31252555841853 15.632119271499318 13.027588426387696 9.029024488597306 17.15917637790626 18.572898424681846 20.643097448055826 12.268723831297171 9.339199865991274 4.300236801661291 -0.8549086521503421 1.2259623536470152 4.4374827812544035 4.823206060107331 8.794275367629144 4.320750052229468 5.215161244134602 3.814473379193507 4.691138755165069 
-27.047193866298922 -21.48077884964727 0.15129057681099073 6.527529299624202 9.421272844354789 -13.68821484807005 -6.517329172963854 -14.982309867756259 -46.60224002072776 -42.97487455348335 -40.19983610418589 -32.061642362496045 -22.17488995883727 -29.11293515428061 -16.74362484374571 -6.719214679827899 -25.6097353885486 -49.212139955704146 -27.957072310760278 -19.16692439422842 -26.268123528033453 -39.643179790921586 -41.32947476051496 -26.56323487317132 -37.09772394043391 -34.54609766775293 -21.84494375314927 0.34166296836302956 8.765310448415612 14.25682109120562 20.595179537600973 17.176328460695157 27.372563313053707 16.744772505338805 14.670980137412656 2.516216819496185 5.285295512203102 -0.8974933849493767 4.663772313786527 8.8645314255126 12.617899474975747 -1.4537613231416782 2.014537076473409 0.563772550714262 -20.919475857326844 -2.7135613542121764 31.962414532097636 8.392841160468025 8.839431205698855 8.50207608904306 12.697208269526245 12.54260172785028 3.0938461516070777 24.2868124330821 46.150688508733914 21.4625934281682 48.172878069179625 31.238221763239256 50.876825974515036 40.509880241622305 23.520777258954727 -26.217561580215747 -67.0231259316016 -53.312445776186145 -15.679771428980832 25.946016801814938 42.76920790628876 30.49432717445944 -3.1902728854549487 6.165500842256918 35.869203444313264 46.57641384471187 31.854377750992047 52.099133318902766 34.92795242425804 11.533699560233607 9.293807018756198 13.218146141931108 -1.5686118216805423 -3.733592626701807 -10.993967938799946 -15.347784356849806 -4.485025328485229 1.593291941061498 3.0428967938062352 4.24279580921579 9.193183406692155 12.01576805657922 6.685754895326877 7.395447647525084 9.846991105152192 12.996568752580144 12.676190912822396 13.34688352254644 14.659367930885596 9.862391052432544 -3.2911455847638535 -7.599567322507332 0.3420387029743905 9.077268537820188 9.313271933323561 9.629131754066417 9.07862707321106 8.318665459048821 2.6042454251927873 3.094246528538716 5.46044899074723 15.655420662996827 18.155689052043456 17.926517637885805 17.355332109514894 15.816858078149178 12.090060957857707 19.635565060947297 17.241005949375285 2.8657243492155295 4.677652348783467 10.630302491228601 7.477412973493287 -1.3354414410347777 -0.19554620361679165 5.671943129843115 6.24646042792659 8.367543577733375 6.784317354161322 5.83981681532898 5.179513737999874 6.241383331971318 
-21.144491459947332 4.118384641655096 13.620103689255425 6.113608298857888 4.172150957263732 -14.365764524670292 -8.204530806598878 -7.997022608149969 -43.36940553944766 -33.869757468598955 -33.36201502807902 -26.821270031145254 -18.581571479315446 -20.52520910438476 -9.511840610944118 7.445897345225823 -13.604055894429175 -44.49049731488223 -23.185833920318736 -13.204080443822608 -17.680900386154953 -18.642122860959244 -20.73857270818865 -22.526171678357386 -22.973476452513225 -21.133828729402452 -24.88249989235779 -21.73929473105175 -12.632248337587612 -7.580315333439051 3.8004127342027747 -5.973225215174209 -5.221830420394769 -6.2068825764349445 -2.7099530050143987 -13.362946404014227 -10.397079192082073 -15.801503620585612 -7.693835293249498 -3.193899094814067 2.129755595946157 -4.445009538561993 3.9782786018681424 -5.1614365224348235 -26.067751187338292 -19.345305378318482 33.86564829240427 11.709051103484455 25.243573325201048 21.113762725523706 14.491296029894876 -8.288536708226761 1.0783482572812315 16.05991430893384 -9.495547714505474 22.961675335233735 14.351872302266239 46.40834131109355 52.79447675342116 45.092923930829116 14.511029884350226 -29.68538215067768 -62.55282694452573 -43.90165239670345 -19.575443699097 25.948392711252733 48.72107062466404 63.37215771276987 19.99225857410312 -5.149184135130231 -11.387134197924004 -2.2998781310042906 32.614958533794876 62.37916267944961 51.23120741796746 50.987719989944424 23.670146567997644 24.409642062886824 -6.903378778086396 -5.482137093532128 -20.56414359117104 -23.061497858532064 -14.213852696007997 0.765858762669461 -4.542063348734017 -4.511774867422781 6.958331710633985 7.079768618029661 5.847459530823343 3.227157805056558 7.246273391758173 9.108637806786756 12.425351559006465 15.374277747334862 15.90844912543103 7.734893421662216 8.26675791402377 -2.494915027397088 10.91269853134046 13.525102550267075 11.243179093189053 11.450559047752044 13.414114568304155 10.190109554096447 6.244222666189972 1.8129838681288273 5.864968695242834 15.605163654578895 17.208230658200577 16.029979842907835 17.12185746609281 15.924449342949744 8.696466379742917 15.937936057879963 14.002461261004244 -1.9436752608308745 -2.6018591914191216 10.784257113652874 10.903849608853253 -2.1841187304037644 1.857726447552455 4.88857167220278 6.555040744201529 6.97897878405688 4.970105954604297 3.9574901105232505 5.251115357507197 6.296156602276561 
