29.58062770613845 30.760505324227225 26.30527232583748 28.158563587442373 30.044881045515073 29.5616272533264 25.57088400713765 20.44400279831346 6.19172594293372 4.425090729215855 6.428575511604051 1.5501034141725698 2.5093632597706086 16.87781511191632 21.971934746902445 21.984120223964492 20.56174297454261 18.84971473338432 20.12453102236895 21.704904435579888 21.3683060549732 20.151205270621332 13.391011231533776 -3.8716649413471713 -3.166678334317743 3.336893849837392 11.50863861192401 8.913895939774296 9.542294022485265 9.29256970114886 10.532869665154328 15.581322420777026 17.985327873072617 18.118978232543675 16.656028301149814 11.64895537348782 9.108807713506975 3.6439043794971884 2.07726734924283 2.461602477373019 3.1729456140214047 3.9702740668028453 4.500119300847567 5.019239387213503 1.4517614333103712 1.4431230088560936 2.54956397400212 1.0609878898894438 -8.913902734727314 2.006977275600647 9.598565201301023 9.924516512813625 10.583659461860467 3.04435580164488 3.4806601384817997 5.114746727283856 5.775650074708235 -3.4916910468482443 -15.427492690818674 -15.652974151513728 -9.103368522702857 -7.2947596429388915 -9.139398824542404 -1.2971922128828033 -4.077892979953567 -10.11935335074838 -5.657422852499385 -9.574970749542485 -14.73647446104589 -9.909773499354694 -7.3646919661307635 -4.998906248814435 -9.253832164430948 -7.965867649070443 -9.39790253560192 -10.510103893757371 -11.46887608271665 -7.8112006433896966 -1.9134403929507715 -1.1308662356302563 -4.365265226005494 -10.963108489591251 -8.006114700909524 -6.332126489507164 -5.0896232808312885 -3.867184022899712 -3.586559567944159 -6.0775383991014165 -7.737846576687978 -7.345581323856724 -6.730317153791984 -3.8003572367256537 -4.7576777157098755 -2.6688221336842335 -3.218740961336794 -1.0684771212770492 -0.6654571650150374 -0.23695163622099455 -0.1795906435200528 1.331747573115102 0.5622273372737417 0.8547111730946568 1.3734392041947052 0.6726028744424883 0.46690145064697763 -1.1678499511809817 -2.7424149320361964 -1.0960677817106514 0.3130633869398711 -0.4248815989303467 -0.11000986100359397 0.9766188998235465 4.98247677632946 5.240830251917339 6.010758458607767 4.68859386574219 5.955596802337781 7.57343566310868 7.549078390175515 7.834077395467915 7.899366061788831 7.971150698072698 8.269363724969208 6.759105975895977 6.308304840908451 6.535345699144412 6.519443817553162 8.381950220032946 
17.205453841263477 19.115065634502198 20.92607794459764 22.041365227269036 27.721290027126447 31.1835393262076 29.73586981641667 26.954798418779397 13.811688754715579 2.913979561439703 5.92934880860228 0.5438438564365129 0.0950948095920327 16.421731685974322 20.41743509327686 20.78202203950884 20.65674855006657 21.333555703449733 21.24204672538571 21.836642255965305 21.754259313776444 20.77818498607033 14.547092081021843 -3.388051628117323 -4.562862960986046 2.037385252744282 8.706116430761478 9.233942976548851 9.397850026364406 8.140434445360249 8.767737935980051 11.337263185563309 17.593068724093655 18.497344656028936 15.575460601542138 13.197943282642317 10.426701419576448 8.072504660700545 8.037419633636047 7.361946994195985 6.5236155656354295 9.751524295371862 10.716660747420303 11.42737235936088 8.356395752454883 7.768111410554161 7.060852838819933 6.3942847354999905 -6.936767024906342 1.52190377965708 9.667215284476619 10.48776597736476 10.327597319412684 -0.728869896784441 1.8779136197052886 6.874596909148454 6.033577523533117 -0.42291862702807437 -14.808068924387216 -14.788894569160966 0.5306868297144216 7.7470175668278 0.14385882047316623 10.348015921424102 7.948969588735552 0.9995050110388286 0.8931331977087589 -2.9026268819373517 -12.991342971641387 -10.581939220938427 -8.679046117370634 -8.122455394199333 -11.068327163736035 -10.914336749119624 -13.197733671987748 -12.525079960324176 -12.825308183474244 -11.8011151866678 -1.5218072030916574 1.2744422177743786 -1.5578964160523892 -8.610017510494755 -6.4837659365325475 -4.500173039131201 -3.9103651650554294 -4.066519052805691 -4.112330409326605 -6.991910713477796 -7.149466307639713 -5.975520326601308 -3.8255340883343503 -3.7887124002408026 -3.8786872525593883 -2.438205940335186 -4.957081277759242 -2.1265006303686973 -2.7264948656901504 -2.3066006940248234 -0.8597407538272261 0.5209307685872819 1.355534595946039 0.9588449204319249 1.2588282532099013 1.8698889414917426 2.5842519747790704 -0.515770586297461 -0.10062102371033718 0.4892573483792825 0.5017266039837476 1.5681864456103174 1.2146554746025318 2.187679410138975 5.455358852533443 6.658099299813828 7.016298929882108 6.41543054218266 7.309919768914472 7.75434861168858 7.929522391689237 7.786912641886734 7.920377895207382 8.363198005166165 8.251847684903403 7.778425542034351 7.003306988927468 6.925967972038459 7.96043635249304 8.960983489908333 
-3.218113816162738 -3.0356036163536846 -3.8833304783857785 -5.119596543969662 11.088722255273439 29.194512568616076 32.004577626606064 31.28823223251551 21.93947531082449 3.880345696903846 3.7876352562801925 0.6366661355497839 0.14955366072735451 16.061049089724854 21.230748964542446 21.470309444823062 22.935610365163807 22.47162293482772 22.040851658158736 22.32706983737972 21.08525424146949 21.286680889173375 14.200540121809675 -4.457722355083731 -5.15976711698108 0.7304589119995769 8.285291629226105 7.597836034164663 7.199999806116784 8.05854438432461 9.613202819965878 12.523567189282128 17.13477039826719 18.234440252166937 17.769740248586867 12.608402736241203 11.270366848591575 13.805646544536122 14.435884616221582 12.427395718987473 12.242598376403857 12.50840638108743 12.513244304815595 13.928062110127614 13.182093780512433 13.189907166172242 10.027596322624865 6.808433579514149 -8.901279495787493 3.3426876279003097 8.49074776949329 5.371496769771332 12.234054908808858 -4.681331369172419 -6.353297905277265 5.447191013125975 7.421238294252122 -3.1078011439835036 -15.825142953534655 -15.887969095899901 1.8063723668672431 9.991077394570345 6.972771211722521 13.153768102801306 15.005318479691736 9.262260903968963 8.656151402983031 12.501551865000025 -7.020555093122643 -10.344606212695485 -8.175986587665392 -7.914986182582593 -9.822240325729563 -11.003013534952077 -12.680855925074463 -11.555803675057378 -10.543340934936513 -8.95978743513244 0.019427688225278808 2.6265333571861404 -2.339667826807832 -8.922423488547512 -6.604535504947943 -5.989704125959322 -5.503978341649231 -3.1900345991581034 -2.555430595045411 -4.275772328511933 -6.642351391565373 -5.190584497228646 -3.877727333345932 -4.996904151088764 -5.2071045956543855 -4.9548293760720865 -7.226593410157424 -3.379179690427612 -2.7040944850198954 -2.8615489156615515 -3.5129771835487693 -0.4427311364751397 0.6839849192306504 0.7039399491343338 0.34967190896067757 2.1618614734336763 2.6697335745122874 2.2796224183352836 8.080338541579305 7.874962910380935 6.980601903372426 5.565651293076407 3.824016666915726 2.74719184358278 3.85712463426331 5.499484607627141 6.51788231064046 5.032751240016642 7.568957925544222 6.495083762955373 7.4830964525314965 9.781414983597035 8.74978890017118 9.013027791817136 9.880005234911021 8.025366274828267 7.076378583299162 6.412860648452217 8.470179962971123 12.083209489935285 
7.475796517136101 0.787838878982248 -1.6236531115857917 -6.491205489588276 6.294156857144408 25.806407237387763 25.41919454449386 25.58331645631259 15.307743735961834 -2.800359338963095 2.2966603795886456 1.8323570891243064 6.233197039379938 24.26394254857423 28.0664834185542 26.480009361068184 23.218956225852324 22.233099605224222 21.292586299510862 20.495215425319394 20.71163586775082 19.751440754479503 13.309371140499637 -4.829343659159227 -4.555321664243235 0.28398796072238075 12.230682445330352 15.7998437561388 11.080129138508715 14.731091064139774 18.64140663778108 18.85305665941671 19.777401688752803 19.11631929788375 18.62510621494687 12.401324646218928 8.903826080948154 10.676319636133892 12.339961962337245 13.006527071140814 11.163090043512305 15.440764636179292 15.155993324969044 16.336232928195713 16.20746772223315 14.860089207765132 12.074194745410368 8.919966498267964 -8.443936396713823 2.1179938042597826 7.390578829268806 3.9626443659383 5.6425796453701045 -2.1812018872303938 -3.322354703487156 -2.9573767712712486 4.199919973391094 -0.10926506709869875 -15.71753886087014 -15.096677129455193 1.0501792070652582 11.696671851203709 11.180230181727358 12.752317985214741 15.413714847772201 4.780522738468327 4.061432576396726 9.004091790556936 -9.038373572555306 -7.691284627373597 -8.831585418332182 -7.056649934071866 -7.9426915605007755 -8.488528927771636 -7.926476360625654 -7.202174691747986 -8.429919870083602 -8.239289816922009 0.38689222343503415 3.3485925473091416 -1.6190216149749013 -8.86632208700654 -5.273534243531015 -4.479558437359323 -3.154377071504811 -4.8329667651814106 -3.9228200005619573 -4.8814955375893625 7.298819700138234 5.627995340059949 1.5042887144675041 -2.452903564382616 -2.957881057481527 -4.609579880727516 -4.1263250680474926 -0.39952438769819804 9.775337934794265 8.040007933092964 5.069999661883228 4.566833403284676 1.3201044583738577 1.3861495877524208 0.8108811164387109 0.6855643305057267 1.4635676054742304 3.345975867844893 8.662184379732334 10.47715546236734 10.718741957813384 12.462739824780302 12.97780010171394 12.011649318021613 5.118082310074496 6.151747854026592 7.696065361574485 6.964694566339025 7.733794489214181 6.541149723626283 7.923818463778609 9.723791362821267 9.264912287846215 8.364717507264231 8.337164481485981 7.034237150521557 6.871731964354641 8.082638411751862 9.720710714260628 10.127523719216894 
9.09422138882953 4.839041412481295 2.3967653373398505 1.8451840089387672 11.461126429011175 31.411213539530053 27.56147991936913 18.575303648634783 -7.817086613545436 -20.67003163602758 -14.928256613121176 -11.646605756554205 -6.227977089046544 15.578739009926428 23.836936087127427 26.35648294264179 27.946800983523016 23.97090472037002 22.10511503232427 21.1047444491391 21.82800584836311 20.265617800438744 14.471608404298697 -3.2862704117890447 -5.537879635219486 -1.785585263865343 11.778367552290856 19.275871876109598 18.74350456106514 19.915383826782232 18.780235225969943 19.0363503990549 19.54794195837148 17.28117507267507 16.666401662224967 16.125604405530677 11.154535200522352 8.679468902518611 10.915962017626327 13.500388246076668 14.497712129072703 14.27797623799035 14.874002173546165 16.749702497164066 15.867152823345375 14.763118190550118 14.214708024574703 9.894333890065127 -7.76046420920844 1.0476399791675506 10.398984237903669 5.717314041117518 4.878457439692616 -0.32940680699654246 0.7844571147156995 -0.23651912821806895 5.891459516906865 3.5723173149035863 -15.108241318548911 -17.818487869242542 -2.412693176669969 10.51928424804847 10.349416639905868 13.102955322010988 14.371052123075197 2.285877897027416 1.4146444254339448 10.017292231753943 -6.8504928972320505 -2.6378665032551543 6.4937792502798795 7.651767002351484 3.010982377995006 -1.4311961581850545 -4.0116402567237905 -4.95395914449464 -5.396658933677687 -5.917381571174748 0.2798437326990152 4.332691919856243 -0.6315695467911104 -8.29916915996779 -5.373744526071379 -3.1864776300860864 -0.750121232746314 -3.1460020776112403 -4.558636693860329 -4.561916342886111 10.760744448532948 12.419607094986635 11.329490441579154 6.066547853957304 5.967716666226435 6.008893802699106 4.0290788961400335 -0.7300239095866526 10.882263077391361 12.271913759122373 11.680634433363535 13.26095111455736 11.638545938805287 11.143543508341354 9.59386451555324 7.674594102934163 6.188287191581707 4.373956681857954 11.257742695329958 14.872635852926127 14.811378869204539 13.152934893918559 14.151749507387414 13.350908661030166 4.906295039444409 7.211097921849188 7.466276921183107 6.920920925186825 9.107589482225514 8.267295145127996 9.861011724643099 8.786992027396133 9.864778697479938 10.125727868433756 9.430680647950616 10.262461832556331 7.852143873200558 8.150508807350327 8.26410152450318 8.49577461037806 
2.2642786063458 -0.7017620644349252 -3.975654693387923 -7.57459825200841 -5.5873187425497335 12.73506466368605 11.03691141020518 5.378854843286724 -12.344799722005552 -15.620264483525128 -13.586634068423669 -14.311403807619092 -17.313794192032443 -7.991355515867797 -5.377626358247781 9.278204567408645 22.974139953321043 18.552445456284545 17.43001193577131 18.813285233118517 19.928677879968177 19.682504238243432 14.680128796691784 -4.636676238121846 -5.677685920315511 -2.369174189012407 8.130109626411512 16.9061784597176 21.83505311648357 19.479228906712162 19.37760013562154 18.654579528873573 18.42432767235115 17.72196819149192 17.095800422096584 18.173491137930633 14.904389217340915 7.6816673490252505 7.725417410296604 9.857944192188569 11.746210226856325 12.401691816351132 14.28823935807669 14.387271856490816 15.296908060047327 14.980073466343564 14.59606692324611 7.11677006342707 -7.554412531628311 0.5511136882192099 11.712576478394885 11.843804869164709 10.279502590902924 2.4889175076292926 0.18364457237033596 5.113673083234983 8.814586467807505 5.263897224292076 -13.22468296425272 -15.4469307093683 -0.2998692013045084 14.43508340898795 13.766330819402425 16.162988484147377 16.37157044083769 7.876056636655662 7.60174467145475 15.636280809823118 -3.9043855669435175 0.4211382632307861 9.894247356499386 12.908358353581276 11.109808873646598 10.766424404329086 9.585562066666927 9.791804117103158 8.30460348626622 -1.0383352842820255 2.0015624484091266 5.615456479500913 3.1077746107408104 -0.4220993225819068 -1.6250146796532727 -3.7594410169128087 -3.0545034495986783 -2.9561976954628393 -4.1198319258330995 -4.683736896325611 9.583052338331665 11.864905584823596 11.943995415696143 9.974433436983674 8.53121829655815 7.387722203703942 6.385400096645346 0.21635446075650364 12.028194751033505 12.806208010669085 13.090638319591038 14.258000555481742 14.226472875822889 13.672411071213991 13.043239778645003 13.101951570414071 11.683835315851088 2.682550488331954 12.797847606772454 14.967748057221243 15.604992092015964 14.508317274163437 15.253766551593397 14.726589168185987 6.766965874946979 8.019987346855489 8.190914633199359 7.108918894513844 8.968653679407794 9.150872366525471 10.15119372371656 11.114132319431281 9.617720499346918 9.504354802079503 10.280268901493889 8.579783200561451 8.341931071876056 7.036485573281818 8.135302666228318 9.083953095203592 
-18.804157115009343 -17.949796941571183 -15.34976814451777 -16.80278393348997 -14.199509551805408 8.84873249305859 7.34910768668655 2.6753296795058668 -12.911637064793057 -17.404426099729573 -13.373626566397768 -8.285726363903686 -11.210268912530493 -14.868429137656095 -21.135328104897393 -9.884606721409824 7.274035540835484 0.466034412547955 -1.1581216612745897 -0.5542167025812129 -0.9230575139912954 3.570684753889897 1.8458209736054019 -2.7620102619621774 -3.528449350251209 -3.5006962295171844 6.54203431012454 16.069864318821875 18.974296668705783 19.06240238998165 19.759461827980804 19.137249188552452 19.463697560849223 18.45591406611979 16.922771174421783 14.523669097183518 13.289808390455017 7.422841757708889 6.28548429080079 9.347913643163801 7.0832941287789914 8.619326165385132 12.745820089432462 16.35171425103835 15.418017240491452 14.091623349533183 14.843517115814384 9.216604710066502 -6.844585008323935 0.05715424820635371 12.176781184533276 14.283080453947218 17.350874574505358 16.001671389041945 11.313065322656938 12.606419595685992 11.590140450148393 5.494889339331088 -12.057218942899667 -15.624149402013666 -0.170935448035913 15.31346464345946 15.347162967898083 16.701195237504873 17.67801566812932 11.42531268489986 12.07133298993501 18.925966721792694 -2.7562397097840843 0.6324746110178624 10.433443694504579 13.57192768407259 13.54660511318365 13.33881231862675 12.076145266994297 14.789624529826078 13.186637319795667 2.4393539609169035 0.7436658268085516 3.973766303847289 5.232124400812133 8.95273226889724 10.85756500554326 9.801969085923822 7.830816885936527 6.283031710983217 2.343451115381647 -2.0797496807301044 9.971788069141551 14.095059212250844 12.189506908941274 12.834796977021602 11.86493572556439 11.310069932207957 9.533110745223468 0.36370754958598894 10.71296223411819 13.307227392061323 12.720892046640373 14.279099750179988 13.056127338009667 13.390773063680879 15.0321992774086 14.888113105601134 12.124872232603352 3.634118748864855 13.752542779592082 14.422485216172266 14.170985101486265 13.705415714194707 13.967812473428669 14.282955480044388 6.364470906997158 7.714012327889217 7.988762195278911 8.252505988393041 8.38833930765935 9.223923598565134 9.445941739592058 9.628687655292577 9.25270260989136 9.99296325167801 9.541511409457266 9.591884367678295 9.6618319918366 9.721431738242925 9.092840605758306 8.452936771662088 
-29.26490330583986 -27.199698167886265 -20.318705188377656 -25.956720550476458 -24.76401027050954 0.3346647752770123 4.331694354835551 2.2926544674153138 -14.289409799219563 -16.782808819743998 -12.208016262077079 -4.455910805446328 -10.308630992515656 -13.473402223300772 -19.25295508552388 -7.57060960240455 3.0137269378256284 -1.845404999172438 -3.665851879032971 -2.85639866257333 -1.373740407479603 1.7983974705250352 4.599308437802225 9.592086191508228 6.88615105673975 5.076062251022227 6.084719948082788 19.46694936128277 21.310629221282944 20.853037495288312 20.27824004778899 20.17812362260874 18.93600783814968 19.338980384803605 17.965381238324035 8.760385968593281 9.312963906526244 7.472328206911476 7.685497402423392 12.132659814130493 7.836360408541132 7.981250778315259 17.240725631247024 17.26843732864668 16.57582236501728 15.76901497495772 15.525312503582521 11.471139053849692 -2.5317636574666977 0.02415220201650867 14.103561016406365 15.7709904693578 19.387849758685874 18.70031522332162 12.269755830508416 12.8945206670353 11.12799208133047 7.1816015981689505 -12.535307538908869 -15.8081303954832 -1.7370648263317954 15.689589934343672 15.151582746227723 15.966027748013678 16.105146885305526 8.728955862515972 13.088528642446219 20.86232730226474 -1.2357410851605386 0.898070154172752 10.187129645638386 11.397448431458823 14.508514564618364 10.21402791387639 14.21387372034552 13.88133623542524 14.126021363375365 1.8080746024223493 0.7487997801489152 6.495461469296094 7.549069616184668 10.356640095822717 12.648128790758646 13.06389874494022 13.02159008032632 13.577195529369128 13.160625468117418 8.382211370271165 9.529151232968413 11.829773893087243 12.959816035257347 12.417104758740154 13.858101666846437 13.499015085747127 11.251388396707526 2.219177217823655 13.34608234298932 14.450853755058537 15.023715734457417 16.144858684687186 14.283977999150117 15.431652788539074 15.850747017330434 15.414132845668721 13.607336387596314 3.939417410051824 14.885790599403549 14.613098593455964 15.409996868125209 15.397715364292635 15.641990701178411 15.461707180566723 7.059376809266553 9.143620922410857 10.032007073019342 8.80681935808532 9.009421928664105 9.434861789619438 9.000934895603018 10.315357329555432 10.553169139269768 10.151071068802903 9.866231446012101 10.277221257278445 8.223211690607457 9.397422116547629 9.886115433708307 9.567392675108733 
-29.652557129431656 -27.360724183834765 -23.167031736803374 -28.354561301106 -28.235961306701295 -2.57034990426913 3.588983068952197 -1.6233653499137177 -10.064757472639888 -7.228691203861247 -2.6630638466200276 6.291485615173197 6.695172333349906 1.7454717738790944 -10.691918332277167 0.0070244759755536375 9.632297506795634 2.6807943959753655 2.204067799819616 4.8002001725775205 3.1176604147848557 3.0199835064740514 6.107284254377108 12.82883484016999 10.107930948035692 5.733187320390746 5.023876103073769 20.101331943500828 22.912654428016236 22.648752116993784 21.252306200263007 21.127050169058688 20.563469290150522 20.17613631465852 19.390392605180356 8.252001193635705 8.952605386499268 6.035109351223016 7.7617380409807115 12.64139499272093 7.855514539678423 10.401050053838548 16.515038987411092 18.089940926116036 16.3376753649032 13.065083373221128 13.343384972079688 8.487612804679525 -3.4434320565472403 -2.160300861710662 12.09333471755726 16.128597750911617 18.709173267834178 20.50484632504912 14.891416689262742 13.59747939486581 12.789916576510695 8.09168291044658 -10.67312215423295 -16.572134708688935 -3.956704414930843 14.824493604111808 13.173295339024216 7.908804295108069 10.348507727126284 3.8578360604253223 11.43404567397527 20.726776143098306 -0.36693296210943316 1.492602439300174 11.19589596599224 10.676058565618954 13.104009126597905 5.3214856401387785 12.28804585285194 15.396123244215872 15.413739056163921 2.1230071019390864 -0.4801275130807946 6.959689104286531 6.071314080359472 10.982589124257276 11.965250187955755 12.439232731886431 14.207456853456177 14.4644172676235 13.66589466895283 11.888132892410313 10.343065340415029 14.201438967569748 14.640000160063378 14.894664538529401 15.671683186702047 13.841768664692953 9.1075623480287 0.6692672851012341 13.924998969238167 14.859548641557549 13.332673625665722 15.829973404835787 12.409484295027486 13.84534571545851 14.853545486510297 16.76169412470527 14.626886213531025 4.181039208404078 16.85462793237101 17.549465038915 16.461946159633612 16.670863862909272 15.742604503647224 15.930561361489948 5.584083213640696 7.410340512966344 8.305287151309786 9.14901528519002 10.19233107353619 10.394420005394354 9.635686546311726 9.743047178608848 11.055806957538854 10.15532325331722 11.454864140737216 9.455267607900804 8.68111630051006 8.456820269614333 9.231186334823718 8.92983192933338 
-27.534779498803886 -23.74696946950951 -20.566092786070428 -21.98437438324686 -20.832998228212844 5.542595414230217 11.671189347280302 2.1977288767517624 -4.87715159591788 -9.731451672528774 -11.378317603646622 5.97187232368141 10.136243162391832 5.573551640184466 -2.7328147193633603 9.708741710164169 19.23889090470423 13.319003140149615 14.419401012067452 19.046456921739903 15.869101523226002 5.7654539815357095 5.45550604998158 0.6924645379891279 1.3498567621994844 2.4766905670625423 6.839457801103444 20.307991073820126 21.857177904240555 21.919268550444333 21.91832425549655 22.142575490580896 19.4616776524638 20.531428969616993 20.515707063011565 16.075045009797268 15.84400032967374 7.036672191109128 10.096531460854102 16.364307192316982 12.942481691542659 13.82692040613733 15.068419351757118 15.257118830493278 13.812652217165024 12.109474543413596 13.215565704422643 8.656898336232866 -2.6265490713684625 -5.838647313966666 2.013118033993401 6.567350360542844 8.276829211176477 9.61322732754756 6.358384578982333 6.3335273479927805 6.338568787665404 3.966449871772532 -9.77951138095382 -15.968428399597402 -7.190683948161117 13.481974162793431 12.138446249627556 15.49673187220682 16.203494343432663 9.945234426668378 11.238526117953361 16.941559375287483 0.5693889601158717 1.364277015844585 10.140378611476148 8.780035506089982 13.188740563793221 6.233147290754375 9.804582086732376 14.811219762215215 13.648510451355627 1.1631446303841264 -0.8641446801730565 3.9522062512063703 6.496744343404683 9.928459708450132 12.108655734674924 12.546794020379537 14.502655606694331 13.959900277415915 13.578205314049391 11.604616840175037 12.150770201886301 14.544252415723054 13.652387318767891 14.348785697540155 14.406418572742721 13.805455645958352 11.132747860222349 0.020697309693140386 12.879476096122051 14.94722569313792 14.083533142167882 15.189364259838202 11.554499187526503 11.04849464613322 12.154724144095356 15.36928151680724 15.658093216509826 5.835424059594495 13.991473390079175 14.341158992502434 15.169667038862274 16.25054131893912 16.58702278715071 14.989092656408262 7.218863511159236 9.060297392023827 9.093365110890884 10.015067487699017 9.874527912056337 10.207633505432206 10.752060442722017 9.934952359564555 9.529108425650222 9.12000095770232 9.03993583365763 7.675972311677812 6.710544418244382 7.891109975331483 8.151384195136249 8.567130272419499 
-4.041807489716619 -15.090387895178031 -13.913311474491216 -18.803861250039894 -18.23334518469748 0.36623603773694385 2.862244598674538 -1.1025064127839328 -14.047830138960892 -17.111825685129027 -20.912738533026864 5.852422484049146 14.316015092992009 6.437973805850969 -1.9390669056351038 9.361914839634629 23.28230943357156 17.10064614089922 19.90821196796193 19.627113566433366 14.666607624401587 4.829655814994057 -2.845625180341776 -3.719425797551032 0.8356753740969562 7.780956928462791 13.929737312750001 18.703038711518417 19.50363942794911 16.585437571121826 19.374319415477178 20.580547703256713 18.01667248953931 19.835312119664444 19.088738510235373 19.82007820453534 19.491547068914123 10.379845540775994 12.277325018421136 17.896138770099956 14.861818677100443 15.070472895173495 16.127525748507654 15.572377974666107 12.202838193168336 13.199942693923118 13.474478616998839 8.58945907721576 -2.6594379684181364 -11.02916000099566 -10.622242904456725 -5.888415933477682 -3.6503313100684047 -2.3008676424341026 -4.30501060279082 -5.802805735158386 -3.0989501586262787 -4.452331153885384 -4.644461470600115 -10.066126985554725 -2.2090822612934238 12.560536632403943 10.321066083695042 10.05594989869984 10.050876634395706 9.922381455259258 10.850443634832553 16.63247036781126 0.7892149175284168 0.18457901810440672 11.536500233658773 8.29338994362049 12.399795378683853 12.871930954224867 11.246842462264047 13.76451330264428 11.437524120244715 -2.1943998436216603 -1.1106121454434699 3.406684478997744 2.72340977849089 9.494596710577234 10.86271733258597 10.81215010446767 8.7821222833603 12.117245257737848 12.334078815744101 12.87633935230931 11.120367445098081 14.995231795210353 15.109661140504999 14.121193084881584 13.942131132061792 13.502190560324209 11.71148616748346 0.5034301888517263 12.73256794933346 15.296497871149668 15.591572101205461 15.437796004275413 11.758439705966191 11.121453171288026 12.396269700913361 13.523695618778078 15.063390815261338 4.975947035840812 14.259025744060011 13.90959973182288 16.516287504236484 15.637411875610608 16.138007841892833 16.94756820666276 6.571368264114356 8.133577469609463 8.082374600031608 8.759173997253267 9.01597119331568 9.210412909054847 9.50925159900146 9.565848069123643 10.483216079455786 9.13941806364226 8.68783870178837 9.210965227952949 7.921101756847297 8.097029681655403 8.325504995207265 8.864181549015873 
1.6486562836685046 -4.34890021514733 -0.7368330953956006 -3.1738377938314013 -3.252514289995159 4.0725736731256506 5.266670557067832 0.19541043849557224 -18.285393093392656 -22.235557139674608 -24.058449777471775 6.101057155916449 16.22998320799225 6.975903198781324 -2.061819234921409 9.303050311530477 25.386512981428663 19.28782953170324 19.29193632884149 18.50690838064576 17.34352284995098 6.454300905292898 -6.555302412932007 -5.260168039269325 -1.051094962565002 14.758341804456167 15.867182318980934 18.0913532238977 16.962640458032386 16.18681259052349 18.153183808436157 16.65561268691698 18.253444747093255 18.70489333299083 18.95480513012955 19.742206881970066 16.34734346032212 9.65050028167719 8.569689808630592 17.80387706555468 19.87071618969147 20.01268604016378 19.29381176700391 16.41595848320457 13.778922637334956 13.10313462266846 14.334921412905373 8.539253213521466 -5.706893108920334 -11.163308384448289 -6.621892657164682 -4.504711356811968 -2.4178452469256557 0.6626691077337846 -5.077958647513626 -7.789208077885848 -7.847890988284988 -5.824460326856747 -2.8757238928548263 -5.242376669588825 4.159226752041242 10.61370082640292 11.815900418435447 13.822448926328358 11.325332870559654 14.675208209880461 9.878374812952067 14.418002616622978 0.8954774628644027 -0.8788391161879342 11.927482055628317 7.356737745109885 10.254962149854348 12.089823212268039 12.663006416054923 13.863209130718495 12.225311225991804 0.4510583929282845 -0.8930872203980769 2.3292247721375365 2.2124802512072 5.767608721059587 5.199738438997421 7.062542107295186 9.371556324259222 12.349087114608125 12.84228655033326 11.167775988918518 9.251528690548213 13.700946844783525 12.378355153252 13.46283507212787 13.390024490074934 14.570319577814644 10.229945790582558 -0.5591549686448646 10.526461361945886 14.552738452390448 14.100208437499864 14.61354823738569 12.380981907952892 12.212627126674814 11.0841381256593 12.56233870530367 14.083693536529966 3.9403055210069162 9.517901954595002 11.724872123655068 13.266345304117477 14.395631867600258 14.88453906560708 15.700206034060916 6.254794994559689 6.414560722668685 7.742492450776762 7.649617931946368 9.140718786392823 8.713883040237508 8.197152982558425 8.165551643669401 7.80269267014819 7.939192818500251 7.227053825672985 6.940892311314457 6.73929836207047 6.784565190100477 6.736810764208914 7.6692701895970385 
11.681305062165071 3.570833265850463 9.294108175128796 13.377021345601825 20.103088024483746 16.63396172171558 16.995600949489248 13.75496922881732 -17.440834214792435 -24.769956708265887 -24.334281516039265 1.6495481342845484 11.980418906774785 5.689916185717112 -1.9046061122089017 8.775400919162507 24.8889237362137 19.3771968403019 18.11033758002292 17.770229058394175 17.922584241928643 12.78957507012867 3.084648920812559 0.26690356274757326 1.6313686817750042 14.10826447118405 13.149230004726794 16.28914800181588 16.34441142603877 20.119894488212807 23.746546276316167 20.93280385889506 20.848722622320512 18.201365002347256 16.798243698644935 16.97476679333804 13.511953697764346 8.765152282546918 5.352212796896184 17.575627360865294 20.641490351188352 24.612117509604243 25.23511878451767 24.218246940420393 22.10093528515579 18.658102868281755 15.474445103180136 7.5517763680802155 -6.619243131383842 -5.738320468004818 9.274067777737628 12.592433986483778 11.790169135577209 15.879222473858203 6.671123020926936 2.098634880056191 -2.30169339736118 -6.404483434560813 -5.960528441988679 -6.919036099687701 -9.926391881189097 -4.659469939858133 -1.2626760036112559 3.6529831772854395 4.210527305691778 5.6919969835269795 2.3566108593228545 5.721970654752161 -0.4402626717498511 -1.8970217937238836 10.745867362048823 7.992530100912281 9.746493146849184 12.022377017691277 11.192056717108018 13.121178094425467 12.815802674589891 -0.6045852975432416 0.7032727866102325 3.5244292190570343 1.3306155389760561 4.399001240545751 2.528983077214198 7.318338146307854 7.933416516925607 10.673810779941597 12.298363371098585 11.477672865353725 8.977887791411916 13.429715776668287 13.025200946921135 11.928765914452104 12.765545006798625 12.166359745031869 7.557155342077203 -1.211285385502984 6.039466774246418 10.203211139824436 11.407850783649147 11.997764669476574 11.993936183877699 13.369721806955091 10.202322665698038 11.81983756593709 13.358141185532839 4.187650478630791 1.4410143656711867 1.5921804748256576 3.017113603092638 5.132019019321561 7.091629179580513 7.372270200967599 2.8086833607191855 6.065467838579046 6.3914247570690295 6.455984855330291 6.246406205655387 7.230942445059979 7.545305778355621 7.106860846328107 7.010060282667418 6.950520365400523 7.841502396505634 7.046015639867672 5.785926939758497 5.507480845023447 6.527892819726785 6.988618994037895 
5.671753540628156 -1.002399993167116 11.118128925434108 14.292213455704342 17.530614067531115 18.467848851303675 21.554154058634012 15.022537640139447 -5.828300641828566 -13.783549908345414 -16.869104434655636 0.7704016106585742 0.06632574106485616 -8.391348431366689 -8.070011472739399 8.73940851794052 25.22846524627299 20.527212295453168 16.39765849436282 15.39936510642603 15.511079930991109 12.190148125756558 5.275189844178999 6.875278476760367 7.9809542315512 21.051224586921926 21.65435507480986 22.116634685632082 16.324203314206095 15.570306265192302 21.50038482063547 21.773191726733927 22.64460266286246 23.432438115043922 21.661005291534696 21.53791234950095 12.528639838581585 7.8002218355444715 4.320539484153741 16.479126260790757 17.862373151165823 23.608542617285792 21.631652549391937 23.196161835967924 21.891167620738752 21.005388700641515 17.645875372838997 6.0511339826312245 -8.177294573672102 -7.505207978475169 7.13791613553903 12.170699634697229 12.891643701649237 13.63318845956456 10.100245227457203 8.447843466400132 8.05193754545607 1.9136057152027177 -12.57616123250903 -13.58781355605197 -8.639104008978096 -4.756834904367639 -5.268710928959 -2.0850392465462186 -5.908493906582314 -8.476199548103773 -8.803480260391028 -8.577464274668234 -4.254473656431632 -11.339938065201888 -4.899956735338946 0.22939999602968145 -0.2914546706184647 -1.4512639334515258 -0.030893010480907517 1.6117645718886504 2.6766796596862115 -3.223090716936489 0.314403213352014 3.850976656017499 3.852806946098253 7.46594710117723 5.244348020872642 6.994965988830771 9.598110881026168 11.74652205988508 11.78221552144988 9.925484227705606 -0.6528570076365832 3.1264165984337944 6.083447035744731 6.574388834576625 8.330775372131068 10.415689334574608 9.295946019169 -4.528461005155632 -1.0148795997665288 -0.5258102486401036 2.4911750051708057 3.5538855869938906 4.568985934285774 7.486523352052277 8.147724113395059 10.271185062157112 11.38700365892443 1.39395292604793 0.10945671436487421 0.14216402150291788 1.2761777471573814 1.6946406722123635 0.05200814011537603 0.1820234129662148 -0.3475239966751806 4.599592040058278 6.308903954023935 6.801804238010853 6.204569310004217 7.368255612481562 6.541355311480249 6.41972438352579 6.645491402994599 5.034353411557937 6.093111775014517 5.853230115639355 4.5687161091506026 4.4130167510203115 5.5640904989184765 5.605520513592852 
-0.4867688166505458 -4.335442053885066 8.412242443585763 12.991229233939075 15.154134260238733 18.11740846026473 23.28431573475224 17.552413157606047 1.3350473532719263 1.47291475258451 -8.02111187953211 5.629488103110686 11.849646722948432 10.338924914682803 4.6045051346330625 16.68937314790634 20.097375767260935 11.303514176118489 3.3714436636152794 11.83105958479175 14.995348280288692 11.659278504219103 4.787187321923487 6.21338655087468 9.268536827297073 24.626830429111852 26.932208065414482 27.992575932111908 24.466265300904503 17.600046471395615 26.182364034282386 22.43666496470351 14.951950725164611 17.6691682885219 12.727037498407602 11.276063075056308 8.331377407336102 10.607322423291004 10.712700021136364 9.317559115708638 13.397239035827033 20.427039104464487 21.45511559408072 21.676006950837074 21.147395660442992 22.06143134763931 17.46818632154261 0.9303341294881113 -12.282296467642924 -10.06825044396501 1.2845198140555338 9.52082150233596 8.745778771909613 9.23646711860568 6.980681438396545 5.301338506988913 5.70674459141482 3.0993213268892283 -13.65217338537184 -13.313179194796108 -0.410107112197441 0.07700448074097563 -0.4884293153159111 2.2037464376317213 -0.3433704935713424 -1.2915820542784053 1.1079465645686475 -4.696565620225508 -7.146067602505186 -14.562896552833195 -10.743980922762983 -5.369409272116183 -6.784753445692503 -8.982682805147949 -9.165658408806747 -7.401542031519712 -8.01849823185172 -7.797773811983717 0.5546784311784653 4.060232334897306 3.156815522010775 7.726828145155605 7.834955771151584 6.301971295123912 10.730337886617752 11.896908245993302 10.744882800001069 9.460509821340294 -5.087062202037859 -5.965267028320955 -2.599144234297374 -2.600037738622172 -2.3086349951068774 -1.2317762395283491 -1.0343856329685766 -5.162010033032757 1.5614074489876182 6.764515012188271 5.879940523093323 5.22261093971294 4.364353054166993 4.366429638498413 3.2778601452522813 3.0392033466728194 2.0285760955482397 -1.6321906404638202 1.49004209111066 1.386304988477099 1.5110082582415034 1.3759608146472115 -0.3715577031251787 -1.228090907249977 -0.5975964170880815 4.061346024246194 5.771963045584466 6.263594391043603 5.94710472221312 6.04904458651958 6.414708234041252 7.0146321793113895 5.914377807255008 5.549255375295634 5.228357151698423 4.9630462668136905 3.8579170343991085 4.582985312183294 5.080056657370627 6.604370451984257 
0.9974751727053449 -6.178161574034948 7.199121035419392 8.202796467937189 10.712125112378336 7.631335852689681 12.403985313937243 9.79974379173653 -6.190940749800845 -6.3188105576940234 -13.726891152972467 3.2103390249796417 17.420861554196712 14.798132855250575 15.735705414507587 23.895814767892457 22.812028509214308 17.62707473308576 7.303818559155415 12.742365606733681 17.738995410905694 11.928398183824731 3.6501635192229163 4.673199154285602 8.181631190749444 23.76145018588824 26.19683691721964 28.43933084635907 23.831089776632943 19.02112403172459 23.99711698187986 18.48929213875776 8.798117076619729 12.594769060031334 9.8931171448584 8.856605792481638 5.029347906052603 8.498431586119148 18.34265144875874 15.232722791070126 20.362388475976555 20.697279278673992 15.658985872615142 13.892147834187872 16.42004912059424 18.31893585846514 10.6130520102257 -5.186572383164273 -13.483553467500657 -13.168315423890565 -0.11287484445280485 5.935164204307984 7.01628138038532 6.08185192081444 0.4742464582701919 -0.4927808613823005 4.695913442195132 3.721796730837684 -11.349568704637251 -16.514673628092545 -6.70201315362658 -2.3685961407214737 -0.5540866630160083 3.638632128451093 3.2251449312715152 -0.5951671171135076 3.9633325576811966 -1.5938790029997791 -11.24738015800792 -13.421041329698921 -8.871292936415399 -7.545267825540992 -10.00533377539429 -11.715447990835292 -11.279287923503507 -9.079431163175062 -9.686271836360207 -7.959815419900255 -1.0774534923508916 4.1838761968783915 1.5590387672669819 8.129685700547084 8.728594863996879 9.99997964285302 11.902296324670104 12.25196313034319 10.88367500284301 8.998242145169897 -6.728556228063025 -4.854154584025031 -4.616833861655767 -5.570243257458826 -6.735182668917302 -6.642504150383775 -4.800306120738241 -3.6327074197781015 3.7947401047845957 8.201284503509674 7.587353750070265 8.024475633458518 8.588561721864577 8.3508947843485 10.162304033138172 9.843252391437058 9.634239795633086 9.52228826309429 9.850635035805311 8.571563861885805 6.9651813120978945 4.882349878140054 3.9647669135451533 4.867775608123071 5.168119672502165 5.7112933894016376 5.498226066871628 5.743534189769527 5.969724781076015 6.130588265863686 6.243885017911602 6.130208494925299 6.642630965101678 5.945966074856675 4.70008588234481 5.532208239575774 4.143049709973728 4.577310668276384 5.132768272691523 6.241436463642847 
2.1993675477338317 -4.668464063067802 8.439411747632874 12.216237421656208 13.80745801591775 7.536021378033538 8.903210252189611 8.876883361625147 -9.432636373923822 -11.014273665816171 -21.13398496206994 1.9182307318382403 12.170205779936696 14.938398533769867 16.226359886240814 18.64653245530299 21.064860773159996 23.58642716474715 21.043371324546925 27.845285006529327 30.21207458685124 11.562484982114503 3.9151899019676106 3.796448459269041 7.336629166059485 23.638561251462974 25.41546641881383 28.05259431677853 24.072783432889832 18.559992223555938 23.11128985385991 15.415922187747286 7.646579806637773 10.56836475668549 7.528133939737427 3.5579494530184297 1.2464484165924112 5.1525949836688145 18.031254983659895 15.535615207169133 21.6334065012499 24.73713388004965 18.500402578137507 13.058561621514347 14.032318665118561 15.867733813067293 6.36675491366725 -13.76146331514819 -15.64988139486383 -12.061548818821581 -3.6330867828509756 -6.510587067917166 0.504438920854947 0.24985836222775643 -0.8548295175403041 1.81824370962414 7.642211118822946 3.945076498842845 -20.846029183205292 -24.268259925933734 -5.3114164529481025 3.5313384362034865 -1.81101430282349 0.16154958275126116 0.9054073019209395 -2.4933629108482136 2.178651614126929 -1.0464301277876729 -11.18019852562812 -11.517298647344468 -5.284995264574598 -6.54384830771362 -9.883923097671094 -11.574411376662225 -10.279117746518777 -8.114755975707048 -8.763623143124697 -9.793147640872851 -1.452213843019969 2.694591031077671 1.0083265127915348 -0.6514307496484156 -1.5516946360488295 2.7300139675888726 7.101508763092579 8.481869001421808 9.642190471710371 8.239432135955573 -4.941737954058518 -1.0748350503992299 -5.165184559240803 -6.647235750007319 -6.200073778560753 -6.922683361891087 -5.659140410514856 -1.925257388414878 2.7828028213199674 7.232842556426989 7.698038640379534 7.415741521494014 8.29515626254904 9.317652745564338 8.86361610981483 9.881330383138874 10.87667152505187 11.780327690257511 11.1937845879979 12.051247108432428 12.097825926183335 8.09716398889684 5.939099885711589 5.56023112196693 7.817793485768 6.290928172761272 5.80065075468591 6.070348689460506 5.905530719769118 6.021402844039005 5.532222387588786 5.433347541291149 6.4415147474274725 5.763867100623706 5.693483967632711 5.730633607086017 3.5797887788956033 3.557477879340798 4.836031591938949 7.451926487921371 
8.756404080864213 1.701861234910539 13.374084992969669 18.418619202400166 20.37118764435968 8.198958228273819 2.915334104526602 8.335999902805726 -7.82379471205029 -9.697770747855682 -20.058408370498785 2.734115112216362 10.601056145405222 3.328741201492893 10.403633237372576 14.94320206165266 13.50924084355997 15.19669835077855 17.902402069961802 22.427594041622772 24.78135274571922 8.822689667689934 1.5997589957010334 3.168718473993875 4.125763150348423 21.337524817029355 24.04748997060988 23.757239485694868 19.87855139210794 19.646380941054208 25.884487097780365 17.897592163107525 12.113497610927283 10.954769689867373 2.9818449106039235 -1.4186159256552946 -3.328641785951997 0.049380992074425804 12.849242111569454 13.001128624321591 20.291571208111375 21.51549864043143 18.071959534178287 14.420870145445562 15.238871408174727 11.724777169602573 3.482498939694995 -18.33554237602353 -19.764045448922236 -10.525961911354388 -4.055666400868398 -4.627739031904179 1.292455865116933 0.36847002879018115 3.7517496268438837 -1.1022646126728477 1.0755153031036169 -10.023816337874473 -18.274286450465006 -16.177344001867485 -5.107405359896113 -3.263395444396123 -5.015972435301875 -3.4575858411820777 -6.353969973035811 -10.133711910632274 -5.133225424917363 -4.57411855142718 -9.308348432911702 -8.111122552542257 -1.9620977142406726 2.286754855583136 -0.29793113366530344 -1.6097038464766271 1.070028530471849 1.5493537552427026 0.8674933748495166 -5.977555226945461 -2.6297204596958528 0.5795472810312208 -1.4451890503220943 -6.2606397181963285 -10.18257450854618 -8.516481093309402 -5.655109135688825 -4.237458963755782 -4.468871694682759 -3.2255924380942718 -6.168481967818019 -0.15518099454810277 -2.6407771445779025 -4.204942247809449 -5.657641282712331 -5.32942964117635 -6.220760517943665 -3.3546633460254216 0.41140802659247155 6.341675569123806 7.414279019792615 8.531899177685451 9.073593873319581 9.579652604870502 9.829897920182926 10.680571380877568 9.43791247481534 10.89769001539401 10.86254957429684 10.542735327728685 9.907404878260886 6.927129343851359 5.979293599493247 10.459259848644141 4.2882645413306495 4.105120762599424 4.875360109054731 6.712746129386762 6.691481807187391 6.28935190591893 5.690664022334173 5.864305021291124 4.330481644902957 3.9535636227127666 4.5307844587559325 4.9922543045643355 3.900333659495825 3.145480559112103 3.7168077189716664 6.413324572868925 
6.711130035923245 -0.007007380879170141 9.508003549443488 16.77240274334474 23.608620571908087 19.486335365050152 15.607785581875042 23.18503547644765 -3.182821791596636 -6.324055909407312 -15.83062672618371 9.736784659964504 15.639492325798157 14.616871722524126 15.395972555121155 16.59399941909063 16.17540113807106 16.65559383715088 12.863230382235473 13.882646131761977 14.213631169910833 -1.648933030722505 -8.049394174656342 -6.610886382363545 -2.813113550643712 17.36935366397966 21.186133521327775 21.732198831112314 16.554681887216645 15.53216679525257 21.835066508726715 20.671704415239294 18.903128947289538 13.461158955059606 2.476070853095898 -3.3649220401039632 -5.096965659280487 -2.723137256742551 10.804180979280341 12.66155236066521 19.929385037479438 15.55516406704843 5.303996700781674 3.3040502784477748 5.03402404295535 2.5722262189068217 -1.9233417880876393 -20.225637782113754 -19.869465525121168 -10.950190646773846 -3.6037155483954644 0.2104677051742861 4.347310874923461 1.495004543759471 8.889343221180441 -2.6898140562912807 -4.5150553686140675 -0.9272911258727233 -12.348567444576002 -8.251614280670282 -3.3240365167255024 -1.1932086188082376 -8.796403119053815 -9.219650963015969 -11.000241276760903 -15.750423387275784 -13.927712966452951 -16.422796843636018 -13.672253871005813 -11.300082079075441 -3.0509469315575055 3.245237063538648 2.098962230794802 4.069341009532071 4.38980411374149 5.0543997724700604 4.335744651083187 -2.5998567578682104 -3.0371375895461377 1.7810532051971566 -2.4723308855499284 -9.021356273427108 -14.496412965599964 -11.197093283560097 -8.534798743681675 -9.548913998021419 -9.608800409167786 -8.439124885616124 -4.435788846802725 7.99578103143672 7.835954904274235 5.5998753973553725 3.6554264672667514 1.8331089353419254 1.149056076299445 1.7891225775667057 -0.108817173653069 6.71991179328901 9.026556738472172 9.7496776568418 12.26512448097358 12.696723317745516 12.100905078275233 10.515016041738662 9.528615057543181 9.567342869195258 11.39924667014426 8.636935687252807 7.415937117005736 5.95205663545521 3.9392778574901315 5.223039477397125 3.1686929735592986 2.2463567722165116 3.3238239108352694 5.201863914938729 12.300199344288243 6.832510137716209 6.680065016178906 5.9980038116924 6.453478140509055 4.981494511554824 6.3662387966793474 6.962171127371843 4.168661474097242 3.4002591756708163 4.003208259847096 7.850318531111949 
-12.574417005697248 -14.462066708163405 7.626222657657752 13.93759512098797 24.207591578530806 22.597396813699614 25.10602774836675 27.851242632701332 9.76710444634039 7.651400795579908 -5.70199624683935 22.557608580511708 29.926467943591142 25.646540420361013 23.864615806694342 23.87259256652227 17.330917192210173 15.699050078570036 13.1805282044882 13.271817874482476 13.80432742786266 -4.01592839977783 -11.062738063527044 -14.0645853832894 -11.863962224354088 12.599042731840697 22.502200240286005 25.138406197105592 17.348850811033483 16.85096431491396 20.33844566115592 21.65639968747207 23.009507208705525 13.94751191416038 1.576404304595288 -6.735369714067044 -6.6689271433953135 -4.227670459974748 9.575505797353628 12.348093105957775 18.768549875924013 15.43913206761841 3.2031201788760026 -0.46415840055151913 -1.623069675386331 -5.849377534594661 -7.0198459952274295 -14.986836593515052 -20.300931192221796 -16.530322165578912 -13.007165235546937 -6.711266812557249 -1.4081977478218302 -4.847192777196854 -2.449399626617929 0.6839355127406893 2.6078291488815863 -3.8304812521019653 -8.342319744292974 -4.309883669341264 0.7177649051684348 -0.9309553450131989 -8.207022107561997 -4.208603120738725 -6.071984092876839 -13.831137297217055 -15.602294058831374 -16.868966011338518 -19.787584954073473 -10.570455765386473 -5.757533819529795 1.995993041986396 0.736256860059835 1.9678550979082057 2.0455021857522344 1.5671360851083425 1.0564473647322994 -4.4362683403862455 -3.057245977328074 -0.1545257819373748 -6.15852902890705 -12.180749566996901 -16.456352096433356 -13.142116692828326 -12.473782028074234 -11.259649947277333 -10.176673805085544 -9.282835071855668 -3.935180917621341 10.101234102753391 13.053067674822149 11.908745160391177 11.61426642156461 10.451198493140266 8.499710321250454 5.954128619558065 -0.09054926081836041 8.566247439425902 9.773874186086774 11.647011060719077 13.274320882236132 12.371316580350932 11.747248362356753 11.566454724320064 10.897645806111235 11.657718268735229 12.523351756253954 11.410716141050663 11.603160798235889 7.429206143098169 1.537333626422742 2.9480477923262765 4.300091306419243 5.085387132031051 3.4980239987320103 2.427109936292002 6.119995533302827 5.850280620848367 5.203651851392656 6.524711509090136 6.5143199538269 6.4139603694714165 10.691441358188404 8.707445588516341 5.399756872033189 3.982959247446009 3.9830120052096274 6.261407474560284 
-12.63752184926083 -12.477203640531236 0.06130558155381504 9.74978321704285 23.03968339722022 25.317669373333857 28.775749848368438 29.195835779937855 10.229718499941107 10.250402920727673 -2.1066308039241557 20.901284137250457 29.664363901274786 29.23861475637519 29.92117483206285 27.450739401642977 20.356389950895096 23.418530329581337 21.22709849029197 18.838756581155536 16.23113816276353 -3.264513906241138 -12.465917734603526 -12.126001723113315 -8.731286324138615 12.857344956219002 24.85295220527929 25.02260710018988 17.461176215959227 14.685998481165718 22.373119582505304 19.898516273035586 21.23939420381645 18.96083767370412 5.489305288647079 -3.3982122462136086 -5.626146902603265 -5.2508219162313665 8.328347480362446 8.906411438452064 14.4108837620741 14.972450886009199 3.451581362230864 1.9304928084367916 -0.23333452770758 -3.400864646137252 1.4119779692220493 -0.29149469734869804 -17.111322236885993 -17.38612479616765 -14.464073315248351 -2.96852009388229 0.705032832329697 -12.502998859950813 -4.495436383021023 1.6223189784622498 4.663996412631442 -1.826322684653023 -1.3955565874963662 -3.406735885996635 3.859767051214837 -0.0865298614410527 -5.324389986666781 -0.8697824771067963 2.539089521273765 0.28663277298302164 -1.9668195064773135 -3.5849108675546715 -10.56500365452107 -8.36524793445686 -6.947091870110764 -2.2823697336031734 -1.8351739708914176 -0.0351750248418536 -1.4898295466829778 -2.175266194846821 -3.6635164028726948 -4.181414408428028 -4.343203936340413 -3.711990510047964 -13.494354240265082 -12.805029735055436 -14.378085466132998 -14.057807552959103 -12.538235086852787 -11.431667997133712 -11.389685421797546 -10.638954189511342 -3.1180724832166495 8.042529190973607 10.121711035857231 12.395117987477398 12.750079525259286 13.241842755965818 12.702271259100014 5.273861099878558 0.5296071525427619 8.485712282253639 9.76004354321507 10.753925601181994 11.813474385507288 13.334537564175953 13.219581791546315 13.91105775757003 12.665439541441705 13.292924553625895 13.81875609459953 13.135654028047925 13.351629591643796 9.351433589120248 1.2887960539250183 3.9308404243383173 6.752849713522707 7.412518385672561 7.619080506193642 7.133489078017323 3.7858992027062714 4.920239070990629 5.465151475089715 6.128469347961142 6.194581314561396 5.617997553725558 13.21577650116835 9.990055916757255 5.268851581677228 4.234856564944701 6.229684798932155 8.910560690164134 
-13.771864723768612 -16.04234621162208 -11.558105003902238 -2.8315150301266874 12.180582482093536 19.282161207402172 26.20822361462057 25.83899023137066 7.301168856264407 10.190645645572543 -5.333974048453 2.1355735158796145 4.205654630551201 8.419233761100466 10.119317584099232 12.511245386424545 8.392353989511758 11.38418684214678 14.43706449579607 12.783346354833666 16.347521393421953 2.1382575886721513 -5.547956752424034 -10.235710267809592 -10.637577393766426 10.984049630130018 22.520754546685946 22.381070762979714 15.371928797984003 10.754393791885592 19.680034451957198 21.0095093093507 25.338582812449978 24.208222792506824 10.017873378103392 0.03995219043758879 -3.2190746640132955 -3.6967730561109526 6.563154352939913 8.52820403418495 6.802711557199517 2.83141788637001 -7.7031537820103155 -4.706774885487828 -0.6496660477861469 -0.4692622200963882 -1.0899059723694764 -1.760985098174686 -14.95210230051883 -18.071643387984448 -18.18792200792752 -3.307107045207597 -2.2582360300121382 -6.252690058593284 1.9456970519160117 4.411127110954348 5.835168777040246 0.8698832252563441 -2.1146199525139173 7.766002479787178 9.62219852574919 5.5180253925425315 11.06937852464358 14.891585160363471 15.944325174337717 12.867693132342836 10.934805300339418 7.943262350307469 -4.271655666221667 -5.190693584729713 -4.922639909398826 -4.5535825324446115 -4.891819598838477 -0.2260242229928468 -2.723131536674215 -4.069257414846629 -2.010479417782017 -4.269056309822766 -5.984269674122762 -8.618448966763285 -11.987585011008356 -11.898661653119447 -13.936723683626179 -13.146902560567366 -14.460584877999892 -10.362472033724202 -9.088383949286857 -11.712589887903228 -3.223673180753926 7.697454313521276 8.504914879742868 11.11289714235644 12.289004035088027 13.235271706801823 12.67742431873839 6.9188218940595 -1.524264044677212 8.943018004441983 10.861484094588588 11.831833568914483 12.494433922615787 13.653937594538322 11.639008048055345 12.534210577594612 13.666595244398815 12.495043929787448 12.881636026905364 13.15380778524171 13.127453881700202 9.929267032055629 2.0213012922211977 1.6048155186617625 8.81496135065862 5.417425285959122 4.24897432024385 7.189500550884315 6.502102304755871 6.9255769359912325 7.251950806248271 8.20105417274381 7.326999160161002 7.529861516173168 9.884155260444183 8.668697140890428 6.114562303806305 5.855220459690116 4.991913764859851 6.168791544491517 
-7.772996230902567 -9.457253524166726 -16.74967300317765 -9.128455475543337 3.2034268910528647 9.74741907659822 20.361368448107662 14.470962887344735 -14.27701002038671 -5.100579814544181 -17.772354436180578 -9.940338980682847 -6.6895399767811 -3.4603730645255832 -1.0355409922170804 2.6417393750844282 0.8518761012433423 3.126330743136944 3.1701271469976438 6.0085335493620295 5.570432972622903 -2.9028251270212153 -0.12946765908503685 -5.227729459836781 -11.62216315111116 9.615217277018218 20.826554639858838 23.491663113811928 16.63860301253583 8.460805647517375 12.24203303603794 15.76296452319588 19.62015198908836 22.244996246216495 7.901530327726749 -1.1134410780617714 -0.558023302111087 -4.040579165514836 2.513977262784462 3.2346328317168758 -2.7037754982230586 -4.096619920604551 -7.276130329146501 -17.63275986540059 -16.62525336576197 -15.629566307090458 -13.73317042191031 -6.098763172758046 -13.48090099045811 -19.731475508509305 -22.713252231211527 -6.030492693362829 -2.2818626319408235 -6.517986807534597 -3.814116765499989 6.359191761438625 1.571646993076429 -1.381778169028318 -2.334388485131472 11.654894387997276 15.13809195853705 22.338269460242778 26.690065291691486 32.27064356561891 33.32427241304727 22.55528021249394 17.814308832194722 13.211766192914363 2.0348072390290155 4.2615906817472196 0.9362542837872097 -5.356769352729436 -6.172119682758072 -2.7437884278119014 0.7197254363590146 0.06178023319887275 0.540975908423532 2.597814395870485 -0.8734248912145919 -6.733967562343111 -9.970964551271749 -9.225496532985336 -12.366490828191138 -12.846014019419174 -12.681980059039933 -12.81165180815731 -11.945405867366503 -12.158895467295325 -4.6122869393790005 6.769208712850125 7.392758390054079 9.59838389275248 12.882916618134681 12.93970175908758 12.591486215741352 6.960984720815146 1.185004415245729 14.592984050127905 14.187272824906772 13.843926404873681 11.743828876048996 12.645751118629917 12.106153642954498 9.650870693594708 12.763092608447616 12.77405413935136 12.553811325233443 13.063209690407897 13.335854676317986 10.599170771654947 3.067037103750163 2.7159412113361623 10.888471073735735 8.836835670814311 8.429025694334923 10.07192040044567 8.303778805259709 7.392839999388105 7.175427535427823 7.188108508750926 7.73339846111223 7.2414262456634955 7.855186268289814 8.853852533210462 6.472490136097795 5.713557140835336 6.395976189213878 6.4098677544446865 
-8.666085571569056 -7.484828877229779 -5.100326214431582 -5.837053688392587 -3.5426387477994137 7.939570149888723 14.527888431289389 6.0356174876649415 -22.718160827398993 -24.140738419503975 -30.750785516618503 -27.004513389233406 -25.016810613106916 -20.782332833636797 -20.24253567171967 -4.030756857178733 -5.121784123980493 -3.29273670623426 0.4069758583087491 4.194865708224677 5.59258791500955 -7.828988758089278 -10.16981199960082 -12.383793928536491 -19.854557646325375 -2.4907562573080257 0.9403668108468171 4.49191548934196 2.2318217006864143 -8.235257592377337 -1.4885608599831917 -0.1372293276529025 3.2206566193504327 1.5943155722725721 -5.258826186492843 -9.71719616400588 -7.610290930586299 -9.287799046507924 -4.058199660341991 -14.61351496150433 -19.004760618116347 -17.405552902916543 -7.988364704098127 -9.91864100346691 -19.14131393088555 -24.144918940853913 -25.531975919732577 -17.53650014624487 -16.70666538280449 -25.383455680437383 -14.3322646378916 1.767721994531159 -5.411795968028464 -7.1582404408042395 -4.003761293706392 1.1717763611856404 1.5174631080351177 -10.005999271855947 0.9271717791267373 12.801558052628641 7.787562861744219 8.363591511959743 14.17153788121612 7.585329925867993 3.560933171348489 -3.466363960622786 -1.6785989833865944 5.971263016634743 9.011602167819685 18.225758992473587 12.572254900108277 11.412852098655446 0.7456935217912167 -1.0801062366028311 0.8153289342305828 2.101858725466983 1.4533713181275534 2.1511583957261715 3.0544724042732208 2.4712174115464975 -4.180731388336971 -4.450355526362019 -7.306280210751004 -7.414827377123522 -9.642691164932044 -9.92261302957195 -12.123637296980005 -9.950693952998066 -6.348449122736557 8.207040674877138 8.117999359506324 8.929312013019551 12.336117541504194 12.861974481029929 13.158704258512346 6.512199173079614 -0.17744723969775142 13.048562906001113 12.644817340642858 13.721925404324997 13.114263076656552 14.152330448957978 14.617072149672712 12.32891199054416 12.70117997854195 13.066184619898484 14.817264161260898 15.470664161651397 15.867404762095696 11.534629779994768 3.2625382731731243 2.9085128117406165 10.882379569340996 11.340754123238936 10.31437260449857 11.421538743271915 8.201179782863196 6.184630360857994 6.053174333433129 8.613057173362884 7.855036524170411 7.190466731748093 7.689164911656277 10.110973430020032 5.3948592635919 4.941106577291939 4.596482046256824 4.512835334152446 
-13.089642221674563 -11.041951042560664 -6.204707950812219 3.2328781376489846 -3.3143028957588467 6.796936966504996 12.348685094664196 1.02019792272022 -23.220616530204417 -27.330271770169503 -30.41024972585448 -24.280233860784914 -17.296067275980903 -12.229428114258763 -17.125213353456367 -2.3418788606477055 -4.811487836701553 -4.6622395682195945 1.2593301546019602 4.297727976194415 2.0654282592249977 -9.750535848501997 -9.04966425908681 -10.53842824179157 -24.11594873986853 -19.8879944031252 -15.761176128471377 -13.004923865877185 -13.09142883018144 -13.9577874868356 -0.06793013387650802 2.44315625020691 -6.538996925278187 -12.976311406303127 -11.267486439843715 -6.554491071442628 -7.989810577655499 -12.407404050967775 -12.823311723637879 -20.37234584804572 -18.900660474383663 -17.289740197412282 -19.00119583115232 -9.860782040495106 -3.7220496112070167 -11.296608180639524 -20.08466459458765 -13.878325373701728 -14.849475230385387 -14.938296656225068 -2.3130897388753064 -4.79228323925825 -3.340383545085675 -6.073864661094913 -2.991758002610047 -0.6392194874719768 3.929874339424175 1.2002168304054568 0.8327691749065674 -6.125864735964439 -20.474759586249846 -12.133605922873114 -7.495365051322855 -16.868796088726697 -23.46207309771881 -25.2294615771155 -25.10898522318335 -19.371394454542518 -3.3342706016096995 16.123062940342447 23.484775619835407 23.51756911021675 8.012118016962232 -2.210132916420111 -3.40157282297302 -2.1158252103182673 -2.023573426408757 1.0359677194457195 0.35448330003099393 2.0243045291106565 0.3334553623750383 3.3930676008098364 -4.48501436878753 -4.478968727274361 -4.474772457268483 -4.852625594199751 -6.277966027279506 -2.0428581219353688 -5.028860214724893 6.492002817125899 7.609671390365368 10.196206769178735 12.199705074300986 13.65969678847933 14.746299085477869 8.296021293155562 3.1951202262218454 15.410209299360469 15.32433358498254 13.788745162196983 14.010406352940032 13.364497081444997 10.810771574240754 9.470807387442477 11.051356500846465 11.099241105085637 13.924436327650076 14.064491073787183 14.663465372648242 12.300785859755601 2.6652807260072513 2.8444357811552043 8.394125473672498 10.348801181057034 10.747168736047362 11.237629470553976 8.74308421533416 7.036626690049995 6.5980270815370226 6.909808095074578 7.944924391504988 7.197065239019471 7.048464032333037 8.961859980645414 5.927959923828191 4.557362950031057 5.163474373636217 4.559452684845018 
-27.07627283682219 -21.307355056943834 -17.562747492151 -16.32281452683488 -20.357883519418234 -15.84472490127013 5.621868145390606 3.9954742220472337 -20.78817142210981 -25.76646149492418 -24.54941961771049 -17.06959528650479 -6.600959209355282 -7.909889574574435 -14.429900376427598 0.772157395460858 -14.174198535851188 -9.482153074556129 9.509043212055216 12.997717675705246 14.124508659715167 -1.6523897070310478 2.2080565379064545 -0.4372921407413748 -21.462558558208023 -22.76668276094194 -16.023462196207127 -12.13148382380623 -12.979376559566806 -14.020672501846636 -0.6232273870062478 2.186071774177206 -8.996901386279848 -20.742775725173814 -20.622925478213393 -14.328562474427343 -12.530971198699634 -13.934759773287448 -10.475007788527732 -14.082702989684792 -12.846612475603042 -4.680082440532451 -18.987601182244394 -17.02210420298104 -8.8720516785793 -7.557038195029239 -9.141491665249642 -10.114776932869487 -20.718588188144416 0.24201702550155174 3.3508035660987576 1.4395364005200117 -2.744945388031529 -9.479411367076729 -9.56643390236317 -4.073687742405686 -6.197097261941762 -4.18835670294982 -19.29018561278644 -31.484947122864554 -27.93207176184716 -12.140694645648342 -14.283862446777105 -21.195979694959565 -22.84609519108742 -26.32057184456434 -26.458188536314594 -24.63193303063136 -19.135358452271166 -10.62685509637644 -0.06436032318184887 10.476247212397185 5.504667822015963 -7.531258297504997 -9.821149904067891 7.7113009658076415 4.563143410339259 -2.452284846587586 -0.21871710452591567 -1.5646618684736853 -1.650959131263381 4.900084190956338 0.03949265758446746 -2.3524451290741157 -5.018765387678673 -2.742233106681032 -5.190333697951835 0.8697860078329279 -2.8218041924187767 7.9204796651452725 9.124073769945008 9.132057724915922 11.732699606259088 13.706742650207376 13.658421068376855 7.263852577903691 3.3165481784218938 12.977450484323967 14.318582498996085 14.56748571796023 13.108257214443466 13.195988454523842 9.873455296209825 7.685227338644285 13.37255154537501 14.04430379706842 13.719989214569896 13.632469224383353 14.044334151279324 13.078998300024086 3.48936544290251 0.5863323712973603 6.799466231605017 11.28070505848102 13.93193838797607 16.060846824491644 9.967278063535677 6.837398389889432 7.284336233134079 7.578439902758307 6.65402980270241 8.34032086411213 8.188354941518163 12.066660925121942 8.532377022185058 8.881775480855557 8.705764048086444 9.930934911818143 
-38.24220111290786 -24.943738181894258 -11.337248950642064 -12.520301438198963 -21.82531963703795 -13.649543742660263 17.215830248543984 20.568444398468046 -5.277894199404817 -8.37338997466614 -13.503863182534037 -4.335126255538494 3.3543246731211953 2.554212501356992 -6.980400907008119 4.9762491195709595 -27.17666168385515 -29.612251755986392 -7.637486496246077 -5.562554456290715 -0.0029790485142235767 -10.998424107986528 -9.16106791493306 9.590693863287742 -17.738100548503922 -25.116570016589613 -26.332913545443244 -13.943659129233183 -8.941417035199654 -9.870056503649748 -0.452206126252578 -1.3049839383548216 -12.546031806132513 -23.030270038735583 -23.157989483888166 -20.241123169687043 -15.19589838939513 -17.340590013340957 -14.973643111718564 -15.028562334151761 -14.12995868074951 0.6677825221963869 -15.27556213697401 -14.639756401940511 -11.557259173414469 -10.063356631467494 -6.849300984539094 -6.926574657684936 -12.319865208144922 5.622910490212704 12.235143611713438 8.436492254196024 9.668779497651302 -6.076165182847292 -3.9752390433383415 -2.8800531622098537 -6.680250066764257 -19.481018254772746 -27.33127829983337 -27.809559044473136 -17.558443752779045 -20.868142986848202 -21.094880552961733 -29.04124349662736 -28.88809902818866 -29.341416083620434 -34.17047541686707 -37.363366956166864 -30.245005999407027 -28.42816751282366 -22.692710381905833 -10.081102272162395 4.054829927473953 0.7250505217298719 -7.627347984010332 7.024487583252997 13.946628678452647 -2.828780157671615 -2.74524585253336 2.2601109181111942 -1.3327611764796723 5.045768437341211 5.444849593176382 2.1407770396109256 -3.830358195716902 -1.8421870268532898 -3.1564387421264812 -1.0105947006561362 -0.7323046956222774 7.710003282876033 8.61522278411849 7.819985672762484 8.842352070087124 11.048421377631886 13.639215838298586 8.057185163537255 4.539701403485308 14.906335114988954 14.866879572572861 13.451654785183798 14.118696159922205 13.790392199061731 13.790254861907119 10.25441648751475 14.059969260376972 14.407707244868398 14.73200915225393 13.209134306657885 14.406446816895768 12.567783390799903 4.720845221175343 2.347968940298656 8.879926677582365 12.831952154152757 13.600832860345271 16.225231000153574 13.218457853365774 12.119228697476839 11.40495132079822 12.026885871517273 11.85407557930523 11.835000689166563 13.705556983463014 15.742463291086965 10.668231495746038 9.87297806938 10.220840287621423 11.241401146859483 
-37.19872148263125 -21.14329080391968 -7.800085546948762 -1.610005876352485 -2.3201084132456486 -0.20982647497666776 23.39833902443186 23.757126218452328 -0.9957554994092231 -6.347559731143759 -16.18798390293098 -8.015987218320076 -2.4120483355788176 -9.174839067605603 -15.097227244778566 5.850098581966178 -27.791143766360847 -32.08007422781581 -15.90281252744884 -19.25790705948495 -11.814543202526629 -13.001602834511974 -6.2146326301187775 9.633643446129028 -15.40982730325106 -25.34780487623683 -36.35663164073555 -23.13903136041861 -16.819054484348634 -18.678852210614306 -12.236970600040953 -8.465151308593287 -12.57354218089915 -22.16534954512848 -21.185256534509055 -19.96005172104143 -18.48388386533681 -19.117722533314755 -15.2339490675096 -17.38012797552208 -13.610448725278046 4.65963230011843 -11.586482463492645 -15.087976927627375 -10.174051440983456 -0.3004201112844711 -1.5962140494588597 -7.811275062100174 -2.681113185681402 12.446978616722284 21.043474041979362 12.564740272878382 7.705333408969372 1.7124679668581755 -2.987925047577635 -5.397385069052633 -10.284815390855451 -18.28989632124294 -21.2847795313499 -20.475560907492895 -18.620360906939194 -24.201091681543453 -30.692720055357487 -35.78393336527392 -40.49680665061809 -41.418089573594635 -38.621546982402904 -36.276620734258714 -32.80930400578325 -33.34203227008091 -25.09540847629315 -22.871664737100012 -14.161269180036648 4.043951905175455 5.033118980063795 -0.10905366135033485 9.844046681354136 5.21491617235606 -2.5161684488885503 5.017774861447088 2.5201508034064006 5.456073473697754 4.362688684920781 0.34945796614004226 -2.6657966278945944 -4.270271654540562 -1.3722364601390435 3.125339778843703 -0.5209014612134267 7.5307224504643075 9.104055102083159 5.919288083604503 6.263225863377965 9.131814618222124 12.922557708754855 7.853723445812005 4.381285016916318 13.75236409139411 13.400497983489501 13.003906464967992 12.677725192654327 12.95890634981883 15.121034920435779 10.166119613124424 14.288191718543699 15.407212085302032 16.89776561053151 16.68985355103622 17.094119070598065 17.520068258589816 8.56106025845896 7.981858733791053 18.11492295063735 20.24845580033064 15.386184121043074 17.36172993754496 18.4693846087116 13.284906440369554 13.009575513490736 12.591404208428289 10.503416349785427 10.666162142361022 12.005561122967029 11.948304688716798 9.751965676442394 9.65603477481638 9.980884640404682 10.264410760951245 
-33.63872923423242 -17.69136841818089 -1.6790383105968174 3.328894822568908 1.8495456813709863 0.6986416946417319 23.898925505457694 24.019534116505607 0.31584456319569354 -7.9244017524376105 -14.428889808277653 -5.8833016764883554 2.993180830093643 -8.01185993630137 -14.546698305981732 4.629527939817754 -24.082852683719416 -32.453354298035556 -14.960597456620953 -9.677437202886013 -14.611718642767254 -10.484961667474535 -7.667832919244845 4.416331585574315 -8.945096151552526 -15.128642402837073 -25.11451708252844 -1.066797825749296 0.5196117942543642 -14.548227692355779 -14.844634229952167 -8.95560690870588 -1.1365253404092706 -6.992402802178653 -9.097288905851121 -8.024317647114906 -6.8012871763284 -6.245222073890391 -4.26421435854728 -9.466487287463044 -11.82079272851341 2.5578972664890385 -13.524083130726423 -16.957701197261223 -15.903073915417453 -5.495223620520099 -5.66542583826427 -7.40919925973013 4.937099082757059 16.81859355443895 23.221927759124757 12.456038001114779 14.480557426264086 7.7895887876539565 -0.7438413515044884 -8.94992345670677 -16.557131346123807 -21.13291967420582 -18.276735803722655 -12.849641372964351 -11.436915726689083 -15.761954406809986 -27.823442167589256 -35.991412361057215 -40.21360819919792 -37.83736636300218 -39.07359199684962 -34.61817437915342 -29.81862017013938 -22.754301602880464 -21.004257790934926 -36.1163989156957 -31.494067482223073 -15.872838790929059 4.03677355956102 -3.893279822093009 6.598674837898112 4.437435509089269 -9.612099749110968 -3.2565229431053857 -1.61840838871461 7.576183105680545 5.747802882743949 2.4805504034932704 -1.7147269087564179 -1.8662423586500503 -0.7118537821073 6.737241190432324 0.6160893001356312 0.5047556861799656 5.6227209898484505 2.0294458176724444 3.3392995453668637 3.981528341236541 8.498954351085612 5.2571428950379016 4.457907123245319 13.83439307497357 14.516540783544116 15.333575357389472 15.9475202495013 16.72055859534404 17.970508347591604 14.545783156963761 17.453315413393394 18.48830112943093 20.437214581265366 20.62786435741995 20.653488627165473 20.855411296614285 10.776590651317944 8.01789965234047 18.409642237106343 19.647914827947393 17.84069799562559 18.32153246421602 15.812807599916527 12.842588317035764 9.52233121247014 9.986974526088911 10.59425198818584 9.44479653693326 11.196649028911997 9.839754954865727 6.682764585355972 4.391026584338141 5.510044268868819 4.737137859184214 
-30.182507903460845 -21.449860203665907 0.3411877505879335 4.262956273765962 2.683408636382588 1.475794811395627 29.151467785157823 21.392032458091062 -0.9777304970418627 -10.460774503611795 -9.535685933356602 -3.7719264879476775 7.007838896198231 -4.7299946836192595 -10.530631746863245 9.37592685438125 -17.64395987397082 -27.358052437062764 -9.5437275424126 -0.11757990602160483 -12.463956812249792 -18.494084425613963 -9.314931262196367 -0.777441416096656 -12.615815809817622 -16.316940465401295 -25.32221890111295 0.01653257383220882 4.929283675484282 -12.824887275714245 -12.702772380301887 -2.973598542769224 5.4997913896730415 -1.3430379581759693 -0.5778266004462055 0.4690772790104126 4.494804489603327 9.199210348896075 13.224785072444714 8.75787241830671 -8.59116284779107 -3.5587521841188963 -11.24419945587639 -16.425933178105705 -13.18136625864584 -14.139901431765296 -7.442384027131966 -5.10239946887464 8.771214323377025 13.719342795071752 8.805668863489208 11.41978895799649 7.250063609951696 9.041158497993282 -6.7558727785035755 -5.722806133593095 -11.716781854052282 -14.449299468399323 -16.086490861935243 -22.489051918066167 -35.16314058584002 -40.76435847418568 -47.18845505926996 -43.976636870060375 -45.3671412165019 -44.45931613020212 -42.41987941594543 -39.070950438504106 -36.46892818433105 -31.991129059995647 -19.499585312447078 -26.758628640626636 -27.676738580779602 -27.770859479925 -14.495959515816123 -2.4750119157271335 -7.515532493442531 1.949635885697218 -4.790428187711126 -13.318010935458423 -6.1552692458442255 -2.2448177382368857 8.821808766986143 6.032461794194668 0.5526119071592455 4.56978072196783 5.14534450382096 12.061925751093003 1.5160577539440534 -5.219747777346477 2.4415522814144888 -2.027547759673905 -1.604033320609678 -0.2650889747834811 -1.5503163698764246 -0.7666770135601193 7.383830133511622 17.29001919296574 17.691585097181555 18.448674923691193 19.46067610737018 19.063336473382922 19.558968918902817 14.999853512388137 16.60466074762226 18.377793260503474 19.396757958779894 19.398606941806467 18.948072211182907 19.812663074235616 10.097770522416623 5.129545903870199 16.472350127739475 17.792811481062902 16.412253411256945 16.3662970999201 13.609054141277767 9.802597128831897 7.644829322787829 6.877918835705152 6.978290848888219 5.894124988323392 7.642254401144239 7.034628743012442 3.5953988634880565 2.761074633992274 2.486063148958139 6.948935793945907 
-15.885571273524288 -11.791734738934517 11.890363491461477 17.24803907685277 17.64240425105518 12.160976972319599 33.40308386749008 26.62734738710032 5.001837035586116 -1.5911093926127586 -0.18857082771990438 0.58790304920428 2.7667317684524133 -3.6829859713181787 -4.392129986314435 15.46406283282023 -12.493978024378297 -25.87737738901604 -7.79665489169776 -1.7404229310761972 -8.343333151746902 -11.641645491109056 -4.597465351805102 4.110013820752264 -7.856290701335896 -13.192643572720588 -23.792444969223823 1.6850755293732722 6.972007352766133 -8.48047233525524 -11.638699769963937 -0.7958215026081467 6.449918176561095 0.7573839531830652 2.7983393353671877 2.9903021644224874 6.614631584970428 10.415811449539609 10.848284905343421 11.00456512381263 -10.890594563107385 -9.173362741800657 -7.800479163195714 -9.292052229085808 -9.683359819195289 -10.561871096808934 -4.772952155580508 -3.089441116491405 5.584706066728562 6.582708346884967 12.317902820724836 18.508964116808805 28.057215577039987 11.696656849678302 -4.161050252825727 -24.428551349368814 -32.04883185915228 -36.78447624675508 -39.12749066530019 -50.984206426369106 -54.406973140671795 -55.534355799185555 -44.46938916029219 -39.067359858171635 -28.19199272316571 -23.34827479692159 -24.74426911005907 -26.165393700048295 -23.633932862510218 -33.80119385968257 -41.73059213256019 -33.803815526052475 -23.873980566551047 -6.835294391460231 -16.175368600275906 -12.017127285462195 -13.956935632766854 -10.58428638129999 -5.670337633804769 -11.887190567611093 -7.770250269323438 -4.060413620347756 3.327873457937247 9.612747903223083 4.621482006603535 7.2427920716139464 12.422494782688018 13.536590857712623 6.559289706982941 -1.2299101384631863 1.606115163924184 0.006037818409053828 0.4169330440981969 1.0744827282676777 -2.0395142473885017 -3.141459028772114 2.739880460668874 9.401684384228757 9.271389315156197 11.054829376632012 13.32879955182287 13.489434895820612 14.073295670705193 9.883627474552325 11.022793861616261 13.543052325457394 15.35270553841116 14.086202282028053 15.185314314094951 15.981325932616253 9.668932666466645 4.250451966123823 14.912446374204036 16.30193902462159 14.155647107080945 14.783974179524197 16.20501022954697 9.087396057392056 5.700372984541934 5.3227696678354075 5.328206355107659 3.9249259927700244 7.285957741397212 6.6987817180764 3.054027257380998 3.6974115947756423 2.938121006046894 7.622306358092532 
-10.307854716628125 -10.650526576526783 12.38070362906627 23.31563829544279 24.418483990960414 15.339174313832883 24.300789986308562 15.458193107772768 -0.11998755362917432 -3.4511913401093963 4.128695232744794 9.441781038485773 5.748328081039966 -5.549003282048002 -3.9795739535573356 15.496273758572125 -11.043681885274532 -30.64785444098597 -11.91505873186622 -11.981726910384532 -12.29548573570983 -5.655909225222231 -1.8697986889412492 9.845791937499811 -6.037919740573602 -10.927578235239556 -17.799082041364308 4.808154274270089 8.79397230761291 -6.165302166753715 -12.582360973848692 -1.1179633747085607 6.6571062504939 1.4860915544594342 4.550558445087279 4.5306475357232925 4.08608881733377 5.7848044598427 7.050387788003682 1.535392576975891 -17.262401289219753 -13.146013820190952 -3.887262339393523 -7.033308040615709 -11.10492160902901 -6.735461055249092 -15.51976064222815 -3.0478094855729934 6.087854123241376 10.610318751332617 32.692291837711146 39.60373738919806 25.24623352875654 4.386817288601909 -4.408475151677971 0.9357639979395436 13.9557034603178 19.950351493323982 13.190992824638032 -9.297563402126746 -24.201069469224166 -21.460319607557583 -27.8802124260507 -28.669834328187704 -13.492990128345314 6.65523396844763 -1.535020096141536 6.527778088728343 -18.730654274753167 -23.26083573931767 -47.4636296017077 -55.290171898038885 -20.324542508674533 -14.30154347293683 0.9832030390806792 2.3378249221317575 6.497397846000344 -4.8096083336350866 -2.950051781516025 -13.350306117825594 -8.453667519660234 1.2920912445935457 -3.346349861362803 11.067713510289183 8.646514001891607 12.499998541849571 16.073728637312115 16.807064978331482 9.814069125992384 1.955487192608881 0.5157228540547546 -0.4658910669860757 -0.3509984642193364 -1.2809748866200983 -2.9387398235602498 -3.2612439778407767 -1.3043264756745985 3.675665835810755 2.1407264633459255 1.9820526299338204 3.2136135943818633 3.0349093532782634 4.853853911795898 5.8709930658247025 4.103923164673769 5.7706976544949224 6.932581147527593 7.906301736720288 8.093950010678425 9.560838134715945 6.742091553217278 2.2061479362720164 10.957977566702187 13.512694027864478 18.504964834495958 20.759255057249288 17.624855991217213 10.187978717119538 6.955659844342839 6.897958523439366 6.166392288193348 6.284457668701931 7.370802841696119 5.172340154253789 3.73270921269875 3.8555259777142394 3.5949435010174993 6.015084488939364 
-18.824267083855492 -27.690130654747396 -3.801130456110084 22.84744977488387 27.704410009827118 17.703347649122428 19.942147516732387 13.984981275465996 4.996075385371222 4.359302773076713 6.512772605647862 8.837537325907672 4.4878824444840415 -5.933754923827395 -4.664179977788881 13.780535189517938 -12.13797355476396 -33.324110988053604 -9.425220679605697 -11.415163633746719 -12.34865695062777 -5.131041115866568 1.1414658328334253 10.757743087080335 -7.472391689407017 -12.214384278284225 -18.107081420542453 4.639032240903242 5.439823185769313 -12.669900957955258 -14.238302409196772 -4.399249411267187 0.9459740324411573 1.1389780125997548 3.958452916916817 4.477661534276583 2.5162408636992817 1.9245458270211084 6.104606620836519 -0.9252025421363738 -16.36861696959749 -11.596398354861817 -0.9523129013526344 -8.833693397073521 -10.01170983254542 -6.943485364081176 -16.57451360904614 -1.021790751599926 3.6743681352752295 14.787608255144578 25.112261899235207 15.714513273808038 -0.7623037675938035 -8.729887419706928 -21.58349089352072 -18.72530840606469 12.572441876851252 -8.567936402970085 -34.70974818030264 -2.8819756599552675 -1.4062946038562727 -30.375592483253946 -27.57785555232127 -21.694446226610488 -5.453328209687898 49.53968958074752 28.679503676380428 30.52759672633971 22.73610522090962 -2.318536429217679 -40.948051629558584 -43.30432210972343 -31.117167985522133 -21.981894586569073 -15.127888099220812 4.71416971837281 15.162261581567154 9.129017677508994 -3.4225795714894747 -2.9808083738588373 -16.895019815073226 0.13799827723045735 -9.812515210647831 4.809926267669991 6.1001629297456 14.580362922052492 17.71772905759541 16.705026564602676 8.91826044922106 2.7555929099347596 0.5786935930002418 -0.7739287413859833 -1.0366078691000642 0.12350846369031056 0.20561699745672016 0.5767677899603373 1.50925619343353 0.7884148914743225 -0.4421312323406995 -0.057008722849609096 -0.612958715147666 1.4263644841292593 3.037749917076145 2.5447413056551023 1.3179566159054406 1.5616684779132972 2.2513972722465123 3.3433013955624733 4.646639904918122 6.414471695693528 5.706202511583995 1.7956790572930055 4.6785869816866255 6.459375124417968 11.531316891740921 11.938722361206764 11.711107416051195 7.861302672657936 5.4119800640446 6.775806284649717 6.603796351906083 8.904249831049189 9.298533584317585 6.503097998447969 2.530304239934747 2.804179797411057 3.189534844702876 6.805197397369481 
-28.301936870559494 -38.13132954025642 -25.30758793547113 0.38205565230353467 5.877064810581985 1.3636456470750025 15.470830039892633 10.942648185023037 13.76314503364892 16.03653323525467 17.3911039940109 20.238059496539567 15.794687558231734 9.277309474196603 14.170919961919363 24.623112781818588 6.316219950966913 -17.738917406826765 0.30004245266439333 4.941784902122379 1.0939982707813125 0.8118747239714654 2.93846605205685 6.218387384428683 -7.198542479452141 -11.227093633016747 -15.01665449758338 3.2588495098123054 2.4134108358333264 -12.336245776859782 -14.756522133105985 -6.690322114611937 0.6156981717105368 3.0556455463327543 3.937656938144836 6.8139974581718405 6.461790094415159 3.137047854097121 4.943930865164418 -4.775676704330659 -12.698875057744822 -11.525214219586648 -1.325672243800936 -2.6371065198880377 0.21027207402594655 -1.1597088346345739 -7.9978551710473536 5.781760834080505 11.2895968283713 16.504920470522315 9.816575425150358 17.050844467436974 -7.11187631187509 -15.356663463723992 -5.121742786874126 14.251111071226001 -4.506144477539049 -33.688544713656185 -4.251582214059856 2.3537398869826323 -2.5380902844044444 -17.20288144309535 -15.61168269966807 -2.5798792371323693 3.1277768152243044 16.199561161042084 3.78197798099013 17.793703682039602 21.05394208428565 -0.3600810543042183 -31.586301007007 4.364509492903785 7.2340818706424646 -2.5226442809198826 -0.8146291021564694 -6.709537497802493 5.318561385442363 17.94919036480703 6.571668303436262 8.764109844057984 -12.661640912806151 -2.7530646780512007 -12.241667144850185 -7.474202703796985 6.095910946411963 13.991397226592106 18.479184601085848 17.666581433537058 7.384348588684005 2.9457456039138528 2.504813939158488 0.7480198225334851 -1.0337472342976608 -0.47575141401847865 -0.5529483805574793 0.4038930512427959 0.09307184552841603 -0.274746274820684 -1.0465877979636007 -0.9177229873584605 -1.6480695258805598 -0.8268245086566722 0.9764739169035958 2.573948110371818 1.844660065528274 2.315045018458434 0.6001332976580854 -0.026853713737772292 2.083985781189886 7.349339634862779 9.151434206229833 9.713074063355764 10.039838715705582 8.89725405774543 6.9059691546821975 6.377835230804755 5.062934603743163 2.848366269407107 3.498657362409039 2.7059520860441415 4.62647176640549 5.342068066841368 9.184920314876475 6.311086656337918 2.31232241287858 1.603185964726772 0.6630855757727266 -0.9697972476064918 
-22.957451567070116 -31.351141508174003 -26.6311618546582 -3.143407914901122 -3.0237259685895377 -10.949878413119361 17.156924311528204 11.616729322322595 -2.2354957797973007 0.8336688698417427 2.8422741846684074 9.995807576953334 14.226205665579371 13.052495777680212 18.88074908220294 25.395217979243025 23.641464587632438 -3.4372874571011773 11.943084621898807 23.64222374717604 24.621861865971262 18.86793342677408 15.741891528997222 -1.265626705668543 -21.52919424050391 -22.466987793516182 -22.16425633178383 -2.859910596153934 -1.740287644349411 -12.444538086729908 -16.58144349859871 -10.941924110017954 -0.2416613614718454 12.826951075377956 11.880683768544904 11.726536441386855 9.086086981408068 4.231512153343493 2.562229169124012 -8.88554517462678 -12.708897968919178 -11.256767929369124 1.1637422264837196 6.082439440811637 10.837809547228433 9.503206198932919 1.644524005188924 7.328264336436238 15.38835619628803 2.54020959353975 16.02913560313768 31.926235146564817 -3.336922739557987 3.7682099330797607 4.9263460980671745 8.045954441981117 -26.16315324503438 -12.530847509444246 30.34267764518025 22.095560230660695 9.723027405134271 31.8411544153922 14.887289690281824 17.07147431316083 32.71564588400821 23.109366034274096 10.657316648970026 -0.6337147858198948 1.0770129832973074 -7.9037748858511705 -14.852618666235466 1.672361010664921 40.53590872328886 30.58912601683563 15.592481441877153 6.698382231728043 6.967115604457862 2.464019892951445 6.414482664314479 23.09575635237604 2.8297049758386827 9.673351616524668 -15.786881448807556 -11.344005686718814 4.949269303941631 7.569954033469104 11.724924967961037 10.356046873566012 4.694976878976387 3.411170108129003 4.859510141637368 3.512427743220513 2.322933557659686 2.5042216438577354 1.8525069117054007 0.33647631682842144 -0.9563431798993346 0.6242396740230506 -1.3734350619112743 -0.9781473822211981 -3.2674552909716263 -1.631255638801224 1.0465756669144253 2.5661790655914287 3.15896274677837 2.8657145313878125 -1.0658913398156968 -0.8694175758113145 1.5174906435995505 8.701845804515255 9.304065816788135 9.252326108614195 10.620391800022078 12.652166734592333 14.822551956988937 14.988207416878545 10.769242973449996 4.636223187289829 1.0134350654091298 -0.0949715103157059 -1.5589223047744853 -0.9060637213810836 2.3074466477378337 -2.4918832338756807 -3.961087247639148 -5.74340501269711 -6.051704159697387 -5.899898241320486 
-24.423869471141078 -29.687473804176705 -20.363942616342122 -3.06276482439262 -7.455873674194448 -16.775476283432294 8.969647241254714 4.11347921046782 -8.068776580414518 -14.607324975532794 -12.350029304633 -3.0751305126654005 0.8015193021168603 -5.7095742353775405 15.599783987638656 30.655692481150854 26.053845642556233 -2.7861285877544684 9.558172422531449 25.457512479988036 25.860383129752183 24.090177336832944 22.009792707757537 -1.315982224940866 -26.404634922708226 -32.64017522672064 -31.261027535232454 -11.227932822038094 -10.556252312336126 -19.954614039271014 -21.302270985245947 -14.645254587646503 1.8142900714558825 12.723122642275118 11.091283819552336 10.725287322625466 9.029635507234051 6.4137379050913506 6.422110146012974 -6.338379704849736 -13.200766415739563 -10.552439491382948 3.762921272178165 9.652466199189156 8.662500588493495 9.118638666564104 7.871498535290166 3.771201385086189 -5.375827359685048 -15.652955871604727 20.16030911025683 8.792496959531343 5.578421563358299 8.994304680472336 -5.055973963787095 -5.415686823500659 -14.611364103542359 8.550244491490515 24.198433619856665 7.560271794517633 7.431388234559135 18.931540646151216 -11.139255733142857 -13.558699529282183 14.59411602952271 18.160374268451346 3.5377469530438144 -4.1524335150572 -14.705529622360142 -12.133669980212717 -19.20601567671465 -10.067815221499933 -19.541427566518983 -3.440768407080529 32.74178595760297 33.539441093551126 20.585027343452825 -2.7161668830933974 20.696832313766425 20.575155740213898 11.122605468374331 -3.6575228599292307 -17.17179537681767 -18.556074531104525 1.6813377986254407 4.097805989370772 7.270410105224727 6.254898799828698 4.789150088527712 3.575066919546524 4.491670345871526 4.6888978331921445 3.8152434595332148 4.650644124285476 3.1908773308290828 0.3060629873979682 -2.844405083941494 -0.5280409567862202 -0.05475986326603149 -1.8215782495298773 -3.459370585172786 -2.386793833742558 -0.9468937630629869 -0.6390656864729014 2.887017982042434 5.097995090947455 0.7795308686083214 2.670127293488893 1.7551052331628834 2.338386253576394 1.798747282814577 1.3858738079319286 1.226225337559104 5.7462170235770955 10.2658704924242 13.867194765953371 6.199610693431863 -4.592769844016791 -6.6521395365201865 -4.132159516069326 -5.795479485526711 -3.589066385946964 1.0799711651747232 -0.2557337486168866 -1.744280586926114 -2.7238400279701036 -1.9455934699059423 -2.382125242593603 
-19.647984207405035 -29.192228410837725 -15.434774582258935 -16.033883622573544 -12.279324098774895 -20.17646567810891 4.190894720052598 2.7448659253075927 -16.48220205061076 -22.44277361096948 -22.117267537743242 -15.325025462931574 -1.123759071638435 -5.692865516690786 15.138633178090373 25.38260733245896 15.928151792316594 -8.554320212540219 5.6913029893336615 24.451646082560742 26.291353356676286 26.699836704827877 24.2614600180103 5.156774022231619 -27.733137714871674 -32.94161303737084 -26.342199242123836 -8.13684123221238 -8.025193288350913 -18.279515247843086 -20.396650003375242 -15.187542452124502 4.52982204693452 9.91587660553632 11.183597228052813 9.227100123842126 8.58852928467717 5.970469227375667 7.685960776353336 -3.3904541310239167 -8.804451886344538 -6.454834876817722 7.4246684751472385 10.7673091957383 -1.7098920636470536 9.442994416401048 22.046398531173676 9.460317624483736 -26.729559882876764 -1.1812685969356291 5.927097207161661 -6.775453241479642 4.4719523679957565 -10.078712254742953 -14.75606640482799 -11.181479286707722 -5.10436750950734 -9.613209209942461 -9.49018827179561 -13.682426047605617 8.779652770078384 23.326494755509874 11.544365288739106 -12.955828986810413 7.34685597454401 24.7553326504651 -13.006388380797524 -21.10206538868026 -19.895013828009954 7.382609541148878 4.589527143816787 -21.069891217272094 -21.06548733216881 -8.239297793522013 16.326850756976395 45.9618821356153 24.691859401013236 11.41513059876727 24.1257664460601 11.436811636964633 14.203935012385337 -4.930097651072314 -15.989958003258417 -15.650478697414611 -0.41236978293280735 4.780776419380281 12.561020971917566 9.833344061030045 7.809568827030897 5.040605510976153 11.31817698289181 9.81072037862704 11.377724933890487 11.484033275127523 11.174351776965148 7.66341033890788 1.9195601346300861 -1.678924351087024 0.11004622847098745 -0.30234310067679193 -4.0618397563190385 3.937469516579787 1.2296562661344916 0.17174408657063128 2.269420077870662 2.353232967160154 1.8870017172742684 5.718394449885625 5.070631318422928 2.873999837974474 0.704650356914285 0.11436608369704329 -1.2195418773679594 0.48356025580724066 3.0111745531041088 9.485090399709847 1.9027170662453743 -4.949193620557956 -5.244871280827938 -2.436182531568188 -1.6355396478116135 0.487556527892483 3.695317354779403 2.862644138617651 -0.18218355656520566 -0.41487919207577156 1.0779482391123734 0.7159439026382 
-28.087927907962865 -34.220167967654355 -29.70111273586101 -27.39226006453761 -24.58885831087481 -24.774964296467147 2.12804857834232 -1.9705192149159647 -19.577431024392265 -22.92899384945354 -22.06094290053145 -14.990324655730292 -0.06740462041765853 -7.134356793747648 11.933372551647512 18.769486495885165 1.2943067034948221 -33.92683438748111 -19.380998402320692 1.6423255414850109 6.468692610936597 7.447158124259409 12.226720362463427 5.690950379689778 -28.754002062990324 -28.50249363598273 -16.75567605309952 5.324377910306763 8.767908452485614 -1.8154241574742194 -3.843233347897885 0.2651321040706482 11.91109208243823 12.262392254258542 12.41879294133257 6.099144207427301 4.653455178732622 5.8409028689871265 9.9609979295308 4.3394401063303425 -0.20774508889209034 -0.7332679013475237 10.288094371181439 11.922608781690379 3.321135171139069 16.82407614906752 26.199195122598926 9.166498434798589 -7.510715006211541 -2.8214746209304926 1.7514201944596486 -2.9811726324539927 -1.1947215420260877 -16.907045240497585 -16.160379557881907 14.211564338598906 8.140513357722972 13.427946307273377 -4.868422214362213 -14.904138440377299 17.67710387283948 21.213371572023878 -3.535069455835248 -15.446511726622498 -0.5659930199151494 32.3533848400474 -7.232530818849531 -26.704490881411513 -4.566898642102818 18.32947182941729 30.125587630523185 15.847328496334697 3.7350037866244916 -7.611424828438964 4.7439249428252435 20.387799987035105 22.54322842251129 8.65026654194487 13.524083584578248 4.458378083068366 7.626519287131148 -1.6635461524441442 -7.241077510841555 -10.786188715278175 -0.8770538922394482 9.93204786389174 16.01873631411634 12.772886542953957 11.26426587197314 8.804816175200425 14.841240256602122 17.074172066533382 15.936737251366942 18.62225397090351 18.924164973971074 18.10558610563894 11.627148874319046 -1.5490889186698584 -4.9165892826761235 -5.953737632110082 3.483033561612609 7.899545925850143 3.3629002675727357 -0.3479588749438681 -2.044412061056514 -4.36239508025704 -0.37855343329725943 7.488609910171448 8.036111054761163 7.996858623934962 9.061063017411717 7.509627352838129 3.3550936455919627 4.592498372193587 5.5508292843649185 9.12882528573519 0.35412152436933975 -4.758641086223057 -4.396464230786815 -2.2820299550007466 0.23909230669412232 2.544131767673112 4.5006971276064105 5.192112858074812 2.747774666839086 2.7789705722350386 3.60843476096992 2.5454333814689507 
-37.561073898158625 -39.512318606757844 -24.14989382921306 -9.488952996253156 -17.03528754302752 -31.17861380844135 -8.341859149304918 -9.216338496914975 -34.71861524048176 -35.02532346046631 -35.39920475532721 -28.728954288031474 -15.831652006405038 -25.275273659164835 -10.780733807664134 -6.046674467609065 -20.382397333348123 -42.995181085186196 -28.180758737755315 -13.05096200718251 -14.291105467090311 -20.9165408831135 -17.118379484408457 -5.36873514796985 -29.539888196807123 -31.513509811518453 -18.62155432214512 3.226467896251112 10.78062906223181 9.775477169270856 11.066202930939061 14.53455599254537 20.885027310863702 10.791737454555808 7.874094927427326 2.0375892821929584 3.4796018027497433 3.482066983363079 7.452519594012893 8.855762972392649 8.750893472423027 3.064019911816662 3.504279685922072 -1.7471492763424656 -4.256216788504036 7.156269360009617 23.39346387812667 13.568831320263127 3.916552241064243 6.027550282121778 9.39019030334967 20.823863631131402 -4.215158841171209 -11.36215568705028 12.393134948368953 25.99062436157821 18.429280199947204 13.260817490161866 -6.1935923648771976 6.076272851995616 28.286296830230466 7.523276368838871 -14.791947505200667 -15.727981576769691 -7.380734186789545 10.41898455379366 23.52422100837587 -2.230373566534432 8.76674198697882 7.122303811137546 27.100496549791913 30.85746941562162 24.722049506609004 26.384652752649654 4.815826630217292 6.205654779581054 10.653871200017996 8.116703656008935 6.676901913310275 5.275404126154515 -0.8854333126703368 -2.9394401707639974 0.6743448842695702 -3.975663342762966 0.247529085049428 4.781696598369571 12.422659367726455 12.798944345264463 11.234923978585373 7.798271296788974 12.492298507286119 15.563217163198122 14.014790200520716 13.366476771168776 16.430940536388608 13.32833493462517 1.7385257837351005 -11.408350061603693 -10.06085149298513 3.304120090974827 4.398366155571964 6.023480937161895 4.737700257311807 4.302481562655311 -2.0610603170099187 -2.5054775862172263 1.0578117108979346 9.169316309869027 10.695941320099667 11.300052718811294 12.612079345690757 10.256794270599775 6.943872030366844 13.712600913899873 14.892145173730544 16.251795652979908 9.334900192668448 7.166928352489627 3.035849436608272 -1.5292432873304453 0.41244111888476903 3.279754930576735 3.627903655786868 6.671426164687367 3.001204875381901 3.663959515042164 2.619921852927225 3.472101632191975 
-23.5746403835643 -19.113256863680203 -0.7563996940665841 3.7767821105526385 6.037496565838556 -12.964245148585166 -6.142514632417898 -13.756875939535709 -40.76046666377879 -37.239825783794636 -35.37530357283376 -29.23927826233385 -20.562867810020297 -26.079826265865428 -15.544893557296183 -6.811387864329389 -23.0553934674975 -43.53564474993458 -25.6363406306583 -17.90278896940765 -23.96457493000309 -34.46101239775332 -35.930430610552314 -22.803569574564797 -32.256058586033866 -30.118503113892903 -19.29680532386748 0.4391068872989015 7.992531439332587 12.341040707634567 16.99521070309634 13.75999670905427 22.17413389475579 12.532058547326141 10.332046644430394 0.44861234263151983 3.1427596684899255 -1.3112392487338924 3.2868117131963515 7.15186039176315 9.647560296434522 -2.3450904767396596 0.5928409076601645 -0.10939588661300956 -15.722789911509949 -2.0446061011042134 23.475852320502675 5.164607179029208 4.52218605113939 5.326055001106339 9.073386351488466 8.449316266560496 1.56896749250588 17.899629625923655 33.987905175370244 15.764816874294393 35.83398591328146 22.55692355985856 36.968595722351886 28.779305381885557 15.657174766315384 -22.740832792184474 -53.90274795509603 -43.77712531847528 -15.958872672047388 15.405817777371402 28.428755266966327 19.128660862567042 -6.5054036664357655 0.4855474863159256 23.546324861761246 32.94290920225647 23.171694744005105 39.407587499919565 26.930002187300683 9.618998776443952 8.352185634637392 10.871305444865996 -0.5000092187815245 -2.140482275046918 -7.8966603104618835 -11.513481425998457 -3.4599530975798567 1.146704207462765 2.4492281219031233 3.291624678517589 7.30111071935254 9.696348526842478 5.2457544983332705 5.681144694770535 7.588124655136021 10.208800382670749 9.949971005418464 10.27125300067296 11.17848436026144 7.351878993149227 -4.12779678607375 -7.706961271578523 -0.906558499111515 6.80365850118705 7.1957944638454485 7.43901204295485 7.225177742860524 6.4259253199319275 1.359848800426985 1.5860747051998905 3.939044447541513 12.793084566299408 14.69743097920017 14.479615258044475 14.050420831515625 12.77430494056465 9.459890363035166 15.749163621296855 13.666861824550857 1.2865934981081057 2.884593481626774 8.628687367132919 5.818548768927355 -1.632543325648928 -0.4848986337326274 4.355010331661867 4.720071338516619 6.320632373881292 4.996089954091031 4.160542012437699 3.871474672790925 4.850698993850495 
-18.91793594266462 3.1608695587738973 11.40910279917024 3.2491748348816705 1.502656098434019 -13.119617833479536 -7.02603459314896 -7.978938990494432 -38.17977614848264 -28.896924403737334 -29.061214730537625 -24.330893368598563 -17.04916013163324 -18.42360693383411 -8.614231075002978 5.848775162194592 -12.15029052336064 -38.62462859719604 -20.805762916993856 -12.24825080726622 -16.156708394062534 -15.875984239137008 -17.77445505972367 -19.275964482559168 -19.96208111794365 -18.534113862846333 -21.850816226934718 -18.9763152764251 -10.676850659973466 -6.404148353635856 2.9191989447162663 -5.6067776458594585 -4.9419607693146075 -6.7888527266451435 -4.388449390247221 -12.884192682374826 -10.343095359945455 -13.844181559429595 -7.316242576241278 -3.2975787794684184 0.5621650575872668 -4.784392707206024 2.0957881778684158 -4.1119502237174235 -19.72987112346941 -15.085894647969026 24.52570259324788 7.179954861540042 16.646809721743857 14.679328276401579 10.06636994312709 -7.831337502957189 -0.521367049483607 10.74391791906072 -8.393866178370558 16.401009151381228 9.140244092000172 33.30685294468132 37.57554053172401 31.34053932170783 8.20964340417301 -25.697972892952436 -50.401284634897124 -36.53018808398384 -18.635387114713502 16.111487185915614 33.27070697586308 44.35917352160756 11.617405922095413 -7.960468338055737 -12.02579830092595 -4.1283185977528865 23.175800033425645 46.58206965483531 38.75351944768993 39.198438388759726 18.964711778275582 19.37008253015668 -4.734328278880396 -3.947815538792222 -15.130474666130455 -17.54660934632571 -10.952293542786936 -0.04291645477087423 -4.067351915374585 -3.537570679320819 5.435716228839606 5.519549785126863 4.423558605805308 2.5239116935978125 5.775518550743678 7.183470509271409 9.888367778385678 11.974493107492808 12.45998481241547 5.477469844741807 5.947710196878079 -3.2690881453277063 8.091042959425595 10.663668828200596 8.846087813896595 8.935075717056984 10.858140927793707 8.123218212937507 4.730076866054955 0.9074878415183533 4.4561831152726485 12.785304479204829 13.982791741998083 13.091943995761849 13.982598596063221 12.935037394035513 6.856127216450389 12.740077456135355 11.186852424578941 -2.507572778588689 -3.219913134034611 8.494569415771672 8.826447806921164 -2.2857191134869566 1.2602589116799914 3.613600050260497 4.997817829172364 5.348756038513249 3.8124193896733303 2.8609823554550005 3.814220649306764 4.911546030132606 
